digraph Tree {
node [shape=box, style="filled", color="black"] ;
0 [label="X[1] <= 283.5\nmse = 324712.806\nsamples = 7008\nvalue = 663.838", fillcolor="#f7d8c2"] ;
1 [label="X[9] <= 2.0\nmse = 113113.216\nsamples = 3243\nvalue = 357.664", fillcolor="#fbeade"] ;
0 -> 1 [labeldistance=2.5, labelangle=45, headlabel="True"] ;
2 [label="X[0] <= 6.5\nmse = 173998.529\nsamples = 1510\nvalue = 508.578", fillcolor="#f9e1d0"] ;
1 -> 2 ;
3 [label="X[0] <= 1.5\nmse = 31488.842\nsamples = 613\nvalue = 229.794", fillcolor="#fcf2ea"] ;
2 -> 3 ;
4 [label="X[9] <= 0.5\nmse = 43977.444\nsamples = 154\nvalue = 387.532", fillcolor="#fae8dc"] ;
3 -> 4 ;
5 [label="X[11] <= 0.5\nmse = 41529.458\nsamples = 76\nvalue = 489.171", fillcolor="#f9e3d2"] ;
4 -> 5 ;
6 [label="mse = 0.0\nsamples = 6\nvalue = 0.0", fillcolor="#ffffff"] ;
5 -> 6 ;
7 [label="X[1] <= 239.0\nmse = 22820.661\nsamples = 70\nvalue = 531.1", fillcolor="#f9e0ce"] ;
5 -> 7 ;
8 [label="X[5] <= 316.0\nmse = 16034.266\nsamples = 39\nvalue = 454.128", fillcolor="#fae5d5"] ;
7 -> 8 ;
9 [label="X[2] <= 72.0\nmse = 11185.359\nsamples = 37\nvalue = 471.216", fillcolor="#f9e4d4"] ;
8 -> 9 ;
10 [label="X[0] <= 0.5\nmse = 9014.492\nsamples = 33\nvalue = 489.152", fillcolor="#f9e3d2"] ;
9 -> 10 ;
11 [label="X[3] <= 15.5\nmse = 8661.972\nsamples = 17\nvalue = 520.706", fillcolor="#f9e1cf"] ;
10 -> 11 ;
12 [label="X[1] <= 221.0\nmse = 5443.333\nsamples = 9\nvalue = 561.333", fillcolor="#f8decc"] ;
11 -> 12 ;
13 [label="X[5] <= 235.5\nmse = 1987.44\nsamples = 5\nvalue = 507.6", fillcolor="#f9e1d1"] ;
12 -> 13 ;
14 [label="X[2] <= 30.5\nmse = 1332.25\nsamples = 2\nvalue = 551.5", fillcolor="#f8dfcd"] ;
13 -> 14 ;
15 [label="mse = 0.0\nsamples = 1\nvalue = 515.0", fillcolor="#f9e1d0"] ;
14 -> 15 ;
16 [label="mse = 0.0\nsamples = 1\nvalue = 588.0", fillcolor="#f8ddc9"] ;
14 -> 16 ;
17 [label="X[1] <= 214.5\nmse = 282.889\nsamples = 3\nvalue = 478.333", fillcolor="#f9e3d3"] ;
13 -> 17 ;
18 [label="X[1] <= 204.5\nmse = 16.0\nsamples = 2\nvalue = 490.0", fillcolor="#f9e2d2"] ;
17 -> 18 ;
19 [label="mse = 0.0\nsamples = 1\nvalue = 486.0", fillcolor="#f9e3d3"] ;
18 -> 19 ;
20 [label="mse = 0.0\nsamples = 1\nvalue = 494.0", fillcolor="#f9e2d2"] ;
18 -> 20 ;
21 [label="mse = 0.0\nsamples = 1\nvalue = 455.0", fillcolor="#fae5d5"] ;
17 -> 21 ;
22 [label="X[5] <= 273.5\nmse = 1642.75\nsamples = 4\nvalue = 628.5", fillcolor="#f7dac6"] ;
12 -> 22 ;
23 [label="mse = 0.0\nsamples = 1\nvalue = 691.0", fillcolor="#f7d7c0"] ;
22 -> 23 ;
24 [label="X[1] <= 234.0\nmse = 454.222\nsamples = 3\nvalue = 607.667", fillcolor="#f8dcc7"] ;
22 -> 24 ;
25 [label="X[2] <= 49.5\nmse = 121.0\nsamples = 2\nvalue = 594.0", fillcolor="#f8dcc9"] ;
24 -> 25 ;
26 [label="mse = 0.0\nsamples = 1\nvalue = 605.0", fillcolor="#f8dcc8"] ;
25 -> 26 ;
27 [label="mse = 0.0\nsamples = 1\nvalue = 583.0", fillcolor="#f8ddca"] ;
25 -> 27 ;
28 [label="mse = 0.0\nsamples = 1\nvalue = 635.0", fillcolor="#f7dac5"] ;
24 -> 28 ;
29 [label="X[1] <= 227.0\nmse = 8337.0\nsamples = 8\nvalue = 475.0", fillcolor="#f9e3d4"] ;
11 -> 29 ;
30 [label="X[5] <= 261.5\nmse = 4120.0\nsamples = 7\nvalue = 501.0", fillcolor="#f9e2d1"] ;
29 -> 30 ;
31 [label="X[5] <= 208.0\nmse = 182.64\nsamples = 5\nvalue = 461.6", fillcolor="#f9e4d5"] ;
30 -> 31 ;
32 [label="X[4] <= 1785.5\nmse = 130.889\nsamples = 3\nvalue = 453.333", fillcolor="#fae5d6"] ;
31 -> 32 ;
33 [label="X[1] <= 204.0\nmse = 12.25\nsamples = 2\nvalue = 445.5", fillcolor="#fae5d6"] ;
32 -> 33 ;
34 [label="mse = 0.0\nsamples = 1\nvalue = 442.0", fillcolor="#fae5d7"] ;
33 -> 34 ;
35 [label="mse = 0.0\nsamples = 1\nvalue = 449.0", fillcolor="#fae5d6"] ;
33 -> 35 ;
36 [label="mse = 0.0\nsamples = 1\nvalue = 469.0", fillcolor="#f9e4d4"] ;
32 -> 36 ;
37 [label="X[4] <= 1240.0\nmse = 4.0\nsamples = 2\nvalue = 474.0", fillcolor="#f9e3d4"] ;
31 -> 37 ;
38 [label="mse = 0.0\nsamples = 1\nvalue = 472.0", fillcolor="#f9e4d4"] ;
37 -> 38 ;
39 [label="mse = 0.0\nsamples = 1\nvalue = 476.0", fillcolor="#f9e3d3"] ;
37 -> 39 ;
40 [label="X[5] <= 286.5\nmse = 380.25\nsamples = 2\nvalue = 599.5", fillcolor="#f8dcc8"] ;
30 -> 40 ;
41 [label="mse = 0.0\nsamples = 1\nvalue = 580.0", fillcolor="#f8ddca"] ;
40 -> 41 ;
42 [label="mse = 0.0\nsamples = 1\nvalue = 619.0", fillcolor="#f8dbc6"] ;
40 -> 42 ;
43 [label="mse = 0.0\nsamples = 1\nvalue = 293.0", fillcolor="#fbeee4"] ;
29 -> 43 ;
44 [label="X[2] <= 59.5\nmse = 7207.109\nsamples = 16\nvalue = 455.625", fillcolor="#fae4d5"] ;
10 -> 44 ;
45 [label="X[4] <= 1169.0\nmse = 5863.816\nsamples = 14\nvalue = 438.571", fillcolor="#fae5d7"] ;
44 -> 45 ;
46 [label="X[3] <= 15.5\nmse = 6162.25\nsamples = 2\nvalue = 354.5", fillcolor="#fbeadf"] ;
45 -> 46 ;
47 [label="mse = 0.0\nsamples = 1\nvalue = 276.0", fillcolor="#fcefe6"] ;
46 -> 47 ;
48 [label="mse = 0.0\nsamples = 1\nvalue = 433.0", fillcolor="#fae6d7"] ;
46 -> 48 ;
49 [label="X[2] <= 56.5\nmse = 4439.743\nsamples = 12\nvalue = 452.583", fillcolor="#fae5d6"] ;
45 -> 49 ;
50 [label="X[5] <= 261.0\nmse = 2075.136\nsamples = 9\nvalue = 475.556", fillcolor="#f9e3d4"] ;
49 -> 50 ;
51 [label="X[2] <= 28.5\nmse = 1256.333\nsamples = 6\nvalue = 451.0", fillcolor="#fae5d6"] ;
50 -> 51 ;
52 [label="X[1] <= 184.5\nmse = 121.0\nsamples = 2\nvalue = 494.0", fillcolor="#f9e2d2"] ;
51 -> 52 ;
53 [label="mse = 0.0\nsamples = 1\nvalue = 483.0", fillcolor="#f9e3d3"] ;
52 -> 53 ;
54 [label="mse = 0.0\nsamples = 1\nvalue = 505.0", fillcolor="#f9e2d1"] ;
52 -> 54 ;
55 [label="X[5] <= 222.0\nmse = 437.25\nsamples = 4\nvalue = 429.5", fillcolor="#fae6d8"] ;
51 -> 55 ;
56 [label="X[2] <= 34.5\nmse = 110.25\nsamples = 2\nvalue = 410.5", fillcolor="#fae7d9"] ;
55 -> 56 ;
57 [label="mse = 0.0\nsamples = 1\nvalue = 421.0", fillcolor="#fae6d8"] ;
56 -> 57 ;
58 [label="mse = 0.0\nsamples = 1\nvalue = 400.0", fillcolor="#fae8da"] ;
56 -> 58 ;
59 [label="X[5] <= 239.5\nmse = 42.25\nsamples = 2\nvalue = 448.5", fillcolor="#fae5d6"] ;
55 -> 59 ;
60 [label="mse = 0.0\nsamples = 1\nvalue = 442.0", fillcolor="#fae5d7"] ;
59 -> 60 ;
61 [label="mse = 0.0\nsamples = 1\nvalue = 455.0", fillcolor="#fae5d5"] ;
59 -> 61 ;
62 [label="X[5] <= 286.0\nmse = 94.889\nsamples = 3\nvalue = 524.667", fillcolor="#f9e0cf"] ;
50 -> 62 ;
63 [label="X[5] <= 282.0\nmse = 9.0\nsamples = 2\nvalue = 518.0", fillcolor="#f9e1d0"] ;
62 -> 63 ;
64 [label="mse = 0.0\nsamples = 1\nvalue = 521.0", fillcolor="#f9e1cf"] ;
63 -> 64 ;
65 [label="mse = 0.0\nsamples = 1\nvalue = 515.0", fillcolor="#f9e1d0"] ;
63 -> 65 ;
66 [label="mse = 0.0\nsamples = 1\nvalue = 538.0", fillcolor="#f9e0ce"] ;
62 -> 66 ;
67 [label="X[3] <= 7.5\nmse = 5200.889\nsamples = 3\nvalue = 383.667", fillcolor="#fae9dc"] ;
49 -> 67 ;
68 [label="mse = 0.0\nsamples = 1\nvalue = 485.0", fillcolor="#f9e3d3"] ;
67 -> 68 ;
69 [label="X[3] <= 11.5\nmse = 100.0\nsamples = 2\nvalue = 333.0", fillcolor="#fbece1"] ;
67 -> 69 ;
70 [label="mse = 0.0\nsamples = 1\nvalue = 323.0", fillcolor="#fbece1"] ;
69 -> 70 ;
71 [label="mse = 0.0\nsamples = 1\nvalue = 343.0", fillcolor="#fbebe0"] ;
69 -> 71 ;
72 [label="X[1] <= 213.0\nmse = 324.0\nsamples = 2\nvalue = 575.0", fillcolor="#f8deca"] ;
44 -> 72 ;
73 [label="mse = 0.0\nsamples = 1\nvalue = 593.0", fillcolor="#f8dcc9"] ;
72 -> 73 ;
74 [label="mse = 0.0\nsamples = 1\nvalue = 557.0", fillcolor="#f8dfcc"] ;
72 -> 74 ;
75 [label="X[2] <= 75.5\nmse = 4547.188\nsamples = 4\nvalue = 323.25", fillcolor="#fbece1"] ;
9 -> 75 ;
76 [label="X[3] <= 10.5\nmse = 3136.0\nsamples = 2\nvalue = 269.0", fillcolor="#fcefe6"] ;
75 -> 76 ;
77 [label="mse = 0.0\nsamples = 1\nvalue = 213.0", fillcolor="#fcf3ec"] ;
76 -> 77 ;
78 [label="mse = 0.0\nsamples = 1\nvalue = 325.0", fillcolor="#fbece1"] ;
76 -> 78 ;
79 [label="X[8] <= 16.0\nmse = 72.25\nsamples = 2\nvalue = 377.5", fillcolor="#fae9dc"] ;
75 -> 79 ;
80 [label="mse = 0.0\nsamples = 1\nvalue = 386.0", fillcolor="#fae9dc"] ;
79 -> 80 ;
81 [label="mse = 0.0\nsamples = 1\nvalue = 369.0", fillcolor="#fbeadd"] ;
79 -> 81 ;
82 [label="X[1] <= 233.5\nmse = 400.0\nsamples = 2\nvalue = 138.0", fillcolor="#fdf7f2"] ;
8 -> 82 ;
83 [label="mse = 0.0\nsamples = 1\nvalue = 158.0", fillcolor="#fdf6f1"] ;
82 -> 83 ;
84 [label="mse = 0.0\nsamples = 1\nvalue = 118.0", fillcolor="#fef8f4"] ;
82 -> 84 ;
85 [label="X[0] <= 0.5\nmse = 14527.673\nsamples = 31\nvalue = 627.935", fillcolor="#f7dac6"] ;
7 -> 85 ;
86 [label="X[4] <= 786.5\nmse = 6746.638\nsamples = 14\nvalue = 704.929", fillcolor="#f7d6bf"] ;
85 -> 86 ;
87 [label="X[4] <= 647.5\nmse = 6275.36\nsamples = 5\nvalue = 652.2", fillcolor="#f7d9c3"] ;
86 -> 87 ;
88 [label="X[4] <= 242.5\nmse = 2216.188\nsamples = 4\nvalue = 685.75", fillcolor="#f7d7c0"] ;
87 -> 88 ;
89 [label="X[5] <= 361.5\nmse = 64.0\nsamples = 2\nvalue = 640.0", fillcolor="#f7dac4"] ;
88 -> 89 ;
90 [label="mse = 0.0\nsamples = 1\nvalue = 648.0", fillcolor="#f7d9c4"] ;
89 -> 90 ;
91 [label="mse = 0.0\nsamples = 1\nvalue = 632.0", fillcolor="#f7dac5"] ;
89 -> 91 ;
92 [label="X[5] <= 348.5\nmse = 182.25\nsamples = 2\nvalue = 731.5", fillcolor="#f6d4bc"] ;
88 -> 92 ;
93 [label="mse = 0.0\nsamples = 1\nvalue = 718.0", fillcolor="#f6d5bd"] ;
92 -> 93 ;
94 [label="mse = 0.0\nsamples = 1\nvalue = 745.0", fillcolor="#f6d4bb"] ;
92 -> 94 ;
95 [label="mse = 0.0\nsamples = 1\nvalue = 518.0", fillcolor="#f9e1d0"] ;
87 -> 95 ;
96 [label="X[3] <= 1.0\nmse = 4605.728\nsamples = 9\nvalue = 734.222", fillcolor="#f6d4bc"] ;
86 -> 96 ;
97 [label="X[2] <= 51.5\nmse = 324.0\nsamples = 2\nvalue = 819.0", fillcolor="#f5cfb4"] ;
96 -> 97 ;
98 [label="mse = 0.0\nsamples = 1\nvalue = 801.0", fillcolor="#f5d0b6"] ;
97 -> 98 ;
99 [label="mse = 0.0\nsamples = 1\nvalue = 837.0", fillcolor="#f5ceb2"] ;
97 -> 99 ;
100 [label="X[3] <= 2.5\nmse = 3188.857\nsamples = 7\nvalue = 710.0", fillcolor="#f6d6be"] ;
96 -> 100 ;
101 [label="mse = 0.0\nsamples = 1\nvalue = 616.0", fillcolor="#f8dbc7"] ;
100 -> 101 ;
102 [label="X[5] <= 320.5\nmse = 2002.222\nsamples = 6\nvalue = 725.667", fillcolor="#f6d5bd"] ;
100 -> 102 ;
103 [label="X[5] <= 307.5\nmse = 40.667\nsamples = 3\nvalue = 703.0", fillcolor="#f7d6bf"] ;
102 -> 103 ;
104 [label="X[1] <= 243.5\nmse = 0.25\nsamples = 2\nvalue = 698.5", fillcolor="#f7d6bf"] ;
103 -> 104 ;
105 [label="mse = 0.0\nsamples = 1\nvalue = 699.0", fillcolor="#f7d6bf"] ;
104 -> 105 ;
106 [label="mse = 0.0\nsamples = 1\nvalue = 698.0", fillcolor="#f7d6bf"] ;
104 -> 106 ;
107 [label="mse = 0.0\nsamples = 1\nvalue = 712.0", fillcolor="#f6d6be"] ;
103 -> 107 ;
108 [label="X[4] <= 1631.5\nmse = 2936.222\nsamples = 3\nvalue = 748.333", fillcolor="#f6d3bb"] ;
102 -> 108 ;
109 [label="X[2] <= 68.5\nmse = 110.25\nsamples = 2\nvalue = 710.5", fillcolor="#f6d6be"] ;
108 -> 109 ;
110 [label="mse = 0.0\nsamples = 1\nvalue = 721.0", fillcolor="#f6d5bd"] ;
109 -> 110 ;
111 [label="mse = 0.0\nsamples = 1\nvalue = 700.0", fillcolor="#f7d6bf"] ;
109 -> 111 ;
112 [label="mse = 0.0\nsamples = 1\nvalue = 824.0", fillcolor="#f5cfb4"] ;
108 -> 112 ;
113 [label="X[4] <= 1631.5\nmse = 12033.426\nsamples = 17\nvalue = 564.529", fillcolor="#f8decb"] ;
85 -> 113 ;
114 [label="X[3] <= 1.5\nmse = 9309.076\nsamples = 12\nvalue = 525.083", fillcolor="#f9e0cf"] ;
113 -> 114 ;
115 [label="mse = 0.0\nsamples = 1\nvalue = 345.0", fillcolor="#fbebdf"] ;
114 -> 115 ;
116 [label="X[4] <= 1540.0\nmse = 6939.157\nsamples = 11\nvalue = 541.455", fillcolor="#f8dfcd"] ;
114 -> 116 ;
117 [label="X[1] <= 280.0\nmse = 4437.05\nsamples = 10\nvalue = 558.5", fillcolor="#f8decc"] ;
116 -> 117 ;
118 [label="X[1] <= 254.5\nmse = 2170.765\nsamples = 9\nvalue = 575.111", fillcolor="#f8deca"] ;
117 -> 118 ;
119 [label="X[2] <= 65.5\nmse = 0.25\nsamples = 2\nvalue = 515.5", fillcolor="#f9e1d0"] ;
118 -> 119 ;
120 [label="mse = 0.0\nsamples = 1\nvalue = 515.0", fillcolor="#f9e1d0"] ;
119 -> 120 ;
121 [label="mse = 0.0\nsamples = 1\nvalue = 516.0", fillcolor="#f9e1d0"] ;
119 -> 121 ;
122 [label="X[4] <= 435.5\nmse = 1485.551\nsamples = 7\nvalue = 592.143", fillcolor="#f8ddc9"] ;
118 -> 122 ;
123 [label="mse = 0.0\nsamples = 1\nvalue = 672.0", fillcolor="#f7d8c2"] ;
122 -> 123 ;
124 [label="X[5] <= 321.5\nmse = 493.139\nsamples = 6\nvalue = 578.833", fillcolor="#f8ddca"] ;
122 -> 124 ;
125 [label="mse = 0.0\nsamples = 1\nvalue = 615.0", fillcolor="#f8dbc7"] ;
124 -> 125 ;
126 [label="X[4] <= 677.5\nmse = 277.84\nsamples = 5\nvalue = 571.6", fillcolor="#f8decb"] ;
124 -> 126 ;
127 [label="mse = 0.0\nsamples = 1\nvalue = 544.0", fillcolor="#f8dfcd"] ;
126 -> 127 ;
128 [label="X[1] <= 271.5\nmse = 109.25\nsamples = 4\nvalue = 578.5", fillcolor="#f8ddca"] ;
126 -> 128 ;
129 [label="X[5] <= 337.5\nmse = 24.667\nsamples = 3\nvalue = 573.0", fillcolor="#f8decb"] ;
128 -> 129 ;
130 [label="mse = 0.0\nsamples = 1\nvalue = 580.0", fillcolor="#f8ddca"] ;
129 -> 130 ;
131 [label="X[1] <= 264.0\nmse = 0.25\nsamples = 2\nvalue = 569.5", fillcolor="#f8decb"] ;
129 -> 131 ;
132 [label="mse = 0.0\nsamples = 1\nvalue = 569.0", fillcolor="#f8decb"] ;
131 -> 132 ;
133 [label="mse = 0.0\nsamples = 1\nvalue = 570.0", fillcolor="#f8decb"] ;
131 -> 133 ;
134 [label="mse = 0.0\nsamples = 1\nvalue = 595.0", fillcolor="#f8dcc9"] ;
128 -> 134 ;
135 [label="mse = 0.0\nsamples = 1\nvalue = 409.0", fillcolor="#fae7da"] ;
117 -> 135 ;
136 [label="mse = 0.0\nsamples = 1\nvalue = 371.0", fillcolor="#fbe9dd"] ;
116 -> 136 ;
137 [label="X[4] <= 1771.0\nmse = 5874.96\nsamples = 5\nvalue = 659.2", fillcolor="#f7d9c3"] ;
113 -> 137 ;
138 [label="X[1] <= 260.0\nmse = 289.0\nsamples = 2\nvalue = 747.0", fillcolor="#f6d4bb"] ;
137 -> 138 ;
139 [label="mse = 0.0\nsamples = 1\nvalue = 730.0", fillcolor="#f6d5bc"] ;
138 -> 139 ;
140 [label="mse = 0.0\nsamples = 1\nvalue = 764.0", fillcolor="#f6d3b9"] ;
138 -> 140 ;
141 [label="X[2] <= 58.0\nmse = 1033.556\nsamples = 3\nvalue = 600.667", fillcolor="#f8dcc8"] ;
137 -> 141 ;
142 [label="X[3] <= 21.0\nmse = 9.0\nsamples = 2\nvalue = 578.0", fillcolor="#f8ddca"] ;
141 -> 142 ;
143 [label="mse = 0.0\nsamples = 1\nvalue = 575.0", fillcolor="#f8deca"] ;
142 -> 143 ;
144 [label="mse = 0.0\nsamples = 1\nvalue = 581.0", fillcolor="#f8ddca"] ;
142 -> 144 ;
145 [label="mse = 0.0\nsamples = 1\nvalue = 646.0", fillcolor="#f7d9c4"] ;
141 -> 145 ;
146 [label="X[1] <= 276.5\nmse = 26489.712\nsamples = 78\nvalue = 288.5", fillcolor="#fceee5"] ;
4 -> 146 ;
147 [label="X[2] <= 70.5\nmse = 19971.184\nsamples = 68\nvalue = 256.191", fillcolor="#fcf0e8"] ;
146 -> 147 ;
148 [label="X[1] <= 199.0\nmse = 16432.951\nsamples = 45\nvalue = 306.067", fillcolor="#fbede3"] ;
147 -> 148 ;
149 [label="X[1] <= 144.0\nmse = 3420.448\nsamples = 20\nvalue = 232.45", fillcolor="#fcf1ea"] ;
148 -> 149 ;
150 [label="X[1] <= 118.5\nmse = 576.0\nsamples = 2\nvalue = 131.0", fillcolor="#fdf7f3"] ;
149 -> 150 ;
151 [label="mse = 0.0\nsamples = 1\nvalue = 107.0", fillcolor="#fef9f5"] ;
150 -> 151 ;
152 [label="mse = 0.0\nsamples = 1\nvalue = 155.0", fillcolor="#fdf6f1"] ;
150 -> 152 ;
153 [label="X[5] <= 229.5\nmse = 2465.867\nsamples = 18\nvalue = 243.722", fillcolor="#fcf1e9"] ;
149 -> 153 ;
154 [label="X[5] <= 224.0\nmse = 1016.247\nsamples = 9\nvalue = 221.444", fillcolor="#fcf2eb"] ;
153 -> 154 ;
155 [label="X[4] <= 1399.0\nmse = 646.359\nsamples = 8\nvalue = 228.875", fillcolor="#fcf2ea"] ;
154 -> 155 ;
156 [label="X[3] <= 14.0\nmse = 1122.25\nsamples = 2\nvalue = 254.5", fillcolor="#fcf0e8"] ;
155 -> 156 ;
157 [label="mse = 0.0\nsamples = 1\nvalue = 221.0", fillcolor="#fcf2eb"] ;
156 -> 157 ;
158 [label="mse = 0.0\nsamples = 1\nvalue = 288.0", fillcolor="#fceee5"] ;
156 -> 158 ;
159 [label="X[5] <= 212.0\nmse = 195.889\nsamples = 6\nvalue = 220.333", fillcolor="#fcf2eb"] ;
155 -> 159 ;
160 [label="X[2] <= 26.0\nmse = 55.76\nsamples = 5\nvalue = 225.8", fillcolor="#fcf2ea"] ;
159 -> 160 ;
161 [label="mse = 0.0\nsamples = 1\nvalue = 217.0", fillcolor="#fcf2eb"] ;
160 -> 161 ;
162 [label="X[0] <= 0.5\nmse = 45.5\nsamples = 4\nvalue = 228.0", fillcolor="#fcf2ea"] ;
160 -> 162 ;
163 [label="mse = 0.0\nsamples = 1\nvalue = 239.0", fillcolor="#fcf1e9"] ;
162 -> 163 ;
164 [label="X[2] <= 29.0\nmse = 6.889\nsamples = 3\nvalue = 224.333", fillcolor="#fcf2ea"] ;
162 -> 164 ;
165 [label="mse = 0.0\nsamples = 1\nvalue = 228.0", fillcolor="#fcf2ea"] ;
164 -> 165 ;
166 [label="X[3] <= 22.5\nmse = 0.25\nsamples = 2\nvalue = 222.5", fillcolor="#fcf2eb"] ;
164 -> 166 ;
167 [label="mse = 0.0\nsamples = 1\nvalue = 223.0", fillcolor="#fcf2eb"] ;
166 -> 167 ;
168 [label="mse = 0.0\nsamples = 1\nvalue = 222.0", fillcolor="#fcf2eb"] ;
166 -> 168 ;
169 [label="mse = 0.0\nsamples = 1\nvalue = 193.0", fillcolor="#fdf4ed"] ;
159 -> 169 ;
170 [label="mse = 0.0\nsamples = 1\nvalue = 162.0", fillcolor="#fdf6f0"] ;
154 -> 170 ;
171 [label="X[1] <= 191.5\nmse = 2922.889\nsamples = 9\nvalue = 266.0", fillcolor="#fcf0e7"] ;
153 -> 171 ;
172 [label="X[2] <= 65.0\nmse = 927.44\nsamples = 5\nvalue = 228.6", fillcolor="#fcf2ea"] ;
171 -> 172 ;
173 [label="X[5] <= 248.5\nmse = 268.188\nsamples = 4\nvalue = 215.25", fillcolor="#fcf2eb"] ;
172 -> 173 ;
174 [label="mse = 0.0\nsamples = 1\nvalue = 187.0", fillcolor="#fdf4ee"] ;
173 -> 174 ;
175 [label="X[5] <= 268.0\nmse = 2.889\nsamples = 3\nvalue = 224.667", fillcolor="#fcf2ea"] ;
173 -> 175 ;
176 [label="X[3] <= 17.5\nmse = 0.25\nsamples = 2\nvalue = 223.5", fillcolor="#fcf2eb"] ;
175 -> 176 ;
177 [label="mse = 0.0\nsamples = 1\nvalue = 223.0", fillcolor="#fcf2eb"] ;
176 -> 177 ;
178 [label="mse = 0.0\nsamples = 1\nvalue = 224.0", fillcolor="#fcf2eb"] ;
176 -> 178 ;
179 [label="mse = 0.0\nsamples = 1\nvalue = 227.0", fillcolor="#fcf2ea"] ;
175 -> 179 ;
180 [label="mse = 0.0\nsamples = 1\nvalue = 282.0", fillcolor="#fcefe5"] ;
172 -> 180 ;
181 [label="X[3] <= 18.0\nmse = 1483.188\nsamples = 4\nvalue = 312.75", fillcolor="#fbede2"] ;
171 -> 181 ;
182 [label="X[0] <= 0.5\nmse = 240.25\nsamples = 2\nvalue = 349.5", fillcolor="#fbebdf"] ;
181 -> 182 ;
183 [label="mse = 0.0\nsamples = 1\nvalue = 334.0", fillcolor="#fbece0"] ;
182 -> 183 ;
184 [label="mse = 0.0\nsamples = 1\nvalue = 365.0", fillcolor="#fbeade"] ;
182 -> 184 ;
185 [label="X[2] <= 60.5\nmse = 25.0\nsamples = 2\nvalue = 276.0", fillcolor="#fcefe6"] ;
181 -> 185 ;
186 [label="mse = 0.0\nsamples = 1\nvalue = 281.0", fillcolor="#fcefe5"] ;
185 -> 186 ;
187 [label="mse = 0.0\nsamples = 1\nvalue = 271.0", fillcolor="#fcefe6"] ;
185 -> 187 ;
188 [label="X[0] <= 0.5\nmse = 19038.998\nsamples = 25\nvalue = 364.96", fillcolor="#fbeade"] ;
148 -> 188 ;
189 [label="X[1] <= 234.0\nmse = 7981.751\nsamples = 13\nvalue = 439.692", fillcolor="#fae5d7"] ;
188 -> 189 ;
190 [label="X[1] <= 224.0\nmse = 2241.222\nsamples = 6\nvalue = 366.667", fillcolor="#fbeadd"] ;
189 -> 190 ;
191 [label="X[3] <= 18.0\nmse = 207.5\nsamples = 4\nvalue = 399.0", fillcolor="#fae8db"] ;
190 -> 191 ;
192 [label="X[5] <= 229.0\nmse = 20.667\nsamples = 3\nvalue = 407.0", fillcolor="#fae7da"] ;
191 -> 192 ;
193 [label="mse = 0.0\nsamples = 1\nvalue = 413.0", fillcolor="#fae7d9"] ;
192 -> 193 ;
194 [label="X[2] <= 42.0\nmse = 4.0\nsamples = 2\nvalue = 404.0", fillcolor="#fae7da"] ;
192 -> 194 ;
195 [label="mse = 0.0\nsamples = 1\nvalue = 402.0", fillcolor="#fae8da"] ;
194 -> 195 ;
196 [label="mse = 0.0\nsamples = 1\nvalue = 406.0", fillcolor="#fae7da"] ;
194 -> 196 ;
197 [label="mse = 0.0\nsamples = 1\nvalue = 375.0", fillcolor="#fae9dd"] ;
191 -> 197 ;
198 [label="X[5] <= 260.5\nmse = 36.0\nsamples = 2\nvalue = 302.0", fillcolor="#fbede3"] ;
190 -> 198 ;
199 [label="mse = 0.0\nsamples = 1\nvalue = 296.0", fillcolor="#fbeee4"] ;
198 -> 199 ;
200 [label="mse = 0.0\nsamples = 1\nvalue = 308.0", fillcolor="#fbede3"] ;
198 -> 200 ;
201 [label="X[4] <= 691.0\nmse = 4413.347\nsamples = 7\nvalue = 502.286", fillcolor="#f9e2d1"] ;
189 -> 201 ;
202 [label="mse = 0.0\nsamples = 1\nvalue = 379.0", fillcolor="#fae9dc"] ;
201 -> 202 ;
203 [label="X[1] <= 262.0\nmse = 2193.472\nsamples = 6\nvalue = 522.833", fillcolor="#f9e1cf"] ;
201 -> 203 ;
204 [label="X[1] <= 246.5\nmse = 504.0\nsamples = 5\nvalue = 504.0", fillcolor="#f9e2d1"] ;
203 -> 204 ;
205 [label="mse = 0.0\nsamples = 1\nvalue = 473.0", fillcolor="#f9e3d4"] ;
204 -> 205 ;
206 [label="X[4] <= 1079.5\nmse = 329.688\nsamples = 4\nvalue = 511.75", fillcolor="#f9e1d0"] ;
204 -> 206 ;
207 [label="mse = 0.0\nsamples = 1\nvalue = 483.0", fillcolor="#f9e3d3"] ;
206 -> 207 ;
208 [label="X[4] <= 1505.5\nmse = 72.222\nsamples = 3\nvalue = 521.333", fillcolor="#f9e1cf"] ;
206 -> 208 ;
209 [label="X[3] <= 18.0\nmse = 6.25\nsamples = 2\nvalue = 515.5", fillcolor="#f9e1d0"] ;
208 -> 209 ;
210 [label="mse = 0.0\nsamples = 1\nvalue = 518.0", fillcolor="#f9e1d0"] ;
209 -> 210 ;
211 [label="mse = 0.0\nsamples = 1\nvalue = 513.0", fillcolor="#f9e1d0"] ;
209 -> 211 ;
212 [label="mse = 0.0\nsamples = 1\nvalue = 533.0", fillcolor="#f9e0ce"] ;
208 -> 212 ;
213 [label="mse = 0.0\nsamples = 1\nvalue = 617.0", fillcolor="#f8dbc7"] ;
203 -> 213 ;
214 [label="X[1] <= 269.5\nmse = 18412.833\nsamples = 12\nvalue = 284.0", fillcolor="#fceee5"] ;
188 -> 214 ;
215 [label="X[4] <= 1103.5\nmse = 13838.694\nsamples = 11\nvalue = 306.818", fillcolor="#fbede3"] ;
214 -> 215 ;
216 [label="X[3] <= 8.5\nmse = 10747.5\nsamples = 4\nvalue = 214.0", fillcolor="#fcf3eb"] ;
215 -> 216 ;
217 [label="mse = 0.0\nsamples = 1\nvalue = 41.0", fillcolor="#fffdfb"] ;
216 -> 217 ;
218 [label="X[2] <= 51.0\nmse = 1028.222\nsamples = 3\nvalue = 271.667", fillcolor="#fcefe6"] ;
216 -> 218 ;
219 [label="mse = 0.0\nsamples = 1\nvalue = 308.0", fillcolor="#fbede3"] ;
218 -> 219 ;
220 [label="X[2] <= 58.5\nmse = 552.25\nsamples = 2\nvalue = 253.5", fillcolor="#fcf0e8"] ;
218 -> 220 ;
221 [label="mse = 0.0\nsamples = 1\nvalue = 230.0", fillcolor="#fcf2ea"] ;
220 -> 221 ;
222 [label="mse = 0.0\nsamples = 1\nvalue = 277.0", fillcolor="#fcefe6"] ;
220 -> 222 ;
223 [label="X[1] <= 246.0\nmse = 7868.98\nsamples = 7\nvalue = 359.857", fillcolor="#fbeade"] ;
215 -> 223 ;
224 [label="X[5] <= 311.0\nmse = 2961.556\nsamples = 3\nvalue = 271.667", fillcolor="#fcefe6"] ;
223 -> 224 ;
225 [label="X[2] <= 43.0\nmse = 72.25\nsamples = 2\nvalue = 233.5", fillcolor="#fcf1ea"] ;
224 -> 225 ;
226 [label="mse = 0.0\nsamples = 1\nvalue = 242.0", fillcolor="#fcf1e9"] ;
225 -> 226 ;
227 [label="mse = 0.0\nsamples = 1\nvalue = 225.0", fillcolor="#fcf2ea"] ;
225 -> 227 ;
228 [label="mse = 0.0\nsamples = 1\nvalue = 348.0", fillcolor="#fbebdf"] ;
224 -> 228 ;
229 [label="X[5] <= 291.5\nmse = 1341.5\nsamples = 4\nvalue = 426.0", fillcolor="#fae6d8"] ;
223 -> 229 ;
230 [label="X[2] <= 31.0\nmse = 586.889\nsamples = 3\nvalue = 408.667", fillcolor="#fae7da"] ;
229 -> 230 ;
231 [label="X[3] <= 8.5\nmse = 30.25\nsamples = 2\nvalue = 425.5", fillcolor="#fae6d8"] ;
230 -> 231 ;
232 [label="mse = 0.0\nsamples = 1\nvalue = 431.0", fillcolor="#fae6d8"] ;
231 -> 232 ;
233 [label="mse = 0.0\nsamples = 1\nvalue = 420.0", fillcolor="#fae7d9"] ;
231 -> 233 ;
234 [label="mse = 0.0\nsamples = 1\nvalue = 375.0", fillcolor="#fae9dd"] ;
230 -> 234 ;
235 [label="mse = 0.0\nsamples = 1\nvalue = 478.0", fillcolor="#f9e3d3"] ;
229 -> 235 ;
236 [label="mse = 0.0\nsamples = 1\nvalue = 33.0", fillcolor="#fffdfc"] ;
214 -> 236 ;
237 [label="X[7] <= 0.5\nmse = 12504.499\nsamples = 23\nvalue = 158.609", fillcolor="#fdf6f0"] ;
147 -> 237 ;
238 [label="X[3] <= 10.5\nmse = 11332.699\nsamples = 17\nvalue = 196.353", fillcolor="#fdf4ed"] ;
237 -> 238 ;
239 [label="X[2] <= 77.5\nmse = 2917.583\nsamples = 6\nvalue = 103.5", fillcolor="#fef9f6"] ;
238 -> 239 ;
240 [label="X[2] <= 76.0\nmse = 56.25\nsamples = 2\nvalue = 29.5", fillcolor="#fffdfc"] ;
239 -> 240 ;
241 [label="mse = 0.0\nsamples = 1\nvalue = 37.0", fillcolor="#fffdfc"] ;
240 -> 241 ;
242 [label="mse = 0.0\nsamples = 1\nvalue = 22.0", fillcolor="#fffefd"] ;
240 -> 242 ;
243 [label="X[4] <= 177.5\nmse = 241.25\nsamples = 4\nvalue = 140.5", fillcolor="#fdf7f2"] ;
239 -> 243 ;
244 [label="mse = 0.0\nsamples = 1\nvalue = 117.0", fillcolor="#fef8f4"] ;
243 -> 244 ;
245 [label="X[3] <= 8.5\nmse = 76.222\nsamples = 3\nvalue = 148.333", fillcolor="#fdf6f1"] ;
243 -> 245 ;
246 [label="X[1] <= 187.5\nmse = 12.25\nsamples = 2\nvalue = 142.5", fillcolor="#fdf7f2"] ;
245 -> 246 ;
247 [label="mse = 0.0\nsamples = 1\nvalue = 146.0", fillcolor="#fdf7f2"] ;
246 -> 247 ;
248 [label="mse = 0.0\nsamples = 1\nvalue = 139.0", fillcolor="#fdf7f2"] ;
246 -> 248 ;
249 [label="mse = 0.0\nsamples = 1\nvalue = 160.0", fillcolor="#fdf6f0"] ;
245 -> 249 ;
250 [label="X[2] <= 78.0\nmse = 8654.909\nsamples = 11\nvalue = 247.0", fillcolor="#fcf1e8"] ;
238 -> 250 ;
251 [label="X[1] <= 255.5\nmse = 3951.65\nsamples = 10\nvalue = 269.5", fillcolor="#fcefe6"] ;
250 -> 251 ;
252 [label="X[5] <= 326.5\nmse = 2459.109\nsamples = 8\nvalue = 290.875", fillcolor="#fceee4"] ;
251 -> 252 ;
253 [label="X[1] <= 203.0\nmse = 110.222\nsamples = 3\nvalue = 251.333", fillcolor="#fcf0e8"] ;
252 -> 253 ;
254 [label="X[0] <= 0.5\nmse = 4.0\nsamples = 2\nvalue = 244.0", fillcolor="#fcf1e9"] ;
253 -> 254 ;
255 [label="mse = 0.0\nsamples = 1\nvalue = 242.0", fillcolor="#fcf1e9"] ;
254 -> 255 ;
256 [label="mse = 0.0\nsamples = 1\nvalue = 246.0", fillcolor="#fcf1e9"] ;
254 -> 256 ;
257 [label="mse = 0.0\nsamples = 1\nvalue = 266.0", fillcolor="#fcf0e7"] ;
253 -> 257 ;
258 [label="X[1] <= 230.5\nmse = 2367.44\nsamples = 5\nvalue = 314.6", fillcolor="#fbede2"] ;
252 -> 258 ;
259 [label="mse = 0.0\nsamples = 1\nvalue = 371.0", fillcolor="#fbe9dd"] ;
258 -> 259 ;
260 [label="X[2] <= 76.0\nmse = 1965.25\nsamples = 4\nvalue = 300.5", fillcolor="#fbeee4"] ;
258 -> 260 ;
261 [label="X[3] <= 22.0\nmse = 289.0\nsamples = 2\nvalue = 260.0", fillcolor="#fcf0e7"] ;
260 -> 261 ;
262 [label="mse = 0.0\nsamples = 1\nvalue = 277.0", fillcolor="#fcefe6"] ;
261 -> 262 ;
263 [label="mse = 0.0\nsamples = 1\nvalue = 243.0", fillcolor="#fcf1e9"] ;
261 -> 263 ;
264 [label="X[1] <= 246.0\nmse = 361.0\nsamples = 2\nvalue = 341.0", fillcolor="#fbebe0"] ;
260 -> 264 ;
265 [label="mse = 0.0\nsamples = 1\nvalue = 322.0", fillcolor="#fbece2"] ;
264 -> 265 ;
266 [label="mse = 0.0\nsamples = 1\nvalue = 360.0", fillcolor="#fbeade"] ;
264 -> 266 ;
267 [label="X[5] <= 364.0\nmse = 784.0\nsamples = 2\nvalue = 184.0", fillcolor="#fdf4ee"] ;
251 -> 267 ;
268 [label="mse = 0.0\nsamples = 1\nvalue = 156.0", fillcolor="#fdf6f1"] ;
267 -> 268 ;
269 [label="mse = 0.0\nsamples = 1\nvalue = 212.0", fillcolor="#fcf3ec"] ;
267 -> 269 ;
270 [label="mse = 0.0\nsamples = 1\nvalue = 22.0", fillcolor="#fffefd"] ;
250 -> 270 ;
271 [label="X[4] <= 472.5\nmse = 351.556\nsamples = 6\nvalue = 51.667", fillcolor="#fefcfa"] ;
237 -> 271 ;
272 [label="X[1] <= 251.5\nmse = 49.0\nsamples = 2\nvalue = 73.0", fillcolor="#fefbf8"] ;
271 -> 272 ;
273 [label="mse = 0.0\nsamples = 1\nvalue = 66.0", fillcolor="#fefbf9"] ;
272 -> 273 ;
274 [label="mse = 0.0\nsamples = 1\nvalue = 80.0", fillcolor="#fefaf8"] ;
272 -> 274 ;
275 [label="X[3] <= 24.0\nmse = 161.5\nsamples = 4\nvalue = 41.0", fillcolor="#fffdfb"] ;
271 -> 275 ;
276 [label="X[0] <= 0.5\nmse = 37.556\nsamples = 3\nvalue = 47.667", fillcolor="#fefcfb"] ;
275 -> 276 ;
277 [label="X[5] <= 334.5\nmse = 12.25\nsamples = 2\nvalue = 51.5", fillcolor="#fefcfa"] ;
276 -> 277 ;
278 [label="mse = 0.0\nsamples = 1\nvalue = 48.0", fillcolor="#fefcfb"] ;
277 -> 278 ;
279 [label="mse = 0.0\nsamples = 1\nvalue = 55.0", fillcolor="#fefcfa"] ;
277 -> 279 ;
280 [label="mse = 0.0\nsamples = 1\nvalue = 40.0", fillcolor="#fffdfb"] ;
276 -> 280 ;
281 [label="mse = 0.0\nsamples = 1\nvalue = 21.0", fillcolor="#fffefd"] ;
275 -> 281 ;
282 [label="X[4] <= 1077.0\nmse = 15449.36\nsamples = 10\nvalue = 508.2", fillcolor="#f9e1d1"] ;
146 -> 282 ;
283 [label="X[4] <= 287.0\nmse = 3240.139\nsamples = 6\nvalue = 429.167", fillcolor="#fae6d8"] ;
282 -> 283 ;
284 [label="X[3] <= 10.0\nmse = 992.25\nsamples = 2\nvalue = 367.5", fillcolor="#fbeadd"] ;
283 -> 284 ;
285 [label="mse = 0.0\nsamples = 1\nvalue = 399.0", fillcolor="#fae8db"] ;
284 -> 285 ;
286 [label="mse = 0.0\nsamples = 1\nvalue = 336.0", fillcolor="#fbebe0"] ;
284 -> 286 ;
287 [label="X[1] <= 277.5\nmse = 1512.0\nsamples = 4\nvalue = 460.0", fillcolor="#f9e4d5"] ;
283 -> 287 ;
288 [label="mse = 0.0\nsamples = 1\nvalue = 400.0", fillcolor="#fae8da"] ;
287 -> 288 ;
289 [label="X[5] <= 364.0\nmse = 416.0\nsamples = 3\nvalue = 480.0", fillcolor="#f9e3d3"] ;
287 -> 289 ;
290 [label="mse = 0.0\nsamples = 1\nvalue = 452.0", fillcolor="#fae5d6"] ;
289 -> 290 ;
291 [label="X[0] <= 0.5\nmse = 36.0\nsamples = 2\nvalue = 494.0", fillcolor="#f9e2d2"] ;
289 -> 291 ;
292 [label="mse = 0.0\nsamples = 1\nvalue = 488.0", fillcolor="#f9e3d2"] ;
291 -> 292 ;
293 [label="mse = 0.0\nsamples = 1\nvalue = 500.0", fillcolor="#f9e2d1"] ;
291 -> 293 ;
294 [label="X[4] <= 1602.5\nmse = 10339.688\nsamples = 4\nvalue = 626.75", fillcolor="#f7dbc6"] ;
282 -> 294 ;
295 [label="X[2] <= 47.0\nmse = 3844.0\nsamples = 2\nvalue = 718.0", fillcolor="#f6d5bd"] ;
294 -> 295 ;
296 [label="mse = 0.0\nsamples = 1\nvalue = 780.0", fillcolor="#f6d2b8"] ;
295 -> 296 ;
297 [label="mse = 0.0\nsamples = 1\nvalue = 656.0", fillcolor="#f7d9c3"] ;
295 -> 297 ;
298 [label="X[5] <= 258.5\nmse = 182.25\nsamples = 2\nvalue = 535.5", fillcolor="#f9e0ce"] ;
294 -> 298 ;
299 [label="mse = 0.0\nsamples = 1\nvalue = 522.0", fillcolor="#f9e1cf"] ;
298 -> 299 ;
300 [label="mse = 0.0\nsamples = 1\nvalue = 549.0", fillcolor="#f8dfcd"] ;
298 -> 300 ;
301 [label="X[11] <= 0.5\nmse = 16149.955\nsamples = 459\nvalue = 176.871", fillcolor="#fdf5ef"] ;
3 -> 301 ;
302 [label="mse = 0.0\nsamples = 27\nvalue = 0.0", fillcolor="#ffffff"] ;
301 -> 302 ;
303 [label="X[2] <= 77.5\nmse = 15081.907\nsamples = 432\nvalue = 187.926", fillcolor="#fdf4ee"] ;
301 -> 303 ;
304 [label="X[0] <= 5.5\nmse = 14160.516\nsamples = 369\nvalue = 205.875", fillcolor="#fdf3ec"] ;
303 -> 304 ;
305 [label="X[0] <= 2.5\nmse = 9947.691\nsamples = 298\nvalue = 184.936", fillcolor="#fdf4ee"] ;
304 -> 305 ;
306 [label="X[9] <= 0.5\nmse = 13055.42\nsamples = 73\nvalue = 287.411", fillcolor="#fceee5"] ;
305 -> 306 ;
307 [label="X[1] <= 280.5\nmse = 9640.699\nsamples = 38\nvalue = 336.342", fillcolor="#fbebe0"] ;
306 -> 307 ;
308 [label="X[1] <= 228.0\nmse = 7628.132\nsamples = 36\nvalue = 347.917", fillcolor="#fbebdf"] ;
307 -> 308 ;
309 [label="X[4] <= 733.5\nmse = 4510.36\nsamples = 17\nvalue = 294.588", fillcolor="#fbeee4"] ;
308 -> 309 ;
310 [label="X[4] <= 441.5\nmse = 6162.25\nsamples = 2\nvalue = 376.5", fillcolor="#fae9dd"] ;
309 -> 310 ;
311 [label="mse = 0.0\nsamples = 1\nvalue = 298.0", fillcolor="#fbeee4"] ;
310 -> 311 ;
312 [label="mse = 0.0\nsamples = 1\nvalue = 455.0", fillcolor="#fae5d5"] ;
310 -> 312 ;
313 [label="X[5] <= 279.0\nmse = 3276.222\nsamples = 15\nvalue = 283.667", fillcolor="#fceee5"] ;
309 -> 313 ;
314 [label="X[1] <= 205.5\nmse = 913.41\nsamples = 10\nvalue = 304.3", fillcolor="#fbede3"] ;
313 -> 314 ;
315 [label="X[5] <= 161.5\nmse = 585.0\nsamples = 8\nvalue = 294.5", fillcolor="#fbeee4"] ;
314 -> 315 ;
316 [label="mse = 0.0\nsamples = 1\nvalue = 334.0", fillcolor="#fbece0"] ;
315 -> 316 ;
317 [label="X[2] <= 38.5\nmse = 413.837\nsamples = 7\nvalue = 288.857", fillcolor="#fceee5"] ;
315 -> 317 ;
318 [label="X[5] <= 203.0\nmse = 30.688\nsamples = 4\nvalue = 276.75", fillcolor="#fcefe6"] ;
317 -> 318 ;
319 [label="X[2] <= 34.5\nmse = 10.667\nsamples = 3\nvalue = 274.0", fillcolor="#fcefe6"] ;
318 -> 319 ;
320 [label="X[3] <= 22.0\nmse = 4.0\nsamples = 2\nvalue = 276.0", fillcolor="#fcefe6"] ;
319 -> 320 ;
321 [label="mse = 0.0\nsamples = 1\nvalue = 274.0", fillcolor="#fcefe6"] ;
320 -> 321 ;
322 [label="mse = 0.0\nsamples = 1\nvalue = 278.0", fillcolor="#fcefe6"] ;
320 -> 322 ;
323 [label="mse = 0.0\nsamples = 1\nvalue = 270.0", fillcolor="#fcefe6"] ;
319 -> 323 ;
324 [label="mse = 0.0\nsamples = 1\nvalue = 285.0", fillcolor="#fceee5"] ;
318 -> 324 ;
325 [label="X[2] <= 43.5\nmse = 468.667\nsamples = 3\nvalue = 305.0", fillcolor="#fbede3"] ;
317 -> 325 ;
326 [label="mse = 0.0\nsamples = 1\nvalue = 334.0", fillcolor="#fbece0"] ;
325 -> 326 ;
327 [label="X[1] <= 176.5\nmse = 72.25\nsamples = 2\nvalue = 290.5", fillcolor="#fceee4"] ;
325 -> 327 ;
328 [label="mse = 0.0\nsamples = 1\nvalue = 299.0", fillcolor="#fbeee4"] ;
327 -> 328 ;
329 [label="mse = 0.0\nsamples = 1\nvalue = 282.0", fillcolor="#fcefe5"] ;
327 -> 329 ;
330 [label="X[4] <= 1585.0\nmse = 306.25\nsamples = 2\nvalue = 343.5", fillcolor="#fbebe0"] ;
314 -> 330 ;
331 [label="mse = 0.0\nsamples = 1\nvalue = 326.0", fillcolor="#fbece1"] ;
330 -> 331 ;
332 [label="mse = 0.0\nsamples = 1\nvalue = 361.0", fillcolor="#fbeade"] ;
330 -> 332 ;
333 [label="X[1] <= 220.5\nmse = 5447.44\nsamples = 5\nvalue = 242.4", fillcolor="#fcf1e9"] ;
313 -> 333 ;
334 [label="X[1] <= 210.5\nmse = 6.0\nsamples = 3\nvalue = 186.0", fillcolor="#fdf4ee"] ;
333 -> 334 ;
335 [label="mse = 0.0\nsamples = 1\nvalue = 183.0", fillcolor="#fdf4ee"] ;
334 -> 335 ;
336 [label="X[5] <= 282.0\nmse = 2.25\nsamples = 2\nvalue = 187.5", fillcolor="#fdf4ee"] ;
334 -> 336 ;
337 [label="mse = 0.0\nsamples = 1\nvalue = 186.0", fillcolor="#fdf4ee"] ;
336 -> 337 ;
338 [label="mse = 0.0\nsamples = 1\nvalue = 189.0", fillcolor="#fdf4ee"] ;
336 -> 338 ;
339 [label="X[5] <= 294.0\nmse = 1681.0\nsamples = 2\nvalue = 327.0", fillcolor="#fbece1"] ;
333 -> 339 ;
340 [label="mse = 0.0\nsamples = 1\nvalue = 286.0", fillcolor="#fceee5"] ;
339 -> 340 ;
341 [label="mse = 0.0\nsamples = 1\nvalue = 368.0", fillcolor="#fbeadd"] ;
339 -> 341 ;
342 [label="X[2] <= 48.5\nmse = 5596.443\nsamples = 19\nvalue = 395.632", fillcolor="#fae8db"] ;
308 -> 342 ;
343 [label="X[1] <= 271.0\nmse = 36.0\nsamples = 2\nvalue = 258.0", fillcolor="#fcf0e7"] ;
342 -> 343 ;
344 [label="mse = 0.0\nsamples = 1\nvalue = 252.0", fillcolor="#fcf0e8"] ;
343 -> 344 ;
345 [label="mse = 0.0\nsamples = 1\nvalue = 264.0", fillcolor="#fcf0e7"] ;
343 -> 345 ;
346 [label="X[5] <= 361.0\nmse = 3759.91\nsamples = 17\nvalue = 411.824", fillcolor="#fae7d9"] ;
342 -> 346 ;
347 [label="X[4] <= 1305.0\nmse = 2436.812\nsamples = 16\nvalue = 402.25", fillcolor="#fae8da"] ;
346 -> 347 ;
348 [label="X[1] <= 237.0\nmse = 1222.938\nsamples = 8\nvalue = 377.75", fillcolor="#fae9dc"] ;
347 -> 348 ;
349 [label="mse = 0.0\nsamples = 1\nvalue = 312.0", fillcolor="#fbede2"] ;
348 -> 349 ;
350 [label="X[4] <= 662.0\nmse = 691.837\nsamples = 7\nvalue = 387.143", fillcolor="#fae8dc"] ;
348 -> 350 ;
351 [label="X[1] <= 255.5\nmse = 70.222\nsamples = 3\nvalue = 366.333", fillcolor="#fbeadd"] ;
350 -> 351 ;
352 [label="X[2] <= 65.0\nmse = 9.0\nsamples = 2\nvalue = 372.0", fillcolor="#fbe9dd"] ;
351 -> 352 ;
353 [label="mse = 0.0\nsamples = 1\nvalue = 375.0", fillcolor="#fae9dd"] ;
352 -> 353 ;
354 [label="mse = 0.0\nsamples = 1\nvalue = 369.0", fillcolor="#fbeadd"] ;
352 -> 354 ;
355 [label="mse = 0.0\nsamples = 1\nvalue = 355.0", fillcolor="#fbeadf"] ;
351 -> 355 ;
356 [label="X[4] <= 965.0\nmse = 589.688\nsamples = 4\nvalue = 402.75", fillcolor="#fae8da"] ;
350 -> 356 ;
357 [label="X[5] <= 339.0\nmse = 1.0\nsamples = 2\nvalue = 427.0", fillcolor="#fae6d8"] ;
356 -> 357 ;
358 [label="mse = 0.0\nsamples = 1\nvalue = 428.0", fillcolor="#fae6d8"] ;
357 -> 358 ;
359 [label="mse = 0.0\nsamples = 1\nvalue = 426.0", fillcolor="#fae6d8"] ;
357 -> 359 ;
360 [label="X[1] <= 258.0\nmse = 2.25\nsamples = 2\nvalue = 378.5", fillcolor="#fae9dc"] ;
356 -> 360 ;
361 [label="mse = 0.0\nsamples = 1\nvalue = 377.0", fillcolor="#fae9dd"] ;
360 -> 361 ;
362 [label="mse = 0.0\nsamples = 1\nvalue = 380.0", fillcolor="#fae9dc"] ;
360 -> 362 ;
363 [label="X[3] <= 5.5\nmse = 2450.188\nsamples = 8\nvalue = 426.75", fillcolor="#fae6d8"] ;
347 -> 363 ;
364 [label="X[1] <= 248.5\nmse = 1406.889\nsamples = 3\nvalue = 459.667", fillcolor="#f9e4d5"] ;
363 -> 364 ;
365 [label="X[2] <= 57.5\nmse = 930.25\nsamples = 2\nvalue = 479.5", fillcolor="#f9e3d3"] ;
364 -> 365 ;
366 [label="mse = 0.0\nsamples = 1\nvalue = 449.0", fillcolor="#fae5d6"] ;
365 -> 366 ;
367 [label="mse = 0.0\nsamples = 1\nvalue = 510.0", fillcolor="#f9e1d0"] ;
365 -> 367 ;
368 [label="mse = 0.0\nsamples = 1\nvalue = 420.0", fillcolor="#fae7d9"] ;
364 -> 368 ;
369 [label="X[2] <= 54.5\nmse = 2036.0\nsamples = 5\nvalue = 407.0", fillcolor="#fae7da"] ;
363 -> 369 ;
370 [label="X[3] <= 18.0\nmse = 820.667\nsamples = 3\nvalue = 437.0", fillcolor="#fae6d7"] ;
369 -> 370 ;
371 [label="X[2] <= 53.0\nmse = 90.25\nsamples = 2\nvalue = 417.5", fillcolor="#fae7d9"] ;
370 -> 371 ;
372 [label="mse = 0.0\nsamples = 1\nvalue = 408.0", fillcolor="#fae7da"] ;
371 -> 372 ;
373 [label="mse = 0.0\nsamples = 1\nvalue = 427.0", fillcolor="#fae6d8"] ;
371 -> 373 ;
374 [label="mse = 0.0\nsamples = 1\nvalue = 476.0", fillcolor="#f9e3d3"] ;
370 -> 374 ;
375 [label="X[5] <= 312.0\nmse = 484.0\nsamples = 2\nvalue = 362.0", fillcolor="#fbeade"] ;
369 -> 375 ;
376 [label="mse = 0.0\nsamples = 1\nvalue = 340.0", fillcolor="#fbebe0"] ;
375 -> 376 ;
377 [label="mse = 0.0\nsamples = 1\nvalue = 384.0", fillcolor="#fae9dc"] ;
375 -> 377 ;
378 [label="mse = 0.0\nsamples = 1\nvalue = 565.0", fillcolor="#f8decb"] ;
346 -> 378 ;
379 [label="X[3] <= 14.5\nmse = 49.0\nsamples = 2\nvalue = 128.0", fillcolor="#fdf8f3"] ;
307 -> 379 ;
380 [label="mse = 0.0\nsamples = 1\nvalue = 135.0", fillcolor="#fdf7f3"] ;
379 -> 380 ;
381 [label="mse = 0.0\nsamples = 1\nvalue = 121.0", fillcolor="#fef8f4"] ;
379 -> 381 ;
382 [label="X[1] <= 271.5\nmse = 11341.061\nsamples = 35\nvalue = 234.286", fillcolor="#fcf1ea"] ;
306 -> 382 ;
383 [label="X[4] <= 320.5\nmse = 5643.284\nsamples = 26\nvalue = 192.154", fillcolor="#fdf4ed"] ;
382 -> 383 ;
384 [label="X[2] <= 74.5\nmse = 2879.188\nsamples = 4\nvalue = 116.25", fillcolor="#fef8f4"] ;
383 -> 384 ;
385 [label="X[3] <= 20.5\nmse = 298.667\nsamples = 3\nvalue = 146.0", fillcolor="#fdf7f2"] ;
384 -> 385 ;
386 [label="X[3] <= 10.0\nmse = 16.0\nsamples = 2\nvalue = 158.0", fillcolor="#fdf6f1"] ;
385 -> 386 ;
387 [label="mse = 0.0\nsamples = 1\nvalue = 162.0", fillcolor="#fdf6f0"] ;
386 -> 387 ;
388 [label="mse = 0.0\nsamples = 1\nvalue = 154.0", fillcolor="#fdf6f1"] ;
386 -> 388 ;
389 [label="mse = 0.0\nsamples = 1\nvalue = 122.0", fillcolor="#fef8f4"] ;
385 -> 389 ;
390 [label="mse = 0.0\nsamples = 1\nvalue = 27.0", fillcolor="#fffdfd"] ;
384 -> 390 ;
391 [label="X[5] <= 214.5\nmse = 4907.862\nsamples = 22\nvalue = 205.955", fillcolor="#fdf3ec"] ;
383 -> 391 ;
392 [label="X[2] <= 34.0\nmse = 1006.222\nsamples = 3\nvalue = 103.333", fillcolor="#fef9f6"] ;
391 -> 392 ;
393 [label="mse = 0.0\nsamples = 1\nvalue = 146.0", fillcolor="#fdf7f2"] ;
392 -> 393 ;
394 [label="X[2] <= 40.0\nmse = 144.0\nsamples = 2\nvalue = 82.0", fillcolor="#fefaf8"] ;
392 -> 394 ;
395 [label="mse = 0.0\nsamples = 1\nvalue = 94.0", fillcolor="#fefaf6"] ;
394 -> 395 ;
396 [label="mse = 0.0\nsamples = 1\nvalue = 70.0", fillcolor="#fefbf9"] ;
394 -> 396 ;
397 [label="X[5] <= 356.0\nmse = 3598.554\nsamples = 19\nvalue = 222.158", fillcolor="#fcf2eb"] ;
391 -> 397 ;
398 [label="X[2] <= 52.5\nmse = 2386.728\nsamples = 18\nvalue = 230.778", fillcolor="#fcf2ea"] ;
397 -> 398 ;
399 [label="X[3] <= 18.0\nmse = 1249.438\nsamples = 8\nvalue = 261.25", fillcolor="#fcf0e7"] ;
398 -> 399 ;
400 [label="X[2] <= 38.0\nmse = 599.102\nsamples = 7\nvalue = 271.429", fillcolor="#fcefe6"] ;
399 -> 400 ;
401 [label="X[1] <= 248.5\nmse = 88.667\nsamples = 3\nvalue = 248.0", fillcolor="#fcf1e8"] ;
400 -> 401 ;
402 [label="mse = 0.0\nsamples = 1\nvalue = 236.0", fillcolor="#fcf1e9"] ;
401 -> 402 ;
403 [label="X[5] <= 260.5\nmse = 25.0\nsamples = 2\nvalue = 254.0", fillcolor="#fcf0e8"] ;
401 -> 403 ;
404 [label="mse = 0.0\nsamples = 1\nvalue = 249.0", fillcolor="#fcf1e8"] ;
403 -> 404 ;
405 [label="mse = 0.0\nsamples = 1\nvalue = 259.0", fillcolor="#fcf0e7"] ;
403 -> 405 ;
406 [label="X[1] <= 199.5\nmse = 261.5\nsamples = 4\nvalue = 289.0", fillcolor="#fceee5"] ;
400 -> 406 ;
407 [label="mse = 0.0\nsamples = 1\nvalue = 267.0", fillcolor="#fcefe7"] ;
406 -> 407 ;
408 [label="X[1] <= 245.5\nmse = 133.556\nsamples = 3\nvalue = 296.333", fillcolor="#fbeee4"] ;
406 -> 408 ;
409 [label="X[4] <= 1155.0\nmse = 0.25\nsamples = 2\nvalue = 304.5", fillcolor="#fbede3"] ;
408 -> 409 ;
410 [label="mse = 0.0\nsamples = 1\nvalue = 304.0", fillcolor="#fbede3"] ;
409 -> 410 ;
411 [label="mse = 0.0\nsamples = 1\nvalue = 305.0", fillcolor="#fbede3"] ;
409 -> 411 ;
412 [label="mse = 0.0\nsamples = 1\nvalue = 280.0", fillcolor="#fcefe5"] ;
408 -> 412 ;
413 [label="mse = 0.0\nsamples = 1\nvalue = 190.0", fillcolor="#fdf4ee"] ;
399 -> 413 ;
414 [label="X[5] <= 307.0\nmse = 1959.44\nsamples = 10\nvalue = 206.4", fillcolor="#fdf3ec"] ;
398 -> 414 ;
415 [label="X[5] <= 283.5\nmse = 1402.222\nsamples = 6\nvalue = 180.333", fillcolor="#fdf5ef"] ;
414 -> 415 ;
416 [label="X[5] <= 278.0\nmse = 156.25\nsamples = 2\nvalue = 227.5", fillcolor="#fcf2ea"] ;
415 -> 416 ;
417 [label="mse = 0.0\nsamples = 1\nvalue = 240.0", fillcolor="#fcf1e9"] ;
416 -> 417 ;
418 [label="mse = 0.0\nsamples = 1\nvalue = 215.0", fillcolor="#fcf2eb"] ;
416 -> 418 ;
419 [label="X[2] <= 56.0\nmse = 356.688\nsamples = 4\nvalue = 156.75", fillcolor="#fdf6f1"] ;
415 -> 419 ;
420 [label="mse = 0.0\nsamples = 1\nvalue = 125.0", fillcolor="#fdf8f4"] ;
419 -> 420 ;
421 [label="X[2] <= 63.0\nmse = 27.556\nsamples = 3\nvalue = 167.333", fillcolor="#fdf5f0"] ;
419 -> 421 ;
422 [label="mse = 0.0\nsamples = 1\nvalue = 160.0", fillcolor="#fdf6f0"] ;
421 -> 422 ;
423 [label="X[3] <= 20.0\nmse = 1.0\nsamples = 2\nvalue = 171.0", fillcolor="#fdf5ef"] ;
421 -> 423 ;
424 [label="mse = 0.0\nsamples = 1\nvalue = 170.0", fillcolor="#fdf5ef"] ;
423 -> 424 ;
425 [label="mse = 0.0\nsamples = 1\nvalue = 172.0", fillcolor="#fdf5ef"] ;
423 -> 425 ;
426 [label="X[2] <= 58.5\nmse = 247.25\nsamples = 4\nvalue = 245.5", fillcolor="#fcf1e9"] ;
414 -> 426 ;
427 [label="mse = 0.0\nsamples = 1\nvalue = 219.0", fillcolor="#fcf2eb"] ;
426 -> 427 ;
428 [label="X[4] <= 829.5\nmse = 17.556\nsamples = 3\nvalue = 254.333", fillcolor="#fcf0e8"] ;
426 -> 428 ;
429 [label="mse = 0.0\nsamples = 1\nvalue = 260.0", fillcolor="#fcf0e7"] ;
428 -> 429 ;
430 [label="X[5] <= 332.5\nmse = 2.25\nsamples = 2\nvalue = 251.5", fillcolor="#fcf0e8"] ;
428 -> 430 ;
431 [label="mse = 0.0\nsamples = 1\nvalue = 253.0", fillcolor="#fcf0e8"] ;
430 -> 431 ;
432 [label="mse = 0.0\nsamples = 1\nvalue = 250.0", fillcolor="#fcf0e8"] ;
430 -> 432 ;
433 [label="mse = 0.0\nsamples = 1\nvalue = 67.0", fillcolor="#fefbf9"] ;
397 -> 433 ;
434 [label="X[2] <= 65.5\nmse = 7858.889\nsamples = 9\nvalue = 356.0", fillcolor="#fbeade"] ;
382 -> 434 ;
435 [label="X[2] <= 64.5\nmse = 6391.0\nsamples = 8\nvalue = 372.5", fillcolor="#fbe9dd"] ;
434 -> 435 ;
436 [label="X[4] <= 1685.5\nmse = 3606.0\nsamples = 7\nvalue = 351.0", fillcolor="#fbebdf"] ;
435 -> 436 ;
437 [label="X[3] <= 8.0\nmse = 1980.806\nsamples = 6\nvalue = 368.833", fillcolor="#fbeadd"] ;
436 -> 437 ;
438 [label="X[3] <= 5.5\nmse = 72.25\nsamples = 2\nvalue = 312.5", fillcolor="#fbede2"] ;
437 -> 438 ;
439 [label="mse = 0.0\nsamples = 1\nvalue = 304.0", fillcolor="#fbede3"] ;
438 -> 439 ;
440 [label="mse = 0.0\nsamples = 1\nvalue = 321.0", fillcolor="#fbece2"] ;
438 -> 440 ;
441 [label="X[4] <= 1167.5\nmse = 555.0\nsamples = 4\nvalue = 397.0", fillcolor="#fae8db"] ;
437 -> 441 ;
442 [label="X[1] <= 274.0\nmse = 324.0\nsamples = 2\nvalue = 378.0", fillcolor="#fae9dc"] ;
441 -> 442 ;
443 [label="mse = 0.0\nsamples = 1\nvalue = 396.0", fillcolor="#fae8db"] ;
442 -> 443 ;
444 [label="mse = 0.0\nsamples = 1\nvalue = 360.0", fillcolor="#fbeade"] ;
442 -> 444 ;
445 [label="X[2] <= 47.5\nmse = 64.0\nsamples = 2\nvalue = 416.0", fillcolor="#fae7d9"] ;
441 -> 445 ;
446 [label="mse = 0.0\nsamples = 1\nvalue = 424.0", fillcolor="#fae6d8"] ;
445 -> 446 ;
447 [label="mse = 0.0\nsamples = 1\nvalue = 408.0", fillcolor="#fae7da"] ;
445 -> 447 ;
448 [label="mse = 0.0\nsamples = 1\nvalue = 244.0", fillcolor="#fcf1e9"] ;
436 -> 448 ;
449 [label="mse = 0.0\nsamples = 1\nvalue = 523.0", fillcolor="#f9e1cf"] ;
435 -> 449 ;
450 [label="mse = 0.0\nsamples = 1\nvalue = 224.0", fillcolor="#fcf2eb"] ;
434 -> 450 ;
451 [label="X[0] <= 3.5\nmse = 4427.005\nsamples = 225\nvalue = 151.689", fillcolor="#fdf6f1"] ;
305 -> 451 ;
452 [label="X[9] <= 0.5\nmse = 5787.553\nsamples = 76\nvalue = 198.0", fillcolor="#fdf3ed"] ;
451 -> 452 ;
453 [label="X[5] <= 369.5\nmse = 4672.584\nsamples = 38\nvalue = 238.316", fillcolor="#fcf1e9"] ;
452 -> 453 ;
454 [label="X[1] <= 232.0\nmse = 4038.99\nsamples = 36\nvalue = 244.694", fillcolor="#fcf1e9"] ;
453 -> 454 ;
455 [label="X[3] <= 19.5\nmse = 1503.904\nsamples = 18\nvalue = 211.389", fillcolor="#fcf3ec"] ;
454 -> 455 ;
456 [label="X[4] <= 1076.5\nmse = 1236.291\nsamples = 17\nvalue = 206.941", fillcolor="#fdf3ec"] ;
455 -> 456 ;
457 [label="X[5] <= 290.5\nmse = 956.75\nsamples = 4\nvalue = 174.5", fillcolor="#fdf5ef"] ;
456 -> 457 ;
458 [label="X[4] <= 874.5\nmse = 289.0\nsamples = 2\nvalue = 149.0", fillcolor="#fdf6f1"] ;
457 -> 458 ;
459 [label="mse = 0.0\nsamples = 1\nvalue = 166.0", fillcolor="#fdf5f0"] ;
458 -> 459 ;
460 [label="mse = 0.0\nsamples = 1\nvalue = 132.0", fillcolor="#fdf7f3"] ;
458 -> 460 ;
461 [label="X[5] <= 308.0\nmse = 324.0\nsamples = 2\nvalue = 200.0", fillcolor="#fdf3ed"] ;
457 -> 461 ;
462 [label="mse = 0.0\nsamples = 1\nvalue = 182.0", fillcolor="#fdf4ee"] ;
461 -> 462 ;
463 [label="mse = 0.0\nsamples = 1\nvalue = 218.0", fillcolor="#fcf2eb"] ;
461 -> 463 ;
464 [label="X[1] <= 184.0\nmse = 898.84\nsamples = 13\nvalue = 216.923", fillcolor="#fcf2eb"] ;
456 -> 464 ;
465 [label="X[4] <= 1778.5\nmse = 282.64\nsamples = 5\nvalue = 189.4", fillcolor="#fdf4ee"] ;
464 -> 465 ;
466 [label="X[1] <= 170.5\nmse = 30.25\nsamples = 2\nvalue = 206.5", fillcolor="#fdf3ec"] ;
465 -> 466 ;
467 [label="mse = 0.0\nsamples = 1\nvalue = 212.0", fillcolor="#fcf3ec"] ;
466 -> 467 ;
468 [label="mse = 0.0\nsamples = 1\nvalue = 201.0", fillcolor="#fdf3ed"] ;
466 -> 468 ;
469 [label="X[2] <= 34.5\nmse = 126.0\nsamples = 3\nvalue = 178.0", fillcolor="#fdf5ef"] ;
465 -> 469 ;
470 [label="mse = 0.0\nsamples = 1\nvalue = 163.0", fillcolor="#fdf6f0"] ;
469 -> 470 ;
471 [label="X[2] <= 43.0\nmse = 20.25\nsamples = 2\nvalue = 185.5", fillcolor="#fdf4ee"] ;
469 -> 471 ;
472 [label="mse = 0.0\nsamples = 1\nvalue = 190.0", fillcolor="#fdf4ee"] ;
471 -> 472 ;
473 [label="mse = 0.0\nsamples = 1\nvalue = 181.0", fillcolor="#fdf4ee"] ;
471 -> 473 ;
474 [label="X[1] <= 198.0\nmse = 514.609\nsamples = 8\nvalue = 234.125", fillcolor="#fcf1ea"] ;
464 -> 474 ;
475 [label="X[3] <= 9.0\nmse = 49.0\nsamples = 2\nvalue = 264.0", fillcolor="#fcf0e7"] ;
474 -> 475 ;
476 [label="mse = 0.0\nsamples = 1\nvalue = 257.0", fillcolor="#fcf0e7"] ;
475 -> 476 ;
477 [label="mse = 0.0\nsamples = 1\nvalue = 271.0", fillcolor="#fcefe6"] ;
475 -> 477 ;
478 [label="X[3] <= 6.0\nmse = 273.139\nsamples = 6\nvalue = 224.167", fillcolor="#fcf2ea"] ;
474 -> 478 ;
479 [label="X[5] <= 297.0\nmse = 72.222\nsamples = 3\nvalue = 212.333", fillcolor="#fcf3ec"] ;
478 -> 479 ;
480 [label="X[2] <= 55.0\nmse = 6.25\nsamples = 2\nvalue = 206.5", fillcolor="#fdf3ec"] ;
479 -> 480 ;
481 [label="mse = 0.0\nsamples = 1\nvalue = 204.0", fillcolor="#fdf3ec"] ;
480 -> 481 ;
482 [label="mse = 0.0\nsamples = 1\nvalue = 209.0", fillcolor="#fcf3ec"] ;
480 -> 482 ;
483 [label="mse = 0.0\nsamples = 1\nvalue = 224.0", fillcolor="#fcf2eb"] ;
479 -> 483 ;
484 [label="X[5] <= 304.0\nmse = 194.0\nsamples = 3\nvalue = 236.0", fillcolor="#fcf1e9"] ;
478 -> 484 ;
485 [label="X[5] <= 286.0\nmse = 20.25\nsamples = 2\nvalue = 245.5", fillcolor="#fcf1e9"] ;
484 -> 485 ;
486 [label="mse = 0.0\nsamples = 1\nvalue = 241.0", fillcolor="#fcf1e9"] ;
485 -> 486 ;
487 [label="mse = 0.0\nsamples = 1\nvalue = 250.0", fillcolor="#fcf0e8"] ;
485 -> 487 ;
488 [label="mse = 0.0\nsamples = 1\nvalue = 217.0", fillcolor="#fcf2eb"] ;
484 -> 488 ;
489 [label="mse = 0.0\nsamples = 1\nvalue = 287.0", fillcolor="#fceee5"] ;
455 -> 489 ;
490 [label="X[3] <= 9.5\nmse = 4355.556\nsamples = 18\nvalue = 278.0", fillcolor="#fcefe6"] ;
454 -> 490 ;
491 [label="X[4] <= 1446.5\nmse = 3606.727\nsamples = 11\nvalue = 302.0", fillcolor="#fbede3"] ;
490 -> 491 ;
492 [label="X[3] <= 3.5\nmse = 2143.359\nsamples = 8\nvalue = 327.875", fillcolor="#fbece1"] ;
491 -> 492 ;
493 [label="mse = 0.0\nsamples = 1\nvalue = 238.0", fillcolor="#fcf1e9"] ;
492 -> 493 ;
494 [label="X[4] <= 1373.5\nmse = 1130.776\nsamples = 7\nvalue = 340.714", fillcolor="#fbebe0"] ;
492 -> 494 ;
495 [label="X[1] <= 251.0\nmse = 747.84\nsamples = 5\nvalue = 325.4", fillcolor="#fbece1"] ;
494 -> 495 ;
496 [label="X[4] <= 953.5\nmse = 56.0\nsamples = 3\nvalue = 305.0", fillcolor="#fbede3"] ;
495 -> 496 ;
497 [label="X[2] <= 70.0\nmse = 9.0\nsamples = 2\nvalue = 310.0", fillcolor="#fbede3"] ;
496 -> 497 ;
498 [label="mse = 0.0\nsamples = 1\nvalue = 307.0", fillcolor="#fbede3"] ;
497 -> 498 ;
499 [label="mse = 0.0\nsamples = 1\nvalue = 313.0", fillcolor="#fbede2"] ;
497 -> 499 ;
500 [label="mse = 0.0\nsamples = 1\nvalue = 295.0", fillcolor="#fbeee4"] ;
496 -> 500 ;
501 [label="X[3] <= 5.5\nmse = 225.0\nsamples = 2\nvalue = 356.0", fillcolor="#fbeade"] ;
495 -> 501 ;
502 [label="mse = 0.0\nsamples = 1\nvalue = 341.0", fillcolor="#fbebe0"] ;
501 -> 502 ;
503 [label="mse = 0.0\nsamples = 1\nvalue = 371.0", fillcolor="#fbe9dd"] ;
501 -> 503 ;
504 [label="X[5] <= 338.0\nmse = 36.0\nsamples = 2\nvalue = 379.0", fillcolor="#fae9dc"] ;
494 -> 504 ;
505 [label="mse = 0.0\nsamples = 1\nvalue = 373.0", fillcolor="#fbe9dd"] ;
504 -> 505 ;
506 [label="mse = 0.0\nsamples = 1\nvalue = 385.0", fillcolor="#fae9dc"] ;
504 -> 506 ;
507 [label="X[5] <= 326.0\nmse = 962.667\nsamples = 3\nvalue = 233.0", fillcolor="#fcf1ea"] ;
491 -> 507 ;
508 [label="mse = 0.0\nsamples = 1\nvalue = 191.0", fillcolor="#fdf4ee"] ;
507 -> 508 ;
509 [label="X[3] <= 4.0\nmse = 121.0\nsamples = 2\nvalue = 254.0", fillcolor="#fcf0e8"] ;
507 -> 509 ;
510 [label="mse = 0.0\nsamples = 1\nvalue = 265.0", fillcolor="#fcf0e7"] ;
509 -> 510 ;
511 [label="mse = 0.0\nsamples = 1\nvalue = 243.0", fillcolor="#fcf1e9"] ;
509 -> 511 ;
512 [label="X[5] <= 312.0\nmse = 3204.776\nsamples = 7\nvalue = 240.286", fillcolor="#fcf1e9"] ;
490 -> 512 ;
513 [label="mse = 0.0\nsamples = 1\nvalue = 345.0", fillcolor="#fbebdf"] ;
512 -> 513 ;
514 [label="X[3] <= 12.0\nmse = 1606.806\nsamples = 6\nvalue = 222.833", fillcolor="#fcf2eb"] ;
512 -> 514 ;
515 [label="X[4] <= 490.0\nmse = 1282.667\nsamples = 3\nvalue = 192.0", fillcolor="#fdf4ed"] ;
514 -> 515 ;
516 [label="mse = 0.0\nsamples = 1\nvalue = 242.0", fillcolor="#fcf1e9"] ;
515 -> 516 ;
517 [label="X[5] <= 329.5\nmse = 49.0\nsamples = 2\nvalue = 167.0", fillcolor="#fdf5f0"] ;
515 -> 517 ;
518 [label="mse = 0.0\nsamples = 1\nvalue = 174.0", fillcolor="#fdf5ef"] ;
517 -> 518 ;
519 [label="mse = 0.0\nsamples = 1\nvalue = 160.0", fillcolor="#fdf6f0"] ;
517 -> 519 ;
520 [label="X[1] <= 252.5\nmse = 29.556\nsamples = 3\nvalue = 253.667", fillcolor="#fcf0e8"] ;
514 -> 520 ;
521 [label="mse = 0.0\nsamples = 1\nvalue = 261.0", fillcolor="#fcf0e7"] ;
520 -> 521 ;
522 [label="X[4] <= 1015.0\nmse = 4.0\nsamples = 2\nvalue = 250.0", fillcolor="#fcf0e8"] ;
520 -> 522 ;
523 [label="mse = 0.0\nsamples = 1\nvalue = 248.0", fillcolor="#fcf1e8"] ;
522 -> 523 ;
524 [label="mse = 0.0\nsamples = 1\nvalue = 252.0", fillcolor="#fcf0e8"] ;
522 -> 524 ;
525 [label="X[7] <= 2.5\nmse = 2162.25\nsamples = 2\nvalue = 123.5", fillcolor="#fef8f4"] ;
453 -> 525 ;
526 [label="mse = 0.0\nsamples = 1\nvalue = 170.0", fillcolor="#fdf5ef"] ;
525 -> 526 ;
527 [label="mse = 0.0\nsamples = 1\nvalue = 77.0", fillcolor="#fefbf8"] ;
525 -> 527 ;
528 [label="X[1] <= 233.5\nmse = 3651.795\nsamples = 38\nvalue = 157.684", fillcolor="#fdf6f1"] ;
452 -> 528 ;
529 [label="X[1] <= 167.5\nmse = 1271.812\nsamples = 19\nvalue = 114.368", fillcolor="#fef8f5"] ;
528 -> 529 ;
530 [label="X[3] <= 10.5\nmse = 272.25\nsamples = 2\nvalue = 64.5", fillcolor="#fefbf9"] ;
529 -> 530 ;
531 [label="mse = 0.0\nsamples = 1\nvalue = 81.0", fillcolor="#fefaf8"] ;
530 -> 531 ;
532 [label="mse = 0.0\nsamples = 1\nvalue = 48.0", fillcolor="#fefcfb"] ;
530 -> 532 ;
533 [label="X[2] <= 40.0\nmse = 1062.415\nsamples = 17\nvalue = 120.235", fillcolor="#fef8f4"] ;
529 -> 533 ;
534 [label="X[5] <= 176.5\nmse = 1075.25\nsamples = 4\nvalue = 95.5", fillcolor="#fef9f6"] ;
533 -> 534 ;
535 [label="mse = 0.0\nsamples = 1\nvalue = 148.0", fillcolor="#fdf6f1"] ;
534 -> 535 ;
536 [label="X[4] <= 1520.0\nmse = 208.667\nsamples = 3\nvalue = 78.0", fillcolor="#fefaf8"] ;
534 -> 536 ;
537 [label="mse = 0.0\nsamples = 1\nvalue = 59.0", fillcolor="#fefcfa"] ;
536 -> 537 ;
538 [label="X[5] <= 203.5\nmse = 42.25\nsamples = 2\nvalue = 87.5", fillcolor="#fefaf7"] ;
536 -> 538 ;
539 [label="mse = 0.0\nsamples = 1\nvalue = 81.0", fillcolor="#fefaf8"] ;
538 -> 539 ;
540 [label="mse = 0.0\nsamples = 1\nvalue = 94.0", fillcolor="#fefaf6"] ;
538 -> 540 ;
541 [label="X[2] <= 44.0\nmse = 812.284\nsamples = 13\nvalue = 127.846", fillcolor="#fdf8f3"] ;
533 -> 541 ;
542 [label="X[3] <= 14.0\nmse = 784.0\nsamples = 2\nvalue = 168.0", fillcolor="#fdf5f0"] ;
541 -> 542 ;
543 [label="mse = 0.0\nsamples = 1\nvalue = 196.0", fillcolor="#fdf4ed"] ;
542 -> 543 ;
544 [label="mse = 0.0\nsamples = 1\nvalue = 140.0", fillcolor="#fdf7f2"] ;
542 -> 544 ;
545 [label="X[3] <= 13.0\nmse = 470.975\nsamples = 11\nvalue = 120.545", fillcolor="#fef8f4"] ;
541 -> 545 ;
546 [label="X[4] <= 1184.0\nmse = 476.806\nsamples = 6\nvalue = 132.167", fillcolor="#fdf7f3"] ;
545 -> 546 ;
547 [label="X[2] <= 68.5\nmse = 306.75\nsamples = 4\nvalue = 120.5", fillcolor="#fef8f4"] ;
546 -> 547 ;
548 [label="X[3] <= 6.5\nmse = 1.0\nsamples = 2\nvalue = 103.0", fillcolor="#fef9f6"] ;
547 -> 548 ;
549 [label="mse = 0.0\nsamples = 1\nvalue = 102.0", fillcolor="#fef9f6"] ;
548 -> 549 ;
550 [label="mse = 0.0\nsamples = 1\nvalue = 104.0", fillcolor="#fef9f5"] ;
548 -> 550 ;
551 [label="mse = 0.0\nsamples = 2\nvalue = 138.0", fillcolor="#fdf7f2"] ;
547 -> 551 ;
552 [label="X[3] <= 9.5\nmse = 0.25\nsamples = 2\nvalue = 155.5", fillcolor="#fdf6f1"] ;
546 -> 552 ;
553 [label="mse = 0.0\nsamples = 1\nvalue = 156.0", fillcolor="#fdf6f1"] ;
552 -> 553 ;
554 [label="mse = 0.0\nsamples = 1\nvalue = 155.0", fillcolor="#fdf6f1"] ;
552 -> 554 ;
555 [label="X[4] <= 868.0\nmse = 107.44\nsamples = 5\nvalue = 106.6", fillcolor="#fef9f5"] ;
545 -> 555 ;
556 [label="X[3] <= 25.5\nmse = 12.25\nsamples = 2\nvalue = 117.5", fillcolor="#fef8f4"] ;
555 -> 556 ;
557 [label="mse = 0.0\nsamples = 1\nvalue = 114.0", fillcolor="#fef8f5"] ;
556 -> 557 ;
558 [label="mse = 0.0\nsamples = 1\nvalue = 121.0", fillcolor="#fef8f4"] ;
556 -> 558 ;
559 [label="X[1] <= 207.0\nmse = 38.889\nsamples = 3\nvalue = 99.333", fillcolor="#fef9f6"] ;
555 -> 559 ;
560 [label="mse = 0.0\nsamples = 1\nvalue = 91.0", fillcolor="#fefaf7"] ;
559 -> 560 ;
561 [label="X[4] <= 1624.5\nmse = 6.25\nsamples = 2\nvalue = 103.5", fillcolor="#fef9f6"] ;
559 -> 561 ;
562 [label="mse = 0.0\nsamples = 1\nvalue = 106.0", fillcolor="#fef9f5"] ;
561 -> 562 ;
563 [label="mse = 0.0\nsamples = 1\nvalue = 101.0", fillcolor="#fef9f6"] ;
561 -> 563 ;
564 [label="X[5] <= 323.0\nmse = 2279.263\nsamples = 19\nvalue = 201.0", fillcolor="#fdf3ed"] ;
528 -> 564 ;
565 [label="X[2] <= 53.0\nmse = 639.21\nsamples = 9\nvalue = 169.889", fillcolor="#fdf5ef"] ;
564 -> 565 ;
566 [label="X[5] <= 277.0\nmse = 398.694\nsamples = 7\nvalue = 179.143", fillcolor="#fdf5ef"] ;
565 -> 566 ;
567 [label="X[4] <= 1509.5\nmse = 137.25\nsamples = 4\nvalue = 164.5", fillcolor="#fdf5f0"] ;
566 -> 567 ;
568 [label="mse = 0.0\nsamples = 1\nvalue = 148.0", fillcolor="#fdf6f1"] ;
567 -> 568 ;
569 [label="X[4] <= 1761.5\nmse = 62.0\nsamples = 3\nvalue = 170.0", fillcolor="#fdf5ef"] ;
567 -> 569 ;
570 [label="mse = 0.0\nsamples = 1\nvalue = 181.0", fillcolor="#fdf4ee"] ;
569 -> 570 ;
571 [label="X[5] <= 238.0\nmse = 2.25\nsamples = 2\nvalue = 164.5", fillcolor="#fdf5f0"] ;
569 -> 571 ;
572 [label="mse = 0.0\nsamples = 1\nvalue = 166.0", fillcolor="#fdf5f0"] ;
571 -> 572 ;
573 [label="mse = 0.0\nsamples = 1\nvalue = 163.0", fillcolor="#fdf6f0"] ;
571 -> 573 ;
574 [label="X[5] <= 303.5\nmse = 80.222\nsamples = 3\nvalue = 198.667", fillcolor="#fdf3ed"] ;
566 -> 574 ;
575 [label="mse = 0.0\nsamples = 2\nvalue = 205.0", fillcolor="#fdf3ec"] ;
574 -> 575 ;
576 [label="mse = 0.0\nsamples = 1\nvalue = 186.0", fillcolor="#fdf4ee"] ;
574 -> 576 ;
577 [label="X[5] <= 317.5\nmse = 132.25\nsamples = 2\nvalue = 137.5", fillcolor="#fdf7f2"] ;
565 -> 577 ;
578 [label="mse = 0.0\nsamples = 1\nvalue = 149.0", fillcolor="#fdf6f1"] ;
577 -> 578 ;
579 [label="mse = 0.0\nsamples = 1\nvalue = 126.0", fillcolor="#fdf8f3"] ;
577 -> 579 ;
580 [label="X[3] <= 8.5\nmse = 2100.2\nsamples = 10\nvalue = 229.0", fillcolor="#fcf2ea"] ;
564 -> 580 ;
581 [label="X[5] <= 360.0\nmse = 632.188\nsamples = 4\nvalue = 184.75", fillcolor="#fdf4ee"] ;
580 -> 581 ;
582 [label="X[2] <= 60.5\nmse = 274.889\nsamples = 3\nvalue = 196.667", fillcolor="#fdf4ed"] ;
581 -> 582 ;
583 [label="X[4] <= 751.5\nmse = 4.0\nsamples = 2\nvalue = 185.0", fillcolor="#fdf4ee"] ;
582 -> 583 ;
584 [label="mse = 0.0\nsamples = 1\nvalue = 183.0", fillcolor="#fdf4ee"] ;
583 -> 584 ;
585 [label="mse = 0.0\nsamples = 1\nvalue = 187.0", fillcolor="#fdf4ee"] ;
583 -> 585 ;
586 [label="mse = 0.0\nsamples = 1\nvalue = 220.0", fillcolor="#fcf2eb"] ;
582 -> 586 ;
587 [label="mse = 0.0\nsamples = 1\nvalue = 149.0", fillcolor="#fdf6f1"] ;
581 -> 587 ;
588 [label="X[4] <= 1633.0\nmse = 903.25\nsamples = 6\nvalue = 258.5", fillcolor="#fcf0e7"] ;
580 -> 588 ;
589 [label="X[4] <= 1068.5\nmse = 205.44\nsamples = 5\nvalue = 246.4", fillcolor="#fcf1e8"] ;
588 -> 589 ;
590 [label="X[5] <= 369.5\nmse = 24.0\nsamples = 3\nvalue = 257.0", fillcolor="#fcf0e7"] ;
589 -> 590 ;
591 [label="X[3] <= 14.0\nmse = 9.0\nsamples = 2\nvalue = 260.0", fillcolor="#fcf0e7"] ;
590 -> 591 ;
592 [label="mse = 0.0\nsamples = 1\nvalue = 257.0", fillcolor="#fcf0e7"] ;
591 -> 592 ;
593 [label="mse = 0.0\nsamples = 1\nvalue = 263.0", fillcolor="#fcf0e7"] ;
591 -> 593 ;
594 [label="mse = 0.0\nsamples = 1\nvalue = 251.0", fillcolor="#fcf0e8"] ;
590 -> 594 ;
595 [label="X[3] <= 9.5\nmse = 56.25\nsamples = 2\nvalue = 230.5", fillcolor="#fcf2ea"] ;
589 -> 595 ;
596 [label="mse = 0.0\nsamples = 1\nvalue = 223.0", fillcolor="#fcf2eb"] ;
595 -> 596 ;
597 [label="mse = 0.0\nsamples = 1\nvalue = 238.0", fillcolor="#fcf1e9"] ;
595 -> 597 ;
598 [label="mse = 0.0\nsamples = 1\nvalue = 319.0", fillcolor="#fbece2"] ;
588 -> 598 ;
599 [label="X[9] <= 0.5\nmse = 2081.096\nsamples = 149\nvalue = 128.067", fillcolor="#fdf8f3"] ;
451 -> 599 ;
600 [label="X[2] <= 59.5\nmse = 1304.486\nsamples = 73\nvalue = 149.603", fillcolor="#fdf6f1"] ;
599 -> 600 ;
601 [label="X[3] <= 26.5\nmse = 1413.062\nsamples = 27\nvalue = 131.111", fillcolor="#fdf7f3"] ;
600 -> 601 ;
602 [label="X[3] <= 24.5\nmse = 1060.87\nsamples = 26\nvalue = 127.231", fillcolor="#fdf8f3"] ;
601 -> 602 ;
603 [label="X[2] <= 53.5\nmse = 677.002\nsamples = 25\nvalue = 131.28", fillcolor="#fdf7f3"] ;
602 -> 603 ;
604 [label="X[3] <= 4.5\nmse = 328.649\nsamples = 15\nvalue = 121.533", fillcolor="#fef8f4"] ;
603 -> 604 ;
605 [label="X[5] <= 210.5\nmse = 144.0\nsamples = 2\nvalue = 152.0", fillcolor="#fdf6f1"] ;
604 -> 605 ;
606 [label="mse = 0.0\nsamples = 1\nvalue = 140.0", fillcolor="#fdf7f2"] ;
605 -> 606 ;
607 [label="mse = 0.0\nsamples = 1\nvalue = 164.0", fillcolor="#fdf5f0"] ;
605 -> 607 ;
608 [label="X[4] <= 1226.0\nmse = 192.284\nsamples = 13\nvalue = 116.846", fillcolor="#fef8f4"] ;
604 -> 608 ;
609 [label="X[4] <= 883.5\nmse = 36.0\nsamples = 2\nvalue = 133.0", fillcolor="#fdf7f3"] ;
608 -> 609 ;
610 [label="mse = 0.0\nsamples = 1\nvalue = 139.0", fillcolor="#fdf7f2"] ;
609 -> 610 ;
611 [label="mse = 0.0\nsamples = 1\nvalue = 127.0", fillcolor="#fdf8f3"] ;
609 -> 611 ;
612 [label="X[1] <= 182.5\nmse = 164.628\nsamples = 11\nvalue = 113.909", fillcolor="#fef8f5"] ;
608 -> 612 ;
613 [label="X[0] <= 4.5\nmse = 60.139\nsamples = 6\nvalue = 121.833", fillcolor="#fef8f4"] ;
612 -> 613 ;
614 [label="X[1] <= 155.5\nmse = 27.556\nsamples = 3\nvalue = 115.333", fillcolor="#fef8f4"] ;
613 -> 614 ;
615 [label="mse = 0.0\nsamples = 1\nvalue = 108.0", fillcolor="#fef9f5"] ;
614 -> 615 ;
616 [label="X[2] <= 34.5\nmse = 1.0\nsamples = 2\nvalue = 119.0", fillcolor="#fef8f4"] ;
614 -> 616 ;
617 [label="mse = 0.0\nsamples = 1\nvalue = 120.0", fillcolor="#fef8f4"] ;
616 -> 617 ;
618 [label="mse = 0.0\nsamples = 1\nvalue = 118.0", fillcolor="#fef8f4"] ;
616 -> 618 ;
619 [label="X[2] <= 29.0\nmse = 8.222\nsamples = 3\nvalue = 128.333", fillcolor="#fdf8f3"] ;
613 -> 619 ;
620 [label="X[3] <= 7.0\nmse = 2.25\nsamples = 2\nvalue = 126.5", fillcolor="#fdf8f3"] ;
619 -> 620 ;
621 [label="mse = 0.0\nsamples = 1\nvalue = 128.0", fillcolor="#fdf8f3"] ;
620 -> 621 ;
622 [label="mse = 0.0\nsamples = 1\nvalue = 125.0", fillcolor="#fdf8f4"] ;
620 -> 622 ;
623 [label="mse = 0.0\nsamples = 1\nvalue = 132.0", fillcolor="#fdf7f3"] ;
619 -> 623 ;
624 [label="X[0] <= 4.5\nmse = 124.24\nsamples = 5\nvalue = 104.4", fillcolor="#fef9f5"] ;
612 -> 624 ;
625 [label="X[1] <= 265.0\nmse = 48.222\nsamples = 3\nvalue = 112.333", fillcolor="#fef8f5"] ;
624 -> 625 ;
626 [label="X[4] <= 1659.5\nmse = 2.25\nsamples = 2\nvalue = 107.5", fillcolor="#fef9f5"] ;
625 -> 626 ;
627 [label="mse = 0.0\nsamples = 1\nvalue = 109.0", fillcolor="#fef9f5"] ;
626 -> 627 ;
628 [label="mse = 0.0\nsamples = 1\nvalue = 106.0", fillcolor="#fef9f5"] ;
626 -> 628 ;
629 [label="mse = 0.0\nsamples = 1\nvalue = 122.0", fillcolor="#fef8f4"] ;
625 -> 629 ;
630 [label="X[4] <= 1671.0\nmse = 2.25\nsamples = 2\nvalue = 92.5", fillcolor="#fefaf7"] ;
624 -> 630 ;
631 [label="mse = 0.0\nsamples = 1\nvalue = 91.0", fillcolor="#fefaf7"] ;
630 -> 631 ;
632 [label="mse = 0.0\nsamples = 1\nvalue = 94.0", fillcolor="#fefaf6"] ;
630 -> 632 ;
633 [label="X[5] <= 314.5\nmse = 843.29\nsamples = 10\nvalue = 145.9", fillcolor="#fdf7f2"] ;
603 -> 633 ;
634 [label="X[3] <= 6.5\nmse = 562.173\nsamples = 9\nvalue = 139.778", fillcolor="#fdf7f2"] ;
633 -> 634 ;
635 [label="X[3] <= 5.5\nmse = 138.889\nsamples = 6\nvalue = 151.667", fillcolor="#fdf6f1"] ;
634 -> 635 ;
636 [label="X[3] <= 1.5\nmse = 54.688\nsamples = 4\nvalue = 144.75", fillcolor="#fdf7f2"] ;
635 -> 636 ;
637 [label="mse = 0.0\nsamples = 1\nvalue = 132.0", fillcolor="#fdf7f3"] ;
636 -> 637 ;
638 [label="X[5] <= 236.0\nmse = 0.667\nsamples = 3\nvalue = 149.0", fillcolor="#fdf6f1"] ;
636 -> 638 ;
639 [label="mse = 0.0\nsamples = 1\nvalue = 148.0", fillcolor="#fdf6f1"] ;
638 -> 639 ;
640 [label="X[5] <= 271.5\nmse = 0.25\nsamples = 2\nvalue = 149.5", fillcolor="#fdf6f1"] ;
638 -> 640 ;
641 [label="mse = 0.0\nsamples = 1\nvalue = 149.0", fillcolor="#fdf6f1"] ;
640 -> 641 ;
642 [label="mse = 0.0\nsamples = 1\nvalue = 150.0", fillcolor="#fdf6f1"] ;
640 -> 642 ;
643 [label="X[5] <= 273.0\nmse = 20.25\nsamples = 2\nvalue = 165.5", fillcolor="#fdf5f0"] ;
635 -> 643 ;
644 [label="mse = 0.0\nsamples = 1\nvalue = 161.0", fillcolor="#fdf6f0"] ;
643 -> 644 ;
645 [label="mse = 0.0\nsamples = 1\nvalue = 170.0", fillcolor="#fdf5ef"] ;
643 -> 645 ;
646 [label="X[4] <= 1393.0\nmse = 560.667\nsamples = 3\nvalue = 116.0", fillcolor="#fef8f4"] ;
634 -> 646 ;
647 [label="mse = 0.0\nsamples = 1\nvalue = 87.0", fillcolor="#fefaf7"] ;
646 -> 647 ;
648 [label="X[3] <= 11.5\nmse = 210.25\nsamples = 2\nvalue = 130.5", fillcolor="#fdf7f3"] ;
646 -> 648 ;
649 [label="mse = 0.0\nsamples = 1\nvalue = 116.0", fillcolor="#fef8f4"] ;
648 -> 649 ;
650 [label="mse = 0.0\nsamples = 1\nvalue = 145.0", fillcolor="#fdf7f2"] ;
648 -> 650 ;
651 [label="mse = 0.0\nsamples = 1\nvalue = 201.0", fillcolor="#fdf3ed"] ;
633 -> 651 ;
652 [label="mse = 0.0\nsamples = 1\nvalue = 26.0", fillcolor="#fffdfd"] ;
602 -> 652 ;
653 [label="mse = 0.0\nsamples = 1\nvalue = 232.0", fillcolor="#fcf1ea"] ;
601 -> 653 ;
654 [label="X[3] <= 8.5\nmse = 922.248\nsamples = 46\nvalue = 160.457", fillcolor="#fdf6f0"] ;
600 -> 654 ;
655 [label="X[1] <= 243.5\nmse = 1014.095\nsamples = 26\nvalue = 150.462", fillcolor="#fdf6f1"] ;
654 -> 655 ;
656 [label="X[5] <= 330.5\nmse = 508.576\nsamples = 19\nvalue = 143.053", fillcolor="#fdf7f2"] ;
655 -> 656 ;
657 [label="X[5] <= 325.5\nmse = 372.862\nsamples = 15\nvalue = 148.067", fillcolor="#fdf6f1"] ;
656 -> 657 ;
658 [label="X[1] <= 185.0\nmse = 277.454\nsamples = 14\nvalue = 145.214", fillcolor="#fdf7f2"] ;
657 -> 658 ;
659 [label="X[4] <= 1122.0\nmse = 42.25\nsamples = 2\nvalue = 121.5", fillcolor="#fef8f4"] ;
658 -> 659 ;
660 [label="mse = 0.0\nsamples = 1\nvalue = 128.0", fillcolor="#fdf8f3"] ;
659 -> 660 ;
661 [label="mse = 0.0\nsamples = 1\nvalue = 115.0", fillcolor="#fef8f4"] ;
659 -> 661 ;
662 [label="X[4] <= 1109.0\nmse = 207.306\nsamples = 12\nvalue = 149.167", fillcolor="#fdf6f1"] ;
658 -> 662 ;
663 [label="X[1] <= 226.5\nmse = 228.688\nsamples = 4\nvalue = 134.25", fillcolor="#fdf7f3"] ;
662 -> 663 ;
664 [label="X[0] <= 4.5\nmse = 64.667\nsamples = 3\nvalue = 142.0", fillcolor="#fdf7f2"] ;
663 -> 664 ;
665 [label="mse = 0.0\nsamples = 1\nvalue = 153.0", fillcolor="#fdf6f1"] ;
664 -> 665 ;
666 [label="X[2] <= 69.0\nmse = 6.25\nsamples = 2\nvalue = 136.5", fillcolor="#fdf7f3"] ;
664 -> 666 ;
667 [label="mse = 0.0\nsamples = 1\nvalue = 134.0", fillcolor="#fdf7f3"] ;
666 -> 667 ;
668 [label="mse = 0.0\nsamples = 1\nvalue = 139.0", fillcolor="#fdf7f2"] ;
666 -> 668 ;
669 [label="mse = 0.0\nsamples = 1\nvalue = 111.0", fillcolor="#fef9f5"] ;
663 -> 669 ;
670 [label="X[5] <= 280.5\nmse = 29.734\nsamples = 8\nvalue = 156.625", fillcolor="#fdf6f1"] ;
662 -> 670 ;
671 [label="X[3] <= 4.0\nmse = 12.25\nsamples = 2\nvalue = 149.5", fillcolor="#fdf6f1"] ;
670 -> 671 ;
672 [label="mse = 0.0\nsamples = 1\nvalue = 153.0", fillcolor="#fdf6f1"] ;
671 -> 672 ;
673 [label="mse = 0.0\nsamples = 1\nvalue = 146.0", fillcolor="#fdf7f2"] ;
671 -> 673 ;
674 [label="X[1] <= 212.5\nmse = 13.0\nsamples = 6\nvalue = 159.0", fillcolor="#fdf6f0"] ;
670 -> 674 ;
675 [label="X[5] <= 293.5\nmse = 13.556\nsamples = 3\nvalue = 156.667", fillcolor="#fdf6f1"] ;
674 -> 675 ;
676 [label="X[5] <= 286.5\nmse = 4.0\nsamples = 2\nvalue = 159.0", fillcolor="#fdf6f0"] ;
675 -> 676 ;
677 [label="mse = 0.0\nsamples = 1\nvalue = 157.0", fillcolor="#fdf6f1"] ;
676 -> 677 ;
678 [label="mse = 0.0\nsamples = 1\nvalue = 161.0", fillcolor="#fdf6f0"] ;
676 -> 678 ;
679 [label="mse = 0.0\nsamples = 1\nvalue = 152.0", fillcolor="#fdf6f1"] ;
675 -> 679 ;
680 [label="X[4] <= 1456.5\nmse = 1.556\nsamples = 3\nvalue = 161.333", fillcolor="#fdf6f0"] ;
674 -> 680 ;
681 [label="mse = 0.0\nsamples = 1\nvalue = 163.0", fillcolor="#fdf6f0"] ;
680 -> 681 ;
682 [label="X[5] <= 311.5\nmse = 0.25\nsamples = 2\nvalue = 160.5", fillcolor="#fdf6f0"] ;
680 -> 682 ;
683 [label="mse = 0.0\nsamples = 1\nvalue = 160.0", fillcolor="#fdf6f0"] ;
682 -> 683 ;
684 [label="mse = 0.0\nsamples = 1\nvalue = 161.0", fillcolor="#fdf6f0"] ;
682 -> 684 ;
685 [label="mse = 0.0\nsamples = 1\nvalue = 188.0", fillcolor="#fdf4ee"] ;
657 -> 685 ;
686 [label="X[3] <= 6.0\nmse = 569.688\nsamples = 4\nvalue = 124.25", fillcolor="#fef8f4"] ;
656 -> 686 ;
687 [label="X[2] <= 74.5\nmse = 21.556\nsamples = 3\nvalue = 110.667", fillcolor="#fef9f5"] ;
686 -> 687 ;
688 [label="X[0] <= 4.5\nmse = 2.25\nsamples = 2\nvalue = 107.5", fillcolor="#fef9f5"] ;
687 -> 688 ;
689 [label="mse = 0.0\nsamples = 1\nvalue = 106.0", fillcolor="#fef9f5"] ;
688 -> 689 ;
690 [label="mse = 0.0\nsamples = 1\nvalue = 109.0", fillcolor="#fef9f5"] ;
688 -> 690 ;
691 [label="mse = 0.0\nsamples = 1\nvalue = 117.0", fillcolor="#fef8f4"] ;
687 -> 691 ;
692 [label="mse = 0.0\nsamples = 1\nvalue = 165.0", fillcolor="#fdf5f0"] ;
686 -> 692 ;
693 [label="X[3] <= 4.5\nmse = 1832.816\nsamples = 7\nvalue = 170.571", fillcolor="#fdf5ef"] ;
655 -> 693 ;
694 [label="X[3] <= 3.5\nmse = 646.222\nsamples = 3\nvalue = 212.333", fillcolor="#fcf3ec"] ;
693 -> 694 ;
695 [label="X[4] <= 1441.0\nmse = 169.0\nsamples = 2\nvalue = 196.0", fillcolor="#fdf4ed"] ;
694 -> 695 ;
696 [label="mse = 0.0\nsamples = 1\nvalue = 209.0", fillcolor="#fcf3ec"] ;
695 -> 696 ;
697 [label="mse = 0.0\nsamples = 1\nvalue = 183.0", fillcolor="#fdf4ee"] ;
695 -> 697 ;
698 [label="mse = 0.0\nsamples = 1\nvalue = 245.0", fillcolor="#fcf1e9"] ;
694 -> 698 ;
699 [label="X[0] <= 4.5\nmse = 433.688\nsamples = 4\nvalue = 139.25", fillcolor="#fdf7f2"] ;
693 -> 699 ;
700 [label="X[3] <= 5.5\nmse = 36.0\nsamples = 2\nvalue = 150.0", fillcolor="#fdf6f1"] ;
699 -> 700 ;
701 [label="mse = 0.0\nsamples = 1\nvalue = 156.0", fillcolor="#fdf6f1"] ;
700 -> 701 ;
702 [label="mse = 0.0\nsamples = 1\nvalue = 144.0", fillcolor="#fdf7f2"] ;
700 -> 702 ;
703 [label="X[1] <= 261.0\nmse = 600.25\nsamples = 2\nvalue = 128.5", fillcolor="#fdf8f3"] ;
699 -> 703 ;
704 [label="mse = 0.0\nsamples = 1\nvalue = 153.0", fillcolor="#fdf6f1"] ;
703 -> 704 ;
705 [label="mse = 0.0\nsamples = 1\nvalue = 104.0", fillcolor="#fef9f5"] ;
703 -> 705 ;
706 [label="X[1] <= 231.0\nmse = 504.148\nsamples = 20\nvalue = 173.45", fillcolor="#fdf5ef"] ;
654 -> 706 ;
707 [label="X[3] <= 9.5\nmse = 388.44\nsamples = 10\nvalue = 164.6", fillcolor="#fdf5f0"] ;
706 -> 707 ;
708 [label="X[1] <= 216.5\nmse = 4.0\nsamples = 2\nvalue = 142.0", fillcolor="#fdf7f2"] ;
707 -> 708 ;
709 [label="mse = 0.0\nsamples = 1\nvalue = 140.0", fillcolor="#fdf7f2"] ;
708 -> 709 ;
710 [label="mse = 0.0\nsamples = 1\nvalue = 144.0", fillcolor="#fdf7f2"] ;
708 -> 710 ;
711 [label="X[1] <= 192.0\nmse = 324.938\nsamples = 8\nvalue = 170.25", fillcolor="#fdf5ef"] ;
707 -> 711 ;
712 [label="mse = 0.0\nsamples = 1\nvalue = 194.0", fillcolor="#fdf4ed"] ;
711 -> 712 ;
713 [label="X[4] <= 1785.0\nmse = 279.265\nsamples = 7\nvalue = 166.857", fillcolor="#fdf5f0"] ;
711 -> 713 ;
714 [label="X[4] <= 1234.5\nmse = 95.688\nsamples = 4\nvalue = 155.75", fillcolor="#fdf6f1"] ;
713 -> 714 ;
715 [label="X[2] <= 63.0\nmse = 0.25\nsamples = 2\nvalue = 165.5", fillcolor="#fdf5f0"] ;
714 -> 715 ;
716 [label="mse = 0.0\nsamples = 1\nvalue = 166.0", fillcolor="#fdf5f0"] ;
715 -> 716 ;
717 [label="mse = 0.0\nsamples = 1\nvalue = 165.0", fillcolor="#fdf5f0"] ;
715 -> 717 ;
718 [label="X[3] <= 12.5\nmse = 1.0\nsamples = 2\nvalue = 146.0", fillcolor="#fdf7f2"] ;
714 -> 718 ;
719 [label="mse = 0.0\nsamples = 1\nvalue = 147.0", fillcolor="#fdf6f2"] ;
718 -> 719 ;
720 [label="mse = 0.0\nsamples = 1\nvalue = 145.0", fillcolor="#fdf7f2"] ;
718 -> 720 ;
721 [label="X[2] <= 62.5\nmse = 140.222\nsamples = 3\nvalue = 181.667", fillcolor="#fdf4ee"] ;
713 -> 721 ;
722 [label="mse = 0.0\nsamples = 1\nvalue = 167.0", fillcolor="#fdf5f0"] ;
721 -> 722 ;
723 [label="X[2] <= 63.5\nmse = 49.0\nsamples = 2\nvalue = 189.0", fillcolor="#fdf4ee"] ;
721 -> 723 ;
724 [label="mse = 0.0\nsamples = 1\nvalue = 182.0", fillcolor="#fdf4ee"] ;
723 -> 724 ;
725 [label="mse = 0.0\nsamples = 1\nvalue = 196.0", fillcolor="#fdf4ed"] ;
723 -> 725 ;
726 [label="X[1] <= 243.5\nmse = 463.21\nsamples = 10\nvalue = 182.3", fillcolor="#fdf4ee"] ;
706 -> 726 ;
727 [label="X[1] <= 237.5\nmse = 242.64\nsamples = 5\nvalue = 194.4", fillcolor="#fdf4ed"] ;
726 -> 727 ;
728 [label="X[2] <= 65.5\nmse = 361.0\nsamples = 2\nvalue = 206.0", fillcolor="#fdf3ec"] ;
727 -> 728 ;
729 [label="mse = 0.0\nsamples = 1\nvalue = 187.0", fillcolor="#fdf4ee"] ;
728 -> 729 ;
730 [label="mse = 0.0\nsamples = 1\nvalue = 225.0", fillcolor="#fcf2ea"] ;
728 -> 730 ;
731 [label="X[2] <= 74.0\nmse = 14.222\nsamples = 3\nvalue = 186.667", fillcolor="#fdf4ee"] ;
727 -> 731 ;
732 [label="mse = 0.0\nsamples = 2\nvalue = 184.0", fillcolor="#fdf4ee"] ;
731 -> 732 ;
733 [label="mse = 0.0\nsamples = 1\nvalue = 192.0", fillcolor="#fdf4ed"] ;
731 -> 733 ;
734 [label="X[2] <= 63.0\nmse = 390.96\nsamples = 5\nvalue = 170.2", fillcolor="#fdf5ef"] ;
726 -> 734 ;
735 [label="mse = 0.0\nsamples = 1\nvalue = 205.0", fillcolor="#fdf3ec"] ;
734 -> 735 ;
736 [label="X[3] <= 12.5\nmse = 110.25\nsamples = 4\nvalue = 161.5", fillcolor="#fdf6f0"] ;
734 -> 736 ;
737 [label="X[1] <= 255.5\nmse = 26.0\nsamples = 3\nvalue = 167.0", fillcolor="#fdf5f0"] ;
736 -> 737 ;
738 [label="mse = 0.0\nsamples = 1\nvalue = 160.0", fillcolor="#fdf6f0"] ;
737 -> 738 ;
739 [label="X[5] <= 360.5\nmse = 2.25\nsamples = 2\nvalue = 170.5", fillcolor="#fdf5ef"] ;
737 -> 739 ;
740 [label="mse = 0.0\nsamples = 1\nvalue = 169.0", fillcolor="#fdf5f0"] ;
739 -> 740 ;
741 [label="mse = 0.0\nsamples = 1\nvalue = 172.0", fillcolor="#fdf5ef"] ;
739 -> 741 ;
742 [label="mse = 0.0\nsamples = 1\nvalue = 145.0", fillcolor="#fdf7f2"] ;
736 -> 742 ;
743 [label="X[1] <= 222.5\nmse = 1953.683\nsamples = 76\nvalue = 107.382", fillcolor="#fef9f5"] ;
599 -> 743 ;
744 [label="X[5] <= 236.5\nmse = 367.038\nsamples = 32\nvalue = 77.344", fillcolor="#fefaf8"] ;
743 -> 744 ;
745 [label="X[4] <= 1374.5\nmse = 253.96\nsamples = 10\nvalue = 66.2", fillcolor="#fefbf9"] ;
744 -> 745 ;
746 [label="X[2] <= 34.5\nmse = 14.222\nsamples = 3\nvalue = 48.667", fillcolor="#fefcfb"] ;
745 -> 746 ;
747 [label="mse = 0.0\nsamples = 1\nvalue = 54.0", fillcolor="#fefcfa"] ;
746 -> 747 ;
748 [label="mse = 0.0\nsamples = 2\nvalue = 46.0", fillcolor="#fefcfb"] ;
746 -> 748 ;
749 [label="X[2] <= 34.5\nmse = 168.49\nsamples = 7\nvalue = 73.714", fillcolor="#fefbf8"] ;
745 -> 749 ;
750 [label="X[2] <= 32.0\nmse = 89.188\nsamples = 4\nvalue = 82.75", fillcolor="#fefaf7"] ;
749 -> 750 ;
751 [label="X[5] <= 180.5\nmse = 25.0\nsamples = 2\nvalue = 74.0", fillcolor="#fefbf8"] ;
750 -> 751 ;
752 [label="mse = 0.0\nsamples = 1\nvalue = 69.0", fillcolor="#fefbf9"] ;
751 -> 752 ;
753 [label="mse = 0.0\nsamples = 1\nvalue = 79.0", fillcolor="#fefaf8"] ;
751 -> 753 ;
754 [label="X[3] <= 20.0\nmse = 0.25\nsamples = 2\nvalue = 91.5", fillcolor="#fefaf7"] ;
750 -> 754 ;
755 [label="mse = 0.0\nsamples = 1\nvalue = 92.0", fillcolor="#fefaf7"] ;
754 -> 755 ;
756 [label="mse = 0.0\nsamples = 1\nvalue = 91.0", fillcolor="#fefaf7"] ;
754 -> 756 ;
757 [label="X[0] <= 4.5\nmse = 20.222\nsamples = 3\nvalue = 61.667", fillcolor="#fefbf9"] ;
749 -> 757 ;
758 [label="mse = 0.0\nsamples = 1\nvalue = 68.0", fillcolor="#fefbf9"] ;
757 -> 758 ;
759 [label="X[5] <= 224.5\nmse = 0.25\nsamples = 2\nvalue = 58.5", fillcolor="#fefcfa"] ;
757 -> 759 ;
760 [label="mse = 0.0\nsamples = 1\nvalue = 58.0", fillcolor="#fefcfa"] ;
759 -> 760 ;
761 [label="mse = 0.0\nsamples = 1\nvalue = 59.0", fillcolor="#fefcfa"] ;
759 -> 761 ;
762 [label="X[2] <= 73.5\nmse = 336.333\nsamples = 22\nvalue = 82.409", fillcolor="#fefaf7"] ;
744 -> 762 ;
763 [label="X[3] <= 36.5\nmse = 247.285\nsamples = 19\nvalue = 86.632", fillcolor="#fefaf7"] ;
762 -> 763 ;
764 [label="X[2] <= 65.0\nmse = 206.0\nsamples = 18\nvalue = 88.333", fillcolor="#fefaf7"] ;
763 -> 764 ;
765 [label="X[5] <= 296.0\nmse = 297.0\nsamples = 8\nvalue = 95.0", fillcolor="#fef9f6"] ;
764 -> 765 ;
766 [label="X[3] <= 5.5\nmse = 127.837\nsamples = 7\nvalue = 89.857", fillcolor="#fefaf7"] ;
765 -> 766 ;
767 [label="mse = 0.0\nsamples = 2\nvalue = 105.0", fillcolor="#fef9f5"] ;
766 -> 767 ;
768 [label="X[1] <= 199.0\nmse = 50.56\nsamples = 5\nvalue = 83.8", fillcolor="#fefaf7"] ;
766 -> 768 ;
769 [label="mse = 0.0\nsamples = 1\nvalue = 96.0", fillcolor="#fef9f6"] ;
768 -> 769 ;
770 [label="X[5] <= 287.0\nmse = 16.688\nsamples = 4\nvalue = 80.75", fillcolor="#fefaf8"] ;
768 -> 770 ;
771 [label="X[3] <= 16.5\nmse = 2.0\nsamples = 3\nvalue = 83.0", fillcolor="#fefaf7"] ;
770 -> 771 ;
772 [label="mse = 0.0\nsamples = 1\nvalue = 81.0", fillcolor="#fefaf8"] ;
771 -> 772 ;
773 [label="mse = 0.0\nsamples = 2\nvalue = 84.0", fillcolor="#fefaf7"] ;
771 -> 773 ;
774 [label="mse = 0.0\nsamples = 1\nvalue = 74.0", fillcolor="#fefbf8"] ;
770 -> 774 ;
775 [label="mse = 0.0\nsamples = 1\nvalue = 131.0", fillcolor="#fdf7f3"] ;
765 -> 775 ;
776 [label="X[2] <= 69.5\nmse = 69.2\nsamples = 10\nvalue = 83.0", fillcolor="#fefaf7"] ;
764 -> 776 ;
777 [label="X[4] <= 351.5\nmse = 62.188\nsamples = 4\nvalue = 77.25", fillcolor="#fefbf8"] ;
776 -> 777 ;
778 [label="mse = 0.0\nsamples = 1\nvalue = 65.0", fillcolor="#fefbf9"] ;
777 -> 778 ;
779 [label="X[1] <= 173.0\nmse = 16.222\nsamples = 3\nvalue = 81.333", fillcolor="#fefaf8"] ;
777 -> 779 ;
780 [label="X[4] <= 1617.5\nmse = 0.25\nsamples = 2\nvalue = 78.5", fillcolor="#fefaf8"] ;
779 -> 780 ;
781 [label="mse = 0.0\nsamples = 1\nvalue = 79.0", fillcolor="#fefaf8"] ;
780 -> 781 ;
782 [label="mse = 0.0\nsamples = 1\nvalue = 78.0", fillcolor="#fefaf8"] ;
780 -> 782 ;
783 [label="mse = 0.0\nsamples = 1\nvalue = 87.0", fillcolor="#fefaf7"] ;
779 -> 783 ;
784 [label="X[3] <= 4.5\nmse = 37.139\nsamples = 6\nvalue = 86.833", fillcolor="#fefaf7"] ;
776 -> 784 ;
785 [label="mse = 0.0\nsamples = 1\nvalue = 78.0", fillcolor="#fefaf8"] ;
784 -> 785 ;
786 [label="X[3] <= 11.5\nmse = 25.84\nsamples = 5\nvalue = 88.6", fillcolor="#fefaf7"] ;
784 -> 786 ;
787 [label="X[0] <= 4.5\nmse = 3.5\nsamples = 4\nvalue = 91.0", fillcolor="#fefaf7"] ;
786 -> 787 ;
788 [label="X[2] <= 71.5\nmse = 0.667\nsamples = 3\nvalue = 90.0", fillcolor="#fefaf7"] ;
787 -> 788 ;
789 [label="mse = 0.0\nsamples = 1\nvalue = 91.0", fillcolor="#fefaf7"] ;
788 -> 789 ;
790 [label="X[2] <= 72.5\nmse = 0.25\nsamples = 2\nvalue = 89.5", fillcolor="#fefaf7"] ;
788 -> 790 ;
791 [label="mse = 0.0\nsamples = 1\nvalue = 90.0", fillcolor="#fefaf7"] ;
790 -> 791 ;
792 [label="mse = 0.0\nsamples = 1\nvalue = 89.0", fillcolor="#fefaf7"] ;
790 -> 792 ;
793 [label="mse = 0.0\nsamples = 1\nvalue = 94.0", fillcolor="#fefaf6"] ;
787 -> 793 ;
794 [label="mse = 0.0\nsamples = 1\nvalue = 79.0", fillcolor="#fefaf8"] ;
786 -> 794 ;
795 [label="mse = 0.0\nsamples = 1\nvalue = 56.0", fillcolor="#fefcfa"] ;
763 -> 795 ;
796 [label="X[1] <= 207.5\nmse = 72.222\nsamples = 3\nvalue = 55.667", fillcolor="#fefcfa"] ;
762 -> 796 ;
797 [label="mse = 0.0\nsamples = 1\nvalue = 44.0", fillcolor="#fefcfb"] ;
796 -> 797 ;
798 [label="X[5] <= 318.5\nmse = 6.25\nsamples = 2\nvalue = 61.5", fillcolor="#fefbf9"] ;
796 -> 798 ;
799 [label="mse = 0.0\nsamples = 1\nvalue = 59.0", fillcolor="#fefcfa"] ;
798 -> 799 ;
800 [label="mse = 0.0\nsamples = 1\nvalue = 64.0", fillcolor="#fefbf9"] ;
798 -> 800 ;
801 [label="X[7] <= 0.5\nmse = 1974.176\nsamples = 44\nvalue = 129.227", fillcolor="#fdf7f3"] ;
743 -> 801 ;
802 [label="X[1] <= 264.0\nmse = 1546.685\nsamples = 42\nvalue = 134.071", fillcolor="#fdf7f3"] ;
801 -> 802 ;
803 [label="X[5] <= 342.5\nmse = 970.333\nsamples = 26\nvalue = 117.115", fillcolor="#fef8f4"] ;
802 -> 803 ;
804 [label="X[0] <= 4.5\nmse = 608.678\nsamples = 25\nvalue = 121.04", fillcolor="#fef8f4"] ;
803 -> 804 ;
805 [label="X[1] <= 254.5\nmse = 171.692\nsamples = 13\nvalue = 106.0", fillcolor="#fef9f5"] ;
804 -> 805 ;
806 [label="X[1] <= 240.0\nmse = 93.778\nsamples = 9\nvalue = 100.333", fillcolor="#fef9f6"] ;
805 -> 806 ;
807 [label="X[4] <= 580.0\nmse = 76.776\nsamples = 7\nvalue = 103.286", fillcolor="#fef9f6"] ;
806 -> 807 ;
808 [label="mse = 0.0\nsamples = 1\nvalue = 87.0", fillcolor="#fefaf7"] ;
807 -> 808 ;
809 [label="X[3] <= 6.5\nmse = 38.0\nsamples = 6\nvalue = 106.0", fillcolor="#fef9f5"] ;
807 -> 809 ;
810 [label="X[5] <= 284.0\nmse = 12.25\nsamples = 2\nvalue = 112.5", fillcolor="#fef8f5"] ;
809 -> 810 ;
811 [label="mse = 0.0\nsamples = 1\nvalue = 109.0", fillcolor="#fef9f5"] ;
810 -> 811 ;
812 [label="mse = 0.0\nsamples = 1\nvalue = 116.0", fillcolor="#fef8f4"] ;
810 -> 812 ;
813 [label="X[1] <= 236.5\nmse = 19.188\nsamples = 4\nvalue = 102.75", fillcolor="#fef9f6"] ;
809 -> 813 ;
814 [label="X[4] <= 1068.0\nmse = 6.25\nsamples = 2\nvalue = 106.5", fillcolor="#fef9f5"] ;
813 -> 814 ;
815 [label="mse = 0.0\nsamples = 1\nvalue = 109.0", fillcolor="#fef9f5"] ;
814 -> 815 ;
816 [label="mse = 0.0\nsamples = 1\nvalue = 104.0", fillcolor="#fef9f5"] ;
814 -> 816 ;
817 [label="X[5] <= 269.0\nmse = 4.0\nsamples = 2\nvalue = 99.0", fillcolor="#fef9f6"] ;
813 -> 817 ;
818 [label="mse = 0.0\nsamples = 1\nvalue = 101.0", fillcolor="#fef9f6"] ;
817 -> 818 ;
819 [label="mse = 0.0\nsamples = 1\nvalue = 97.0", fillcolor="#fef9f6"] ;
817 -> 819 ;
820 [label="X[5] <= 315.5\nmse = 16.0\nsamples = 2\nvalue = 90.0", fillcolor="#fefaf7"] ;
806 -> 820 ;
821 [label="mse = 0.0\nsamples = 1\nvalue = 86.0", fillcolor="#fefaf7"] ;
820 -> 821 ;
822 [label="mse = 0.0\nsamples = 1\nvalue = 94.0", fillcolor="#fefaf6"] ;
820 -> 822 ;
823 [label="X[1] <= 259.0\nmse = 112.188\nsamples = 4\nvalue = 118.75", fillcolor="#fef8f4"] ;
805 -> 823 ;
824 [label="mse = 0.0\nsamples = 1\nvalue = 137.0", fillcolor="#fdf7f2"] ;
823 -> 824 ;
825 [label="X[5] <= 269.5\nmse = 1.556\nsamples = 3\nvalue = 112.667", fillcolor="#fef8f5"] ;
823 -> 825 ;
826 [label="mse = 0.0\nsamples = 1\nvalue = 111.0", fillcolor="#fef9f5"] ;
825 -> 826 ;
827 [label="X[2] <= 56.5\nmse = 0.25\nsamples = 2\nvalue = 113.5", fillcolor="#fef8f5"] ;
825 -> 827 ;
828 [label="mse = 0.0\nsamples = 1\nvalue = 113.0", fillcolor="#fef8f5"] ;
827 -> 828 ;
829 [label="mse = 0.0\nsamples = 1\nvalue = 114.0", fillcolor="#fef8f5"] ;
827 -> 829 ;
830 [label="X[4] <= 1370.0\nmse = 571.556\nsamples = 12\nvalue = 137.333", fillcolor="#fdf7f2"] ;
804 -> 830 ;
831 [label="X[3] <= 10.0\nmse = 363.583\nsamples = 6\nvalue = 120.5", fillcolor="#fef8f4"] ;
830 -> 831 ;
832 [label="X[4] <= 1065.0\nmse = 85.25\nsamples = 4\nvalue = 108.5", fillcolor="#fef9f5"] ;
831 -> 832 ;
833 [label="X[2] <= 50.5\nmse = 32.667\nsamples = 3\nvalue = 104.0", fillcolor="#fef9f5"] ;
832 -> 833 ;
834 [label="mse = 0.0\nsamples = 1\nvalue = 96.0", fillcolor="#fef9f6"] ;
833 -> 834 ;
835 [label="X[2] <= 59.0\nmse = 1.0\nsamples = 2\nvalue = 108.0", fillcolor="#fef9f5"] ;
833 -> 835 ;
836 [label="mse = 0.0\nsamples = 1\nvalue = 109.0", fillcolor="#fef9f5"] ;
835 -> 836 ;
837 [label="mse = 0.0\nsamples = 1\nvalue = 107.0", fillcolor="#fef9f5"] ;
835 -> 837 ;
838 [label="mse = 0.0\nsamples = 1\nvalue = 122.0", fillcolor="#fef8f4"] ;
832 -> 838 ;
839 [label="X[5] <= 306.0\nmse = 56.25\nsamples = 2\nvalue = 144.5", fillcolor="#fdf7f2"] ;
831 -> 839 ;
840 [label="mse = 0.0\nsamples = 1\nvalue = 152.0", fillcolor="#fdf6f1"] ;
839 -> 840 ;
841 [label="mse = 0.0\nsamples = 1\nvalue = 137.0", fillcolor="#fdf7f2"] ;
839 -> 841 ;
842 [label="X[1] <= 254.5\nmse = 212.806\nsamples = 6\nvalue = 154.167", fillcolor="#fdf6f1"] ;
830 -> 842 ;
843 [label="X[3] <= 8.5\nmse = 27.2\nsamples = 5\nvalue = 148.0", fillcolor="#fdf6f1"] ;
842 -> 843 ;
844 [label="X[5] <= 283.5\nmse = 4.667\nsamples = 3\nvalue = 144.0", fillcolor="#fdf7f2"] ;
843 -> 844 ;
845 [label="X[1] <= 235.5\nmse = 0.25\nsamples = 2\nvalue = 142.5", fillcolor="#fdf7f2"] ;
844 -> 845 ;
846 [label="mse = 0.0\nsamples = 1\nvalue = 143.0", fillcolor="#fdf7f2"] ;
845 -> 846 ;
847 [label="mse = 0.0\nsamples = 1\nvalue = 142.0", fillcolor="#fdf7f2"] ;
845 -> 847 ;
848 [label="mse = 0.0\nsamples = 1\nvalue = 147.0", fillcolor="#fdf6f2"] ;
844 -> 848 ;
849 [label="X[5] <= 245.5\nmse = 1.0\nsamples = 2\nvalue = 154.0", fillcolor="#fdf6f1"] ;
843 -> 849 ;
850 [label="mse = 0.0\nsamples = 1\nvalue = 155.0", fillcolor="#fdf6f1"] ;
849 -> 850 ;
851 [label="mse = 0.0\nsamples = 1\nvalue = 153.0", fillcolor="#fdf6f1"] ;
849 -> 851 ;
852 [label="mse = 0.0\nsamples = 1\nvalue = 185.0", fillcolor="#fdf4ee"] ;
842 -> 852 ;
853 [label="mse = 0.0\nsamples = 1\nvalue = 19.0", fillcolor="#fffefd"] ;
803 -> 853 ;
854 [label="X[4] <= 887.0\nmse = 1256.859\nsamples = 16\nvalue = 161.625", fillcolor="#fdf6f0"] ;
802 -> 854 ;
855 [label="X[2] <= 73.5\nmse = 1110.76\nsamples = 10\nvalue = 145.2", fillcolor="#fdf7f2"] ;
854 -> 855 ;
856 [label="X[3] <= 6.0\nmse = 531.734\nsamples = 8\nvalue = 134.625", fillcolor="#fdf7f3"] ;
855 -> 856 ;
857 [label="mse = 0.0\nsamples = 1\nvalue = 167.0", fillcolor="#fdf5f0"] ;
856 -> 857 ;
858 [label="X[3] <= 12.0\nmse = 436.571\nsamples = 7\nvalue = 130.0", fillcolor="#fdf7f3"] ;
856 -> 858 ;
859 [label="X[1] <= 273.0\nmse = 182.0\nsamples = 3\nvalue = 114.0", fillcolor="#fef8f5"] ;
858 -> 859 ;
860 [label="X[3] <= 8.5\nmse = 2.25\nsamples = 2\nvalue = 104.5", fillcolor="#fef9f5"] ;
859 -> 860 ;
861 [label="mse = 0.0\nsamples = 1\nvalue = 106.0", fillcolor="#fef9f5"] ;
860 -> 861 ;
862 [label="mse = 0.0\nsamples = 1\nvalue = 103.0", fillcolor="#fef9f6"] ;
860 -> 862 ;
863 [label="mse = 0.0\nsamples = 1\nvalue = 133.0", fillcolor="#fdf7f3"] ;
859 -> 863 ;
864 [label="X[5] <= 326.5\nmse = 291.5\nsamples = 4\nvalue = 142.0", fillcolor="#fdf7f2"] ;
858 -> 864 ;
865 [label="mse = 0.0\nsamples = 1\nvalue = 116.0", fillcolor="#fef8f4"] ;
864 -> 865 ;
866 [label="X[2] <= 60.0\nmse = 88.222\nsamples = 3\nvalue = 150.667", fillcolor="#fdf6f1"] ;
864 -> 866 ;
867 [label="mse = 0.0\nsamples = 1\nvalue = 139.0", fillcolor="#fdf7f2"] ;
866 -> 867 ;
868 [label="X[4] <= 442.0\nmse = 30.25\nsamples = 2\nvalue = 156.5", fillcolor="#fdf6f1"] ;
866 -> 868 ;
869 [label="mse = 0.0\nsamples = 1\nvalue = 151.0", fillcolor="#fdf6f1"] ;
868 -> 869 ;
870 [label="mse = 0.0\nsamples = 1\nvalue = 162.0", fillcolor="#fdf6f0"] ;
868 -> 870 ;
871 [label="X[4] <= 220.0\nmse = 1190.25\nsamples = 2\nvalue = 187.5", fillcolor="#fdf4ee"] ;
855 -> 871 ;
872 [label="mse = 0.0\nsamples = 1\nvalue = 153.0", fillcolor="#fdf6f1"] ;
871 -> 872 ;
873 [label="mse = 0.0\nsamples = 1\nvalue = 222.0", fillcolor="#fcf2eb"] ;
871 -> 873 ;
874 [label="X[4] <= 1402.5\nmse = 301.333\nsamples = 6\nvalue = 189.0", fillcolor="#fdf4ee"] ;
854 -> 874 ;
875 [label="X[4] <= 1234.5\nmse = 94.889\nsamples = 3\nvalue = 173.667", fillcolor="#fdf5ef"] ;
874 -> 875 ;
876 [label="X[1] <= 265.5\nmse = 2.25\nsamples = 2\nvalue = 180.5", fillcolor="#fdf4ee"] ;
875 -> 876 ;
877 [label="mse = 0.0\nsamples = 1\nvalue = 179.0", fillcolor="#fdf5ef"] ;
876 -> 877 ;
878 [label="mse = 0.0\nsamples = 1\nvalue = 182.0", fillcolor="#fdf4ee"] ;
876 -> 878 ;
879 [label="mse = 0.0\nsamples = 1\nvalue = 160.0", fillcolor="#fdf6f0"] ;
875 -> 879 ;
880 [label="X[0] <= 4.5\nmse = 37.556\nsamples = 3\nvalue = 204.333", fillcolor="#fdf3ec"] ;
874 -> 880 ;
881 [label="mse = 0.0\nsamples = 1\nvalue = 212.0", fillcolor="#fcf3ec"] ;
880 -> 881 ;
882 [label="X[3] <= 11.5\nmse = 12.25\nsamples = 2\nvalue = 200.5", fillcolor="#fdf3ed"] ;
880 -> 882 ;
883 [label="mse = 0.0\nsamples = 1\nvalue = 197.0", fillcolor="#fdf4ed"] ;
882 -> 883 ;
884 [label="mse = 0.0\nsamples = 1\nvalue = 204.0", fillcolor="#fdf3ec"] ;
882 -> 884 ;
885 [label="X[4] <= 1339.5\nmse = 110.25\nsamples = 2\nvalue = 27.5", fillcolor="#fffdfc"] ;
801 -> 885 ;
886 [label="mse = 0.0\nsamples = 1\nvalue = 17.0", fillcolor="#fffefd"] ;
885 -> 886 ;
887 [label="mse = 0.0\nsamples = 1\nvalue = 38.0", fillcolor="#fffdfc"] ;
885 -> 887 ;
888 [label="X[1] <= 233.0\nmse = 22278.464\nsamples = 71\nvalue = 293.761", fillcolor="#fbeee4"] ;
304 -> 888 ;
889 [label="X[3] <= 9.5\nmse = 16962.162\nsamples = 39\nvalue = 243.692", fillcolor="#fcf1e9"] ;
888 -> 889 ;
890 [label="X[4] <= 1453.5\nmse = 15185.36\nsamples = 20\nvalue = 301.2", fillcolor="#fbede3"] ;
889 -> 890 ;
891 [label="X[4] <= 152.5\nmse = 11302.38\nsamples = 11\nvalue = 239.727", fillcolor="#fcf1e9"] ;
890 -> 891 ;
892 [label="mse = 0.0\nsamples = 1\nvalue = 70.0", fillcolor="#fefbf9"] ;
891 -> 892 ;
893 [label="X[3] <= 6.5\nmse = 9263.81\nsamples = 10\nvalue = 256.7", fillcolor="#fcf0e8"] ;
891 -> 893 ;
894 [label="X[4] <= 480.5\nmse = 4420.64\nsamples = 5\nvalue = 182.6", fillcolor="#fdf4ee"] ;
893 -> 894 ;
895 [label="mse = 0.0\nsamples = 1\nvalue = 298.0", fillcolor="#fbeee4"] ;
894 -> 895 ;
896 [label="X[1] <= 163.0\nmse = 1364.188\nsamples = 4\nvalue = 153.75", fillcolor="#fdf6f1"] ;
894 -> 896 ;
897 [label="mse = 0.0\nsamples = 1\nvalue = 213.0", fillcolor="#fcf3ec"] ;
896 -> 897 ;
898 [label="X[2] <= 52.5\nmse = 258.667\nsamples = 3\nvalue = 134.0", fillcolor="#fdf7f3"] ;
896 -> 898 ;
899 [label="mse = 0.0\nsamples = 1\nvalue = 112.0", fillcolor="#fef8f5"] ;
898 -> 899 ;
900 [label="X[2] <= 66.0\nmse = 25.0\nsamples = 2\nvalue = 145.0", fillcolor="#fdf7f2"] ;
898 -> 900 ;
901 [label="mse = 0.0\nsamples = 1\nvalue = 140.0", fillcolor="#fdf7f2"] ;
900 -> 901 ;
902 [label="mse = 0.0\nsamples = 1\nvalue = 150.0", fillcolor="#fdf6f1"] ;
900 -> 902 ;
903 [label="X[5] <= 253.5\nmse = 3125.36\nsamples = 5\nvalue = 330.8", fillcolor="#fbece1"] ;
893 -> 903 ;
904 [label="X[5] <= 236.5\nmse = 256.0\nsamples = 2\nvalue = 276.0", fillcolor="#fcefe6"] ;
903 -> 904 ;
905 [label="mse = 0.0\nsamples = 1\nvalue = 292.0", fillcolor="#fbeee4"] ;
904 -> 905 ;
906 [label="mse = 0.0\nsamples = 1\nvalue = 260.0", fillcolor="#fcf0e7"] ;
904 -> 906 ;
907 [label="X[4] <= 561.5\nmse = 1701.556\nsamples = 3\nvalue = 367.333", fillcolor="#fbeadd"] ;
903 -> 907 ;
908 [label="mse = 0.0\nsamples = 1\nvalue = 316.0", fillcolor="#fbede2"] ;
907 -> 908 ;
909 [label="X[9] <= 0.5\nmse = 576.0\nsamples = 2\nvalue = 393.0", fillcolor="#fae8db"] ;
907 -> 909 ;
910 [label="mse = 0.0\nsamples = 1\nvalue = 417.0", fillcolor="#fae7d9"] ;
909 -> 910 ;
911 [label="mse = 0.0\nsamples = 1\nvalue = 369.0", fillcolor="#fbeadd"] ;
909 -> 911 ;
912 [label="X[1] <= 187.0\nmse = 9667.556\nsamples = 9\nvalue = 376.333", fillcolor="#fae9dd"] ;
890 -> 912 ;
913 [label="X[3] <= 5.5\nmse = 11881.0\nsamples = 2\nvalue = 222.0", fillcolor="#fcf2eb"] ;
912 -> 913 ;
914 [label="mse = 0.0\nsamples = 1\nvalue = 113.0", fillcolor="#fef8f5"] ;
913 -> 914 ;
915 [label="mse = 0.0\nsamples = 1\nvalue = 331.0", fillcolor="#fbece1"] ;
913 -> 915 ;
916 [label="X[3] <= 6.5\nmse = 285.388\nsamples = 7\nvalue = 420.429", fillcolor="#fae7d9"] ;
912 -> 916 ;
917 [label="X[4] <= 1785.5\nmse = 218.64\nsamples = 5\nvalue = 427.6", fillcolor="#fae6d8"] ;
916 -> 917 ;
918 [label="X[1] <= 196.5\nmse = 121.556\nsamples = 3\nvalue = 418.333", fillcolor="#fae7d9"] ;
917 -> 918 ;
919 [label="mse = 0.0\nsamples = 1\nvalue = 432.0", fillcolor="#fae6d7"] ;
918 -> 919 ;
920 [label="X[2] <= 54.0\nmse = 42.25\nsamples = 2\nvalue = 411.5", fillcolor="#fae7d9"] ;
918 -> 920 ;
921 [label="mse = 0.0\nsamples = 1\nvalue = 405.0", fillcolor="#fae7da"] ;
920 -> 921 ;
922 [label="mse = 0.0\nsamples = 1\nvalue = 418.0", fillcolor="#fae7d9"] ;
920 -> 922 ;
923 [label="X[3] <= 4.5\nmse = 42.25\nsamples = 2\nvalue = 441.5", fillcolor="#fae5d7"] ;
917 -> 923 ;
924 [label="mse = 0.0\nsamples = 1\nvalue = 448.0", fillcolor="#fae5d6"] ;
923 -> 924 ;
925 [label="mse = 0.0\nsamples = 1\nvalue = 435.0", fillcolor="#fae6d7"] ;
923 -> 925 ;
926 [label="X[3] <= 7.5\nmse = 2.25\nsamples = 2\nvalue = 402.5", fillcolor="#fae8da"] ;
916 -> 926 ;
927 [label="mse = 0.0\nsamples = 1\nvalue = 404.0", fillcolor="#fae7da"] ;
926 -> 927 ;
928 [label="mse = 0.0\nsamples = 1\nvalue = 401.0", fillcolor="#fae8da"] ;
926 -> 928 ;
929 [label="X[9] <= 0.5\nmse = 11686.87\nsamples = 19\nvalue = 183.158", fillcolor="#fdf4ee"] ;
889 -> 929 ;
930 [label="X[1] <= 221.5\nmse = 12963.859\nsamples = 8\nvalue = 260.875", fillcolor="#fcf0e7"] ;
929 -> 930 ;
931 [label="X[3] <= 14.5\nmse = 876.96\nsamples = 5\nvalue = 341.8", fillcolor="#fbebe0"] ;
930 -> 931 ;
932 [label="X[5] <= 176.0\nmse = 123.188\nsamples = 4\nvalue = 355.75", fillcolor="#fbeade"] ;
931 -> 932 ;
933 [label="mse = 0.0\nsamples = 1\nvalue = 338.0", fillcolor="#fbebe0"] ;
932 -> 933 ;
934 [label="X[3] <= 10.5\nmse = 24.222\nsamples = 3\nvalue = 361.667", fillcolor="#fbeade"] ;
932 -> 934 ;
935 [label="mse = 0.0\nsamples = 1\nvalue = 368.0", fillcolor="#fbeadd"] ;
934 -> 935 ;
936 [label="X[5] <= 301.0\nmse = 6.25\nsamples = 2\nvalue = 358.5", fillcolor="#fbeade"] ;
934 -> 936 ;
937 [label="mse = 0.0\nsamples = 1\nvalue = 356.0", fillcolor="#fbeade"] ;
936 -> 937 ;
938 [label="mse = 0.0\nsamples = 1\nvalue = 361.0", fillcolor="#fbeade"] ;
936 -> 938 ;
939 [label="mse = 0.0\nsamples = 1\nvalue = 286.0", fillcolor="#fceee5"] ;
931 -> 939 ;
940 [label="X[3] <= 11.0\nmse = 4002.667\nsamples = 3\nvalue = 126.0", fillcolor="#fdf8f3"] ;
930 -> 940 ;
941 [label="mse = 0.0\nsamples = 1\nvalue = 208.0", fillcolor="#fdf3ec"] ;
940 -> 941 ;
942 [label="X[1] <= 230.5\nmse = 961.0\nsamples = 2\nvalue = 85.0", fillcolor="#fefaf7"] ;
940 -> 942 ;
943 [label="mse = 0.0\nsamples = 1\nvalue = 116.0", fillcolor="#fef8f4"] ;
942 -> 943 ;
944 [label="mse = 0.0\nsamples = 1\nvalue = 54.0", fillcolor="#fefcfa"] ;
942 -> 944 ;
945 [label="X[2] <= 37.5\nmse = 3170.777\nsamples = 11\nvalue = 126.636", fillcolor="#fdf8f3"] ;
929 -> 945 ;
946 [label="X[3] <= 25.5\nmse = 169.0\nsamples = 2\nvalue = 221.0", fillcolor="#fcf2eb"] ;
945 -> 946 ;
947 [label="mse = 0.0\nsamples = 1\nvalue = 208.0", fillcolor="#fdf3ec"] ;
946 -> 947 ;
948 [label="mse = 0.0\nsamples = 1\nvalue = 234.0", fillcolor="#fcf1ea"] ;
946 -> 948 ;
949 [label="X[4] <= 518.0\nmse = 1419.333\nsamples = 9\nvalue = 105.667", fillcolor="#fef9f5"] ;
945 -> 949 ;
950 [label="X[3] <= 13.0\nmse = 30.25\nsamples = 2\nvalue = 67.5", fillcolor="#fefbf9"] ;
949 -> 950 ;
951 [label="mse = 0.0\nsamples = 1\nvalue = 73.0", fillcolor="#fefbf8"] ;
950 -> 951 ;
952 [label="mse = 0.0\nsamples = 1\nvalue = 62.0", fillcolor="#fefbf9"] ;
950 -> 952 ;
953 [label="X[2] <= 58.0\nmse = 1281.102\nsamples = 7\nvalue = 116.571", fillcolor="#fef8f4"] ;
949 -> 953 ;
954 [label="X[5] <= 248.5\nmse = 392.96\nsamples = 5\nvalue = 104.2", fillcolor="#fef9f5"] ;
953 -> 954 ;
955 [label="X[5] <= 175.5\nmse = 167.188\nsamples = 4\nvalue = 112.25", fillcolor="#fef8f5"] ;
954 -> 955 ;
956 [label="mse = 0.0\nsamples = 1\nvalue = 134.0", fillcolor="#fdf7f3"] ;
955 -> 956 ;
957 [label="X[2] <= 46.0\nmse = 12.667\nsamples = 3\nvalue = 105.0", fillcolor="#fef9f5"] ;
955 -> 957 ;
958 [label="mse = 0.0\nsamples = 1\nvalue = 100.0", fillcolor="#fef9f6"] ;
957 -> 958 ;
959 [label="X[1] <= 175.5\nmse = 0.25\nsamples = 2\nvalue = 107.5", fillcolor="#fef9f5"] ;
957 -> 959 ;
960 [label="mse = 0.0\nsamples = 1\nvalue = 108.0", fillcolor="#fef9f5"] ;
959 -> 960 ;
961 [label="mse = 0.0\nsamples = 1\nvalue = 107.0", fillcolor="#fef9f5"] ;
959 -> 961 ;
962 [label="mse = 0.0\nsamples = 1\nvalue = 72.0", fillcolor="#fefbf8"] ;
954 -> 962 ;
963 [label="X[5] <= 295.0\nmse = 2162.25\nsamples = 2\nvalue = 147.5", fillcolor="#fdf6f2"] ;
953 -> 963 ;
964 [label="mse = 0.0\nsamples = 1\nvalue = 194.0", fillcolor="#fdf4ed"] ;
963 -> 964 ;
965 [label="mse = 0.0\nsamples = 1\nvalue = 101.0", fillcolor="#fef9f6"] ;
963 -> 965 ;
966 [label="X[7] <= 4.5\nmse = 21978.983\nsamples = 32\nvalue = 354.781", fillcolor="#fbeadf"] ;
888 -> 966 ;
967 [label="X[5] <= 347.5\nmse = 18752.564\nsamples = 31\nvalue = 365.871", fillcolor="#fbeade"] ;
966 -> 967 ;
968 [label="X[1] <= 278.0\nmse = 16672.554\nsamples = 25\nvalue = 391.92", fillcolor="#fae8db"] ;
967 -> 968 ;
969 [label="X[4] <= 1268.5\nmse = 15580.068\nsamples = 24\nvalue = 400.375", fillcolor="#fae8da"] ;
968 -> 969 ;
970 [label="X[4] <= 927.0\nmse = 15394.633\nsamples = 14\nvalue = 358.286", fillcolor="#fbeade"] ;
969 -> 970 ;
971 [label="X[4] <= 880.0\nmse = 7531.58\nsamples = 9\nvalue = 402.444", fillcolor="#fae8da"] ;
970 -> 971 ;
972 [label="X[4] <= 815.0\nmse = 7132.286\nsamples = 7\nvalue = 379.0", fillcolor="#fae9dc"] ;
971 -> 972 ;
973 [label="X[4] <= 431.0\nmse = 3280.806\nsamples = 6\nvalue = 405.833", fillcolor="#fae7da"] ;
972 -> 973 ;
974 [label="mse = 0.0\nsamples = 1\nvalue = 283.0", fillcolor="#fcefe5"] ;
973 -> 974 ;
975 [label="X[2] <= 61.5\nmse = 315.84\nsamples = 5\nvalue = 430.4", fillcolor="#fae6d8"] ;
973 -> 975 ;
976 [label="X[3] <= 11.0\nmse = 44.222\nsamples = 3\nvalue = 416.667", fillcolor="#fae7d9"] ;
975 -> 976 ;
977 [label="X[9] <= 0.5\nmse = 1.0\nsamples = 2\nvalue = 412.0", fillcolor="#fae7d9"] ;
976 -> 977 ;
978 [label="mse = 0.0\nsamples = 1\nvalue = 411.0", fillcolor="#fae7d9"] ;
977 -> 978 ;
979 [label="mse = 0.0\nsamples = 1\nvalue = 413.0", fillcolor="#fae7d9"] ;
977 -> 979 ;
980 [label="mse = 0.0\nsamples = 1\nvalue = 426.0", fillcolor="#fae6d8"] ;
976 -> 980 ;
981 [label="X[5] <= 340.0\nmse = 16.0\nsamples = 2\nvalue = 451.0", fillcolor="#fae5d6"] ;
975 -> 981 ;
982 [label="mse = 0.0\nsamples = 1\nvalue = 447.0", fillcolor="#fae5d6"] ;
981 -> 982 ;
983 [label="mse = 0.0\nsamples = 1\nvalue = 455.0", fillcolor="#fae5d5"] ;
981 -> 983 ;
984 [label="mse = 0.0\nsamples = 1\nvalue = 218.0", fillcolor="#fcf2eb"] ;
972 -> 984 ;
985 [label="X[1] <= 246.5\nmse = 272.25\nsamples = 2\nvalue = 484.5", fillcolor="#f9e3d3"] ;
971 -> 985 ;
986 [label="mse = 0.0\nsamples = 1\nvalue = 468.0", fillcolor="#f9e4d4"] ;
985 -> 986 ;
987 [label="mse = 0.0\nsamples = 1\nvalue = 501.0", fillcolor="#f9e2d1"] ;
985 -> 987 ;
988 [label="X[4] <= 1018.5\nmse = 19720.16\nsamples = 5\nvalue = 278.8", fillcolor="#fcefe6"] ;
970 -> 988 ;
989 [label="X[3] <= 7.5\nmse = 225.0\nsamples = 2\nvalue = 156.0", fillcolor="#fdf6f1"] ;
988 -> 989 ;
990 [label="mse = 0.0\nsamples = 1\nvalue = 171.0", fillcolor="#fdf5ef"] ;
989 -> 990 ;
991 [label="mse = 0.0\nsamples = 1\nvalue = 141.0", fillcolor="#fdf7f2"] ;
989 -> 991 ;
992 [label="X[2] <= 59.5\nmse = 15961.556\nsamples = 3\nvalue = 360.667", fillcolor="#fbeade"] ;
988 -> 992 ;
993 [label="mse = 0.0\nsamples = 1\nvalue = 182.0", fillcolor="#fdf4ee"] ;
992 -> 993 ;
994 [label="X[5] <= 342.0\nmse = 1.0\nsamples = 2\nvalue = 450.0", fillcolor="#fae5d6"] ;
992 -> 994 ;
995 [label="mse = 0.0\nsamples = 1\nvalue = 451.0", fillcolor="#fae5d6"] ;
994 -> 995 ;
996 [label="mse = 0.0\nsamples = 1\nvalue = 449.0", fillcolor="#fae5d6"] ;
994 -> 996 ;
997 [label="X[3] <= 20.5\nmse = 9887.41\nsamples = 10\nvalue = 459.3", fillcolor="#f9e4d5"] ;
969 -> 997 ;
998 [label="X[3] <= 17.5\nmse = 2427.136\nsamples = 9\nvalue = 488.556", fillcolor="#f9e3d2"] ;
997 -> 998 ;
999 [label="X[3] <= 9.5\nmse = 885.109\nsamples = 8\nvalue = 502.875", fillcolor="#f9e2d1"] ;
998 -> 999 ;
1000 [label="X[5] <= 332.5\nmse = 418.56\nsamples = 5\nvalue = 484.8", fillcolor="#f9e3d3"] ;
999 -> 1000 ;
1001 [label="X[6] <= 1.5\nmse = 281.688\nsamples = 4\nvalue = 491.75", fillcolor="#f9e2d2"] ;
1000 -> 1001 ;
1002 [label="X[3] <= 6.5\nmse = 80.889\nsamples = 3\nvalue = 500.333", fillcolor="#f9e2d1"] ;
1001 -> 1002 ;
1003 [label="mse = 0.0\nsamples = 1\nvalue = 489.0", fillcolor="#f9e3d2"] ;
1002 -> 1003 ;
1004 [label="X[3] <= 8.5\nmse = 25.0\nsamples = 2\nvalue = 506.0", fillcolor="#f9e2d1"] ;
1002 -> 1004 ;
1005 [label="mse = 0.0\nsamples = 1\nvalue = 511.0", fillcolor="#f9e1d0"] ;
1004 -> 1005 ;
1006 [label="mse = 0.0\nsamples = 1\nvalue = 501.0", fillcolor="#f9e2d1"] ;
1004 -> 1006 ;
1007 [label="mse = 0.0\nsamples = 1\nvalue = 466.0", fillcolor="#f9e4d4"] ;
1001 -> 1007 ;
1008 [label="mse = 0.0\nsamples = 1\nvalue = 457.0", fillcolor="#fae4d5"] ;
1000 -> 1008 ;
1009 [label="X[4] <= 1739.5\nmse = 210.667\nsamples = 3\nvalue = 533.0", fillcolor="#f9e0ce"] ;
999 -> 1009 ;
1010 [label="X[4] <= 1544.5\nmse = 16.0\nsamples = 2\nvalue = 523.0", fillcolor="#f9e1cf"] ;
1009 -> 1010 ;
1011 [label="mse = 0.0\nsamples = 1\nvalue = 527.0", fillcolor="#f9e0cf"] ;
1010 -> 1011 ;
1012 [label="mse = 0.0\nsamples = 1\nvalue = 519.0", fillcolor="#f9e1d0"] ;
1010 -> 1012 ;
1013 [label="mse = 0.0\nsamples = 1\nvalue = 553.0", fillcolor="#f8dfcc"] ;
1009 -> 1013 ;
1014 [label="mse = 0.0\nsamples = 1\nvalue = 374.0", fillcolor="#fbe9dd"] ;
998 -> 1014 ;
1015 [label="mse = 0.0\nsamples = 1\nvalue = 196.0", fillcolor="#fdf4ed"] ;
997 -> 1015 ;
1016 [label="mse = 0.0\nsamples = 1\nvalue = 189.0", fillcolor="#fdf4ee"] ;
968 -> 1016 ;
1017 [label="X[1] <= 280.0\nmse = 12811.556\nsamples = 6\nvalue = 257.333", fillcolor="#fcf0e7"] ;
967 -> 1017 ;
1018 [label="X[5] <= 354.5\nmse = 3043.2\nsamples = 5\nvalue = 212.0", fillcolor="#fcf3ec"] ;
1017 -> 1018 ;
1019 [label="mse = 0.0\nsamples = 1\nvalue = 131.0", fillcolor="#fdf7f3"] ;
1018 -> 1019 ;
1020 [label="X[2] <= 75.5\nmse = 1753.688\nsamples = 4\nvalue = 232.25", fillcolor="#fcf1ea"] ;
1018 -> 1020 ;
1021 [label="X[3] <= 9.0\nmse = 387.556\nsamples = 3\nvalue = 254.333", fillcolor="#fcf0e8"] ;
1020 -> 1021 ;
1022 [label="X[9] <= 0.5\nmse = 100.0\nsamples = 2\nvalue = 267.0", fillcolor="#fcefe7"] ;
1021 -> 1022 ;
1023 [label="mse = 0.0\nsamples = 1\nvalue = 277.0", fillcolor="#fcefe6"] ;
1022 -> 1023 ;
1024 [label="mse = 0.0\nsamples = 1\nvalue = 257.0", fillcolor="#fcf0e7"] ;
1022 -> 1024 ;
1025 [label="mse = 0.0\nsamples = 1\nvalue = 229.0", fillcolor="#fcf2ea"] ;
1021 -> 1025 ;
1026 [label="mse = 0.0\nsamples = 1\nvalue = 166.0", fillcolor="#fdf5f0"] ;
1020 -> 1026 ;
1027 [label="mse = 0.0\nsamples = 1\nvalue = 484.0", fillcolor="#f9e3d3"] ;
1017 -> 1027 ;
1028 [label="mse = 0.0\nsamples = 1\nvalue = 11.0", fillcolor="#fffefe"] ;
966 -> 1028 ;
