digraph Tree {
node [shape=box, style="filled", color="black"] ;
0 [label="Glucose <= 127.5\ngini = 0.448\nsamples = 614\nvalue = [406, 208]\nclass = 0", fillcolor="#f2c29e"] ;
1 [label="Age <= 28.5\ngini = 0.308\nsamples = 395\nvalue = [320, 75]\nclass = 0", fillcolor="#eb9f67"] ;
0 -> 1 [labeldistance=2.5, labelangle=45, headlabel="True"] ;
2 [label="BMI <= 45.4\ngini = 0.165\nsamples = 220\nvalue = [200, 20]\nclass = 0", fillcolor="#e88e4d"] ;
1 -> 2 ;
3 [label="BMI <= 30.95\ngini = 0.144\nsamples = 217\nvalue = [200, 17]\nclass = 0", fillcolor="#e78c4a"] ;
2 -> 3 ;
4 [label="Pregnancies <= 7.5\ngini = 0.033\nsamples = 120\nvalue = [118, 2]\nclass = 0", fillcolor="#e5833c"] ;
3 -> 4 ;
5 [label="DiabetesPedigreeFunction <= 0.672\ngini = 0.017\nsamples = 119\nvalue = [118, 1]\nclass = 0", fillcolor="#e5823b"] ;
4 -> 5 ;
6 [label="gini = 0.0\nsamples = 103\nvalue = [103, 0]\nclass = 0", fillcolor="#e58139"] ;
5 -> 6 ;
7 [label="DiabetesPedigreeFunction <= 0.686\ngini = 0.117\nsamples = 16\nvalue = [15, 1]\nclass = 0", fillcolor="#e78946"] ;
5 -> 7 ;
8 [label="gini = 0.0\nsamples = 1\nvalue = [0, 1]\nclass = 1", fillcolor="#399de5"] ;
7 -> 8 ;
9 [label="gini = 0.0\nsamples = 15\nvalue = [15, 0]\nclass = 0", fillcolor="#e58139"] ;
7 -> 9 ;
10 [label="gini = 0.0\nsamples = 1\nvalue = [0, 1]\nclass = 1", fillcolor="#399de5"] ;
4 -> 10 ;
11 [label="DiabetesPedigreeFunction <= 0.904\ngini = 0.261\nsamples = 97\nvalue = [82, 15]\nclass = 0", fillcolor="#ea985d"] ;
3 -> 11 ;
12 [label="BMI <= 33.65\ngini = 0.223\nsamples = 94\nvalue = [82, 12]\nclass = 0", fillcolor="#e99356"] ;
11 -> 12 ;
13 [label="BloodPressure <= 51.0\ngini = 0.413\nsamples = 24\nvalue = [17, 7]\nclass = 0", fillcolor="#f0b58b"] ;
12 -> 13 ;
14 [label="gini = 0.0\nsamples = 2\nvalue = [0, 2]\nclass = 1", fillcolor="#399de5"] ;
13 -> 14 ;
15 [label="BMI <= 33.25\ngini = 0.351\nsamples = 22\nvalue = [17, 5]\nclass = 0", fillcolor="#eda673"] ;
13 -> 15 ;
16 [label="Glucose <= 111.0\ngini = 0.198\nsamples = 18\nvalue = [16, 2]\nclass = 0", fillcolor="#e89152"] ;
15 -> 16 ;
17 [label="gini = 0.0\nsamples = 12\nvalue = [12, 0]\nclass = 0", fillcolor="#e58139"] ;
16 -> 17 ;
18 [label="Age <= 24.5\ngini = 0.444\nsamples = 6\nvalue = [4, 2]\nclass = 0", fillcolor="#f2c09c"] ;
16 -> 18 ;
19 [label="gini = 0.0\nsamples = 3\nvalue = [3, 0]\nclass = 0", fillcolor="#e58139"] ;
18 -> 19 ;
20 [label="gini = 0.444\nsamples = 3\nvalue = [1, 2]\nclass = 1", fillcolor="#9ccef2"] ;
18 -> 20 ;
21 [label="BloodPressure <= 61.0\ngini = 0.375\nsamples = 4\nvalue = [1, 3]\nclass = 1", fillcolor="#7bbeee"] ;
15 -> 21 ;
22 [label="gini = 0.0\nsamples = 1\nvalue = [1, 0]\nclass = 0", fillcolor="#e58139"] ;
21 -> 22 ;
23 [label="gini = 0.0\nsamples = 3\nvalue = [0, 3]\nclass = 1", fillcolor="#399de5"] ;
21 -> 23 ;
24 [label="DiabetesPedigreeFunction <= 0.5\ngini = 0.133\nsamples = 70\nvalue = [65, 5]\nclass = 0", fillcolor="#e78b48"] ;
12 -> 24 ;
25 [label="gini = 0.0\nsamples = 43\nvalue = [43, 0]\nclass = 0", fillcolor="#e58139"] ;
24 -> 25 ;
26 [label="DiabetesPedigreeFunction <= 0.505\ngini = 0.302\nsamples = 27\nvalue = [22, 5]\nclass = 0", fillcolor="#eb9e66"] ;
24 -> 26 ;
27 [label="gini = 0.0\nsamples = 1\nvalue = [0, 1]\nclass = 1", fillcolor="#399de5"] ;
26 -> 27 ;
28 [label="Glucose <= 118.5\ngini = 0.26\nsamples = 26\nvalue = [22, 4]\nclass = 0", fillcolor="#ea985d"] ;
26 -> 28 ;
29 [label="DiabetesPedigreeFunction <= 0.69\ngini = 0.36\nsamples = 17\nvalue = [13, 4]\nclass = 0", fillcolor="#eda876"] ;
28 -> 29 ;
30 [label="gini = 0.245\nsamples = 14\nvalue = [12, 2]\nclass = 0", fillcolor="#e9965a"] ;
29 -> 30 ;
31 [label="gini = 0.444\nsamples = 3\nvalue = [1, 2]\nclass = 1", fillcolor="#9ccef2"] ;
29 -> 31 ;
32 [label="gini = 0.0\nsamples = 9\nvalue = [9, 0]\nclass = 0", fillcolor="#e58139"] ;
28 -> 32 ;
33 [label="gini = 0.0\nsamples = 3\nvalue = [0, 3]\nclass = 1", fillcolor="#399de5"] ;
11 -> 33 ;
34 [label="gini = 0.0\nsamples = 3\nvalue = [0, 3]\nclass = 1", fillcolor="#399de5"] ;
2 -> 34 ;
35 [label="BMI <= 26.35\ngini = 0.431\nsamples = 175\nvalue = [120, 55]\nclass = 0", fillcolor="#f1bb94"] ;
1 -> 35 ;
36 [label="BMI <= 9.65\ngini = 0.114\nsamples = 33\nvalue = [31, 2]\nclass = 0", fillcolor="#e78946"] ;
35 -> 36 ;
37 [label="gini = 0.0\nsamples = 2\nvalue = [0, 2]\nclass = 1", fillcolor="#399de5"] ;
36 -> 37 ;
38 [label="gini = 0.0\nsamples = 31\nvalue = [31, 0]\nclass = 0", fillcolor="#e58139"] ;
36 -> 38 ;
39 [label="Glucose <= 99.5\ngini = 0.468\nsamples = 142\nvalue = [89, 53]\nclass = 0", fillcolor="#f4ccaf"] ;
35 -> 39 ;
40 [label="Glucose <= 31.0\ngini = 0.292\nsamples = 45\nvalue = [37, 8]\nclass = 0", fillcolor="#eb9c64"] ;
39 -> 40 ;
41 [label="gini = 0.0\nsamples = 2\nvalue = [0, 2]\nclass = 1", fillcolor="#399de5"] ;
40 -> 41 ;
42 [label="Insulin <= 88.0\ngini = 0.24\nsamples = 43\nvalue = [37, 6]\nclass = 0", fillcolor="#e99559"] ;
40 -> 42 ;
43 [label="Age <= 44.5\ngini = 0.145\nsamples = 38\nvalue = [35, 3]\nclass = 0", fillcolor="#e78c4a"] ;
42 -> 43 ;
44 [label="DiabetesPedigreeFunction <= 0.171\ngini = 0.064\nsamples = 30\nvalue = [29, 1]\nclass = 0", fillcolor="#e68540"] ;
43 -> 44 ;
45 [label="SkinThickness <= 19.0\ngini = 0.444\nsamples = 3\nvalue = [2, 1]\nclass = 0", fillcolor="#f2c09c"] ;
44 -> 45 ;
46 [label="gini = 0.0\nsamples = 1\nvalue = [0, 1]\nclass = 1", fillcolor="#399de5"] ;
45 -> 46 ;
47 [label="gini = 0.0\nsamples = 2\nvalue = [2, 0]\nclass = 0", fillcolor="#e58139"] ;
45 -> 47 ;
48 [label="gini = 0.0\nsamples = 27\nvalue = [27, 0]\nclass = 0", fillcolor="#e58139"] ;
44 -> 48 ;
49 [label="SkinThickness <= 25.0\ngini = 0.375\nsamples = 8\nvalue = [6, 2]\nclass = 0", fillcolor="#eeab7b"] ;
43 -> 49 ;
50 [label="gini = 0.0\nsamples = 5\nvalue = [5, 0]\nclass = 0", fillcolor="#e58139"] ;
49 -> 50 ;
51 [label="Insulin <= 27.0\ngini = 0.444\nsamples = 3\nvalue = [1, 2]\nclass = 1", fillcolor="#9ccef2"] ;
49 -> 51 ;
52 [label="gini = 0.0\nsamples = 2\nvalue = [0, 2]\nclass = 1", fillcolor="#399de5"] ;
51 -> 52 ;
53 [label="gini = 0.0\nsamples = 1\nvalue = [1, 0]\nclass = 0", fillcolor="#e58139"] ;
51 -> 53 ;
54 [label="DiabetesPedigreeFunction <= 0.65\ngini = 0.48\nsamples = 5\nvalue = [2, 3]\nclass = 1", fillcolor="#bddef6"] ;
42 -> 54 ;
55 [label="BMI <= 34.5\ngini = 0.444\nsamples = 3\nvalue = [2, 1]\nclass = 0", fillcolor="#f2c09c"] ;
54 -> 55 ;
56 [label="gini = 0.0\nsamples = 2\nvalue = [2, 0]\nclass = 0", fillcolor="#e58139"] ;
55 -> 56 ;
57 [label="gini = 0.0\nsamples = 1\nvalue = [0, 1]\nclass = 1", fillcolor="#399de5"] ;
55 -> 57 ;
58 [label="gini = 0.0\nsamples = 2\nvalue = [0, 2]\nclass = 1", fillcolor="#399de5"] ;
54 -> 58 ;
59 [label="DiabetesPedigreeFunction <= 0.521\ngini = 0.497\nsamples = 97\nvalue = [52, 45]\nclass = 0", fillcolor="#fceee4"] ;
39 -> 59 ;
60 [label="BloodPressure <= 67.0\ngini = 0.463\nsamples = 66\nvalue = [42, 24]\nclass = 0", fillcolor="#f4c9aa"] ;
59 -> 60 ;
61 [label="BMI <= 30.65\ngini = 0.469\nsamples = 16\nvalue = [6, 10]\nclass = 1", fillcolor="#b0d8f5"] ;
60 -> 61 ;
62 [label="gini = 0.0\nsamples = 5\nvalue = [0, 5]\nclass = 1", fillcolor="#399de5"] ;
61 -> 62 ;
63 [label="BloodPressure <= 56.0\ngini = 0.496\nsamples = 11\nvalue = [6, 5]\nclass = 0", fillcolor="#fbeade"] ;
61 -> 63 ;
64 [label="gini = 0.0\nsamples = 3\nvalue = [3, 0]\nclass = 0", fillcolor="#e58139"] ;
63 -> 64 ;
65 [label="Pregnancies <= 4.5\ngini = 0.469\nsamples = 8\nvalue = [3, 5]\nclass = 1", fillcolor="#b0d8f5"] ;
63 -> 65 ;
66 [label="BMI <= 34.05\ngini = 0.375\nsamples = 4\nvalue = [3, 1]\nclass = 0", fillcolor="#eeab7b"] ;
65 -> 66 ;
67 [label="gini = 0.0\nsamples = 3\nvalue = [3, 0]\nclass = 0", fillcolor="#e58139"] ;
66 -> 67 ;
68 [label="gini = 0.0\nsamples = 1\nvalue = [0, 1]\nclass = 1", fillcolor="#399de5"] ;
66 -> 68 ;
69 [label="gini = 0.0\nsamples = 4\nvalue = [0, 4]\nclass = 1", fillcolor="#399de5"] ;
65 -> 69 ;
70 [label="BMI <= 27.55\ngini = 0.403\nsamples = 50\nvalue = [36, 14]\nclass = 0", fillcolor="#efb286"] ;
60 -> 70 ;
71 [label="Age <= 57.0\ngini = 0.375\nsamples = 4\nvalue = [1, 3]\nclass = 1", fillcolor="#7bbeee"] ;
70 -> 71 ;
72 [label="gini = 0.0\nsamples = 3\nvalue = [0, 3]\nclass = 1", fillcolor="#399de5"] ;
71 -> 72 ;
73 [label="gini = 0.0\nsamples = 1\nvalue = [1, 0]\nclass = 0", fillcolor="#e58139"] ;
71 -> 73 ;
74 [label="BMI <= 47.95\ngini = 0.364\nsamples = 46\nvalue = [35, 11]\nclass = 0", fillcolor="#eda977"] ;
70 -> 74 ;
75 [label="SkinThickness <= 26.5\ngini = 0.346\nsamples = 45\nvalue = [35, 10]\nclass = 0", fillcolor="#eca572"] ;
74 -> 75 ;
76 [label="BloodPressure <= 89.0\ngini = 0.444\nsamples = 24\nvalue = [16, 8]\nclass = 0", fillcolor="#f2c09c"] ;
75 -> 76 ;
77 [label="gini = 0.498\nsamples = 17\nvalue = [9, 8]\nclass = 0", fillcolor="#fcf1e9"] ;
76 -> 77 ;
78 [label="gini = 0.0\nsamples = 7\nvalue = [7, 0]\nclass = 0", fillcolor="#e58139"] ;
76 -> 78 ;
79 [label="BloodPressure <= 94.0\ngini = 0.172\nsamples = 21\nvalue = [19, 2]\nclass = 0", fillcolor="#e88e4e"] ;
75 -> 79 ;
80 [label="gini = 0.095\nsamples = 20\nvalue = [19, 1]\nclass = 0", fillcolor="#e68843"] ;
79 -> 80 ;
81 [label="gini = 0.0\nsamples = 1\nvalue = [0, 1]\nclass = 1", fillcolor="#399de5"] ;
79 -> 81 ;
82 [label="gini = 0.0\nsamples = 1\nvalue = [0, 1]\nclass = 1", fillcolor="#399de5"] ;
74 -> 82 ;
83 [label="Pregnancies <= 7.0\ngini = 0.437\nsamples = 31\nvalue = [10, 21]\nclass = 1", fillcolor="#97ccf1"] ;
59 -> 83 ;
84 [label="DiabetesPedigreeFunction <= 0.725\ngini = 0.496\nsamples = 22\nvalue = [10, 12]\nclass = 1", fillcolor="#deeffb"] ;
83 -> 84 ;
85 [label="BloodPressure <= 69.0\ngini = 0.346\nsamples = 9\nvalue = [2, 7]\nclass = 1", fillcolor="#72b9ec"] ;
84 -> 85 ;
86 [label="Insulin <= 78.0\ngini = 0.444\nsamples = 3\nvalue = [2, 1]\nclass = 0", fillcolor="#f2c09c"] ;
85 -> 86 ;
87 [label="gini = 0.0\nsamples = 2\nvalue = [2, 0]\nclass = 0", fillcolor="#e58139"] ;
86 -> 87 ;
88 [label="gini = 0.0\nsamples = 1\nvalue = [0, 1]\nclass = 1", fillcolor="#399de5"] ;
86 -> 88 ;
89 [label="gini = 0.0\nsamples = 6\nvalue = [0, 6]\nclass = 1", fillcolor="#399de5"] ;
85 -> 89 ;
90 [label="Age <= 30.5\ngini = 0.473\nsamples = 13\nvalue = [8, 5]\nclass = 0", fillcolor="#f5d0b5"] ;
84 -> 90 ;
91 [label="gini = 0.0\nsamples = 2\nvalue = [0, 2]\nclass = 1", fillcolor="#399de5"] ;
90 -> 91 ;
92 [label="BMI <= 33.05\ngini = 0.397\nsamples = 11\nvalue = [8, 3]\nclass = 0", fillcolor="#efb083"] ;
90 -> 92 ;
93 [label="Age <= 36.0\ngini = 0.48\nsamples = 5\nvalue = [2, 3]\nclass = 1", fillcolor="#bddef6"] ;
92 -> 93 ;
94 [label="gini = 0.444\nsamples = 3\nvalue = [2, 1]\nclass = 0", fillcolor="#f2c09c"] ;
93 -> 94 ;
95 [label="gini = 0.0\nsamples = 2\nvalue = [0, 2]\nclass = 1", fillcolor="#399de5"] ;
93 -> 95 ;
96 [label="gini = 0.0\nsamples = 6\nvalue = [6, 0]\nclass = 0", fillcolor="#e58139"] ;
92 -> 96 ;
97 [label="gini = 0.0\nsamples = 9\nvalue = [0, 9]\nclass = 1", fillcolor="#399de5"] ;
83 -> 97 ;
98 [label="BMI <= 29.95\ngini = 0.477\nsamples = 219\nvalue = [86, 133]\nclass = 1", fillcolor="#b9dcf6"] ;
0 -> 98 [labeldistance=2.5, labelangle=-45, headlabel="False"] ;
99 [label="Glucose <= 145.5\ngini = 0.428\nsamples = 58\nvalue = [40, 18]\nclass = 0", fillcolor="#f1ba92"] ;
98 -> 99 ;
100 [label="SkinThickness <= 34.5\ngini = 0.231\nsamples = 30\nvalue = [26, 4]\nclass = 0", fillcolor="#e99457"] ;
99 -> 100 ;
101 [label="BloodPressure <= 56.0\ngini = 0.185\nsamples = 29\nvalue = [26, 3]\nclass = 0", fillcolor="#e89050"] ;
100 -> 101 ;
102 [label="Pregnancies <= 2.0\ngini = 0.5\nsamples = 2\nvalue = [1, 1]\nclass = 0", fillcolor="#ffffff"] ;
101 -> 102 ;
103 [label="gini = 0.0\nsamples = 1\nvalue = [1, 0]\nclass = 0", fillcolor="#e58139"] ;
102 -> 103 ;
104 [label="gini = 0.0\nsamples = 1\nvalue = [0, 1]\nclass = 1", fillcolor="#399de5"] ;
102 -> 104 ;
105 [label="Age <= 32.5\ngini = 0.137\nsamples = 27\nvalue = [25, 2]\nclass = 0", fillcolor="#e78b49"] ;
101 -> 105 ;
106 [label="gini = 0.0\nsamples = 14\nvalue = [14, 0]\nclass = 0", fillcolor="#e58139"] ;
105 -> 106 ;
107 [label="Age <= 35.0\ngini = 0.26\nsamples = 13\nvalue = [11, 2]\nclass = 0", fillcolor="#ea985d"] ;
105 -> 107 ;
108 [label="gini = 0.0\nsamples = 1\nvalue = [0, 1]\nclass = 1", fillcolor="#399de5"] ;
107 -> 108 ;
109 [label="BMI <= 24.0\ngini = 0.153\nsamples = 12\nvalue = [11, 1]\nclass = 0", fillcolor="#e78c4b"] ;
107 -> 109 ;
110 [label="BMI <= 23.0\ngini = 0.444\nsamples = 3\nvalue = [2, 1]\nclass = 0", fillcolor="#f2c09c"] ;
109 -> 110 ;
111 [label="gini = 0.0\nsamples = 2\nvalue = [2, 0]\nclass = 0", fillcolor="#e58139"] ;
110 -> 111 ;
112 [label="gini = 0.0\nsamples = 1\nvalue = [0, 1]\nclass = 1", fillcolor="#399de5"] ;
110 -> 112 ;
113 [label="gini = 0.0\nsamples = 9\nvalue = [9, 0]\nclass = 0", fillcolor="#e58139"] ;
109 -> 113 ;
114 [label="gini = 0.0\nsamples = 1\nvalue = [0, 1]\nclass = 1", fillcolor="#399de5"] ;
100 -> 114 ;
115 [label="Age <= 25.5\ngini = 0.5\nsamples = 28\nvalue = [14, 14]\nclass = 0", fillcolor="#ffffff"] ;
99 -> 115 ;
116 [label="gini = 0.0\nsamples = 4\nvalue = [4, 0]\nclass = 0", fillcolor="#e58139"] ;
115 -> 116 ;
117 [label="BloodPressure <= 74.5\ngini = 0.486\nsamples = 24\nvalue = [10, 14]\nclass = 1", fillcolor="#c6e3f8"] ;
115 -> 117 ;
118 [label="Age <= 60.0\ngini = 0.337\nsamples = 14\nvalue = [3, 11]\nclass = 1", fillcolor="#6fb8ec"] ;
117 -> 118 ;
119 [label="Pregnancies <= 6.5\ngini = 0.153\nsamples = 12\nvalue = [1, 11]\nclass = 1", fillcolor="#4ba6e7"] ;
118 -> 119 ;
120 [label="gini = 0.0\nsamples = 8\nvalue = [0, 8]\nclass = 1", fillcolor="#399de5"] ;
119 -> 120 ;
121 [label="BMI <= 26.65\ngini = 0.375\nsamples = 4\nvalue = [1, 3]\nclass = 1", fillcolor="#7bbeee"] ;
119 -> 121 ;
122 [label="gini = 0.0\nsamples = 3\nvalue = [0, 3]\nclass = 1", fillcolor="#399de5"] ;
121 -> 122 ;
123 [label="gini = 0.0\nsamples = 1\nvalue = [1, 0]\nclass = 0", fillcolor="#e58139"] ;
121 -> 123 ;
124 [label="gini = 0.0\nsamples = 2\nvalue = [2, 0]\nclass = 0", fillcolor="#e58139"] ;
118 -> 124 ;
125 [label="DiabetesPedigreeFunction <= 0.18\ngini = 0.42\nsamples = 10\nvalue = [7, 3]\nclass = 0", fillcolor="#f0b78e"] ;
117 -> 125 ;
126 [label="gini = 0.0\nsamples = 2\nvalue = [0, 2]\nclass = 1", fillcolor="#399de5"] ;
125 -> 126 ;
127 [label="BMI <= 25.45\ngini = 0.219\nsamples = 8\nvalue = [7, 1]\nclass = 0", fillcolor="#e99355"] ;
125 -> 127 ;
128 [label="Pregnancies <= 6.0\ngini = 0.5\nsamples = 2\nvalue = [1, 1]\nclass = 0", fillcolor="#ffffff"] ;
127 -> 128 ;
129 [label="gini = 0.0\nsamples = 1\nvalue = [1, 0]\nclass = 0", fillcolor="#e58139"] ;
128 -> 129 ;
130 [label="gini = 0.0\nsamples = 1\nvalue = [0, 1]\nclass = 1", fillcolor="#399de5"] ;
128 -> 130 ;
131 [label="gini = 0.0\nsamples = 6\nvalue = [6, 0]\nclass = 0", fillcolor="#e58139"] ;
127 -> 131 ;
132 [label="Glucose <= 157.5\ngini = 0.408\nsamples = 161\nvalue = [46, 115]\nclass = 1", fillcolor="#88c4ef"] ;
98 -> 132 ;
133 [label="BloodPressure <= 61.0\ngini = 0.479\nsamples = 88\nvalue = [35, 53]\nclass = 1", fillcolor="#bcdef6"] ;
132 -> 133 ;
134 [label="gini = 0.0\nsamples = 12\nvalue = [0, 12]\nclass = 1", fillcolor="#399de5"] ;
133 -> 134 ;
135 [label="Age <= 30.5\ngini = 0.497\nsamples = 76\nvalue = [35, 41]\nclass = 1", fillcolor="#e2f1fb"] ;
133 -> 135 ;
136 [label="BMI <= 41.4\ngini = 0.436\nsamples = 28\nvalue = [19, 9]\nclass = 0", fillcolor="#f1bd97"] ;
135 -> 136 ;
137 [label="DiabetesPedigreeFunction <= 1.246\ngini = 0.308\nsamples = 21\nvalue = [17, 4]\nclass = 0", fillcolor="#eb9f68"] ;
136 -> 137 ;
138 [label="Glucose <= 131.5\ngini = 0.255\nsamples = 20\nvalue = [17, 3]\nclass = 0", fillcolor="#ea975c"] ;
137 -> 138 ;
139 [label="DiabetesPedigreeFunction <= 0.57\ngini = 0.444\nsamples = 6\nvalue = [4, 2]\nclass = 0", fillcolor="#f2c09c"] ;
138 -> 139 ;
140 [label="SkinThickness <= 12.5\ngini = 0.444\nsamples = 3\nvalue = [1, 2]\nclass = 1", fillcolor="#9ccef2"] ;
139 -> 140 ;
141 [label="gini = 0.0\nsamples = 1\nvalue = [1, 0]\nclass = 0", fillcolor="#e58139"] ;
140 -> 141 ;
142 [label="gini = 0.0\nsamples = 2\nvalue = [0, 2]\nclass = 1", fillcolor="#399de5"] ;
140 -> 142 ;
143 [label="gini = 0.0\nsamples = 3\nvalue = [3, 0]\nclass = 0", fillcolor="#e58139"] ;
139 -> 143 ;
144 [label="Pregnancies <= 4.5\ngini = 0.133\nsamples = 14\nvalue = [13, 1]\nclass = 0", fillcolor="#e78b48"] ;
138 -> 144 ;
145 [label="gini = 0.0\nsamples = 12\nvalue = [12, 0]\nclass = 0", fillcolor="#e58139"] ;
144 -> 145 ;
146 [label="Glucose <= 145.0\ngini = 0.5\nsamples = 2\nvalue = [1, 1]\nclass = 0", fillcolor="#ffffff"] ;
144 -> 146 ;
147 [label="gini = 0.0\nsamples = 1\nvalue = [0, 1]\nclass = 1", fillcolor="#399de5"] ;
146 -> 147 ;
148 [label="gini = 0.0\nsamples = 1\nvalue = [1, 0]\nclass = 0", fillcolor="#e58139"] ;
146 -> 148 ;
149 [label="gini = 0.0\nsamples = 1\nvalue = [0, 1]\nclass = 1", fillcolor="#399de5"] ;
137 -> 149 ;
150 [label="BloodPressure <= 85.5\ngini = 0.408\nsamples = 7\nvalue = [2, 5]\nclass = 1", fillcolor="#88c4ef"] ;
136 -> 150 ;
151 [label="BloodPressure <= 73.0\ngini = 0.444\nsamples = 3\nvalue = [2, 1]\nclass = 0", fillcolor="#f2c09c"] ;
150 -> 151 ;
152 [label="gini = 0.0\nsamples = 1\nvalue = [0, 1]\nclass = 1", fillcolor="#399de5"] ;
151 -> 152 ;
153 [label="gini = 0.0\nsamples = 2\nvalue = [2, 0]\nclass = 0", fillcolor="#e58139"] ;
151 -> 153 ;
154 [label="gini = 0.0\nsamples = 4\nvalue = [0, 4]\nclass = 1", fillcolor="#399de5"] ;
150 -> 154 ;
155 [label="DiabetesPedigreeFunction <= 0.429\ngini = 0.444\nsamples = 48\nvalue = [16, 32]\nclass = 1", fillcolor="#9ccef2"] ;
135 -> 155 ;
156 [label="BMI <= 34.15\ngini = 0.499\nsamples = 21\nvalue = [11, 10]\nclass = 0", fillcolor="#fdf4ed"] ;
155 -> 156 ;
157 [label="BMI <= 30.65\ngini = 0.219\nsamples = 8\nvalue = [7, 1]\nclass = 0", fillcolor="#e99355"] ;
156 -> 157 ;
158 [label="gini = 0.0\nsamples = 1\nvalue = [0, 1]\nclass = 1", fillcolor="#399de5"] ;
157 -> 158 ;
159 [label="gini = 0.0\nsamples = 7\nvalue = [7, 0]\nclass = 0", fillcolor="#e58139"] ;
157 -> 159 ;
160 [label="Glucose <= 130.5\ngini = 0.426\nsamples = 13\nvalue = [4, 9]\nclass = 1", fillcolor="#91c9f1"] ;
156 -> 160 ;
161 [label="gini = 0.0\nsamples = 2\nvalue = [2, 0]\nclass = 0", fillcolor="#e58139"] ;
160 -> 161 ;
162 [label="DiabetesPedigreeFunction <= 0.249\ngini = 0.298\nsamples = 11\nvalue = [2, 9]\nclass = 1", fillcolor="#65b3eb"] ;
160 -> 162 ;
163 [label="Glucose <= 138.0\ngini = 0.48\nsamples = 5\nvalue = [2, 3]\nclass = 1", fillcolor="#bddef6"] ;
162 -> 163 ;
164 [label="gini = 0.0\nsamples = 2\nvalue = [0, 2]\nclass = 1", fillcolor="#399de5"] ;
163 -> 164 ;
165 [label="gini = 0.444\nsamples = 3\nvalue = [2, 1]\nclass = 0", fillcolor="#f2c09c"] ;
163 -> 165 ;
166 [label="gini = 0.0\nsamples = 6\nvalue = [0, 6]\nclass = 1", fillcolor="#399de5"] ;
162 -> 166 ;
167 [label="BMI <= 38.6\ngini = 0.302\nsamples = 27\nvalue = [5, 22]\nclass = 1", fillcolor="#66b3eb"] ;
155 -> 167 ;
168 [label="Insulin <= 313.5\ngini = 0.105\nsamples = 18\nvalue = [1, 17]\nclass = 1", fillcolor="#45a3e7"] ;
167 -> 168 ;
169 [label="gini = 0.0\nsamples = 16\nvalue = [0, 16]\nclass = 1", fillcolor="#399de5"] ;
168 -> 169 ;
170 [label="Insulin <= 418.5\ngini = 0.5\nsamples = 2\nvalue = [1, 1]\nclass = 0", fillcolor="#ffffff"] ;
168 -> 170 ;
171 [label="gini = 0.0\nsamples = 1\nvalue = [1, 0]\nclass = 0", fillcolor="#e58139"] ;
170 -> 171 ;
172 [label="gini = 0.0\nsamples = 1\nvalue = [0, 1]\nclass = 1", fillcolor="#399de5"] ;
170 -> 172 ;
173 [label="BloodPressure <= 83.0\ngini = 0.494\nsamples = 9\nvalue = [4, 5]\nclass = 1", fillcolor="#d7ebfa"] ;
167 -> 173 ;
174 [label="DiabetesPedigreeFunction <= 1.502\ngini = 0.278\nsamples = 6\nvalue = [1, 5]\nclass = 1", fillcolor="#61b1ea"] ;
173 -> 174 ;
175 [label="gini = 0.0\nsamples = 5\nvalue = [0, 5]\nclass = 1", fillcolor="#399de5"] ;
174 -> 175 ;
176 [label="gini = 0.0\nsamples = 1\nvalue = [1, 0]\nclass = 0", fillcolor="#e58139"] ;
174 -> 176 ;
177 [label="gini = 0.0\nsamples = 3\nvalue = [3, 0]\nclass = 0", fillcolor="#e58139"] ;
173 -> 177 ;
178 [label="Insulin <= 629.5\ngini = 0.256\nsamples = 73\nvalue = [11, 62]\nclass = 1", fillcolor="#5caeea"] ;
132 -> 178 ;
179 [label="DiabetesPedigreeFunction <= 0.307\ngini = 0.221\nsamples = 71\nvalue = [9, 62]\nclass = 1", fillcolor="#56abe9"] ;
178 -> 179 ;
180 [label="DiabetesPedigreeFunction <= 0.288\ngini = 0.397\nsamples = 22\nvalue = [6, 16]\nclass = 1", fillcolor="#83c2ef"] ;
179 -> 180 ;
181 [label="BMI <= 33.8\ngini = 0.32\nsamples = 20\nvalue = [4, 16]\nclass = 1", fillcolor="#6ab6ec"] ;
180 -> 181 ;
182 [label="gini = 0.0\nsamples = 7\nvalue = [0, 7]\nclass = 1", fillcolor="#399de5"] ;
181 -> 182 ;
183 [label="BMI <= 35.3\ngini = 0.426\nsamples = 13\nvalue = [4, 9]\nclass = 1", fillcolor="#91c9f1"] ;
181 -> 183 ;
184 [label="gini = 0.0\nsamples = 3\nvalue = [3, 0]\nclass = 0", fillcolor="#e58139"] ;
183 -> 184 ;
185 [label="SkinThickness <= 41.0\ngini = 0.18\nsamples = 10\nvalue = [1, 9]\nclass = 1", fillcolor="#4fa8e8"] ;
183 -> 185 ;
186 [label="gini = 0.0\nsamples = 8\nvalue = [0, 8]\nclass = 1", fillcolor="#399de5"] ;
185 -> 186 ;
187 [label="SkinThickness <= 43.5\ngini = 0.5\nsamples = 2\nvalue = [1, 1]\nclass = 0", fillcolor="#ffffff"] ;
185 -> 187 ;
188 [label="gini = 0.0\nsamples = 1\nvalue = [1, 0]\nclass = 0", fillcolor="#e58139"] ;
187 -> 188 ;
189 [label="gini = 0.0\nsamples = 1\nvalue = [0, 1]\nclass = 1", fillcolor="#399de5"] ;
187 -> 189 ;
190 [label="gini = 0.0\nsamples = 2\nvalue = [2, 0]\nclass = 0", fillcolor="#e58139"] ;
180 -> 190 ;
191 [label="Age <= 44.0\ngini = 0.115\nsamples = 49\nvalue = [3, 46]\nclass = 1", fillcolor="#46a3e7"] ;
179 -> 191 ;
192 [label="gini = 0.0\nsamples = 41\nvalue = [0, 41]\nclass = 1", fillcolor="#399de5"] ;
191 -> 192 ;
193 [label="Age <= 50.5\ngini = 0.469\nsamples = 8\nvalue = [3, 5]\nclass = 1", fillcolor="#b0d8f5"] ;
191 -> 193 ;
194 [label="gini = 0.0\nsamples = 2\nvalue = [2, 0]\nclass = 0", fillcolor="#e58139"] ;
193 -> 194 ;
195 [label="BMI <= 45.95\ngini = 0.278\nsamples = 6\nvalue = [1, 5]\nclass = 1", fillcolor="#61b1ea"] ;
193 -> 195 ;
196 [label="gini = 0.0\nsamples = 5\nvalue = [0, 5]\nclass = 1", fillcolor="#399de5"] ;
195 -> 196 ;
197 [label="gini = 0.0\nsamples = 1\nvalue = [1, 0]\nclass = 0", fillcolor="#e58139"] ;
195 -> 197 ;
198 [label="gini = 0.0\nsamples = 2\nvalue = [2, 0]\nclass = 0", fillcolor="#e58139"] ;
178 -> 198 ;
}