digraph Tree {
node [shape=box, style="filled", color="black"] ;
0 [label="Country <= 32.5\nmse = 134.997\nsamples = 2062\nvalue = 33.134", fillcolor="#eda876"] ;
1 [label="Country <= 4.5\nmse = 125.636\nsamples = 1513\nvalue = 34.518", fillcolor="#eca471"] ;
0 -> 1 [labeldistance=2.5, labelangle=45, headlabel="True"] ;
2 [label="Country <= 3.5\nmse = 172.908\nsamples = 61\nvalue = 24.098", fillcolor="#f2c09c"] ;
1 -> 2 ;
3 [label="Country <= 0.5\nmse = 113.26\nsamples = 29\nvalue = 30.655", fillcolor="#eeaf81"] ;
2 -> 3 ;
4 [label="Brand <= 293.5\nmse = 111.049\nsamples = 15\nvalue = 24.533", fillcolor="#f2bf9a"] ;
3 -> 4 ;
5 [label="Style <= 4.5\nmse = 110.615\nsamples = 13\nvalue = 26.0", fillcolor="#f1bb94"] ;
4 -> 5 ;
6 [label="Brand <= 164.0\nmse = 80.021\nsamples = 12\nvalue = 24.25", fillcolor="#f2bf9b"] ;
5 -> 6 ;
7 [label="mse = 108.16\nsamples = 5\nvalue = 23.2", fillcolor="#f2c29f"] ;
6 -> 7 ;
8 [label="Brand <= 270.0\nmse = 58.571\nsamples = 7\nvalue = 25.0", fillcolor="#f1bd98"] ;
6 -> 8 ;
9 [label="mse = 169.0\nsamples = 2\nvalue = 25.0", fillcolor="#f1bd98"] ;
8 -> 9 ;
10 [label="mse = 14.4\nsamples = 5\nvalue = 25.0", fillcolor="#f1bd98"] ;
8 -> 10 ;
11 [label="mse = 0.0\nsamples = 1\nvalue = 47.0", fillcolor="#e6843d"] ;
5 -> 11 ;
12 [label="mse = 9.0\nsamples = 2\nvalue = 15.0", fillcolor="#f7d8c1"] ;
4 -> 12 ;
13 [label="Brand <= 174.5\nmse = 32.454\nsamples = 14\nvalue = 37.214", fillcolor="#eb9d65"] ;
3 -> 13 ;
14 [label="Country <= 2.0\nmse = 36.75\nsamples = 8\nvalue = 35.0", fillcolor="#eca36f"] ;
13 -> 14 ;
15 [label="mse = 25.0\nsamples = 4\nvalue = 33.0", fillcolor="#eda877"] ;
14 -> 15 ;
16 [label="Brand <= 155.5\nmse = 40.5\nsamples = 4\nvalue = 37.0", fillcolor="#eb9e66"] ;
14 -> 16 ;
17 [label="mse = 0.0\nsamples = 1\nvalue = 32.0", fillcolor="#eeab7b"] ;
16 -> 17 ;
18 [label="mse = 42.889\nsamples = 3\nvalue = 38.667", fillcolor="#ea9a60"] ;
16 -> 18 ;
19 [label="Style <= 4.5\nmse = 11.472\nsamples = 6\nvalue = 40.167", fillcolor="#e99659"] ;
13 -> 19 ;
20 [label="mse = 20.25\nsamples = 2\nvalue = 42.5", fillcolor="#e88f50"] ;
19 -> 20 ;
21 [label="Country <= 1.5\nmse = 3.0\nsamples = 4\nvalue = 39.0", fillcolor="#ea995e"] ;
19 -> 21 ;
22 [label="mse = 0.0\nsamples = 2\nvalue = 38.0", fillcolor="#ea9b62"] ;
21 -> 22 ;
23 [label="mse = 4.0\nsamples = 2\nvalue = 40.0", fillcolor="#e9965a"] ;
21 -> 23 ;
24 [label="Brand <= 206.5\nmse = 152.694\nsamples = 32\nvalue = 18.156", fillcolor="#f5cfb4"] ;
2 -> 24 ;
25 [label="Brand <= 58.5\nmse = 110.388\nsamples = 28\nvalue = 16.429", fillcolor="#f6d4bb"] ;
24 -> 25 ;
26 [label="Style <= 2.5\nmse = 144.531\nsamples = 7\nvalue = 10.429", fillcolor="#f9e4d4"] ;
25 -> 26 ;
27 [label="mse = 0.0\nsamples = 1\nvalue = 31.0", fillcolor="#eeae7f"] ;
26 -> 27 ;
28 [label="Style <= 4.5\nmse = 86.333\nsamples = 6\nvalue = 7.0", fillcolor="#fbede2"] ;
26 -> 28 ;
29 [label="Brand <= 23.5\nmse = 91.84\nsamples = 5\nvalue = 8.4", fillcolor="#fae9dc"] ;
28 -> 29 ;
30 [label="mse = 121.0\nsamples = 2\nvalue = 11.0", fillcolor="#f9e2d2"] ;
29 -> 30 ;
31 [label="mse = 64.889\nsamples = 3\nvalue = 6.667", fillcolor="#fbeee4"] ;
29 -> 31 ;
32 [label="mse = 0.0\nsamples = 1\nvalue = 0.0", fillcolor="#ffffff"] ;
28 -> 32 ;
33 [label="Brand <= 132.5\nmse = 83.007\nsamples = 21\nvalue = 18.429", fillcolor="#f5cfb3"] ;
25 -> 33 ;
34 [label="Style <= 4.5\nmse = 30.531\nsamples = 7\nvalue = 28.429", fillcolor="#f0b48a"] ;
33 -> 34 ;
35 [label="mse = 18.0\nsamples = 3\nvalue = 25.0", fillcolor="#f1bd98"] ;
34 -> 35 ;
36 [label="mse = 24.5\nsamples = 4\nvalue = 31.0", fillcolor="#eeae7f"] ;
34 -> 36 ;
37 [label="Style <= 4.5\nmse = 34.245\nsamples = 14\nvalue = 13.429", fillcolor="#f8dcc8"] ;
33 -> 37 ;
38 [label="Brand <= 194.5\nmse = 29.109\nsamples = 8\nvalue = 10.875", fillcolor="#f9e2d2"] ;
37 -> 38 ;
39 [label="Brand <= 185.0\nmse = 23.143\nsamples = 7\nvalue = 12.0", fillcolor="#f8e0ce"] ;
38 -> 39 ;
40 [label="Style <= 2.5\nmse = 23.76\nsamples = 5\nvalue = 10.8", fillcolor="#f9e3d2"] ;
39 -> 40 ;
41 [label="mse = 28.688\nsamples = 4\nvalue = 11.25", fillcolor="#f9e1d1"] ;
40 -> 41 ;
42 [label="mse = 0.0\nsamples = 1\nvalue = 9.0", fillcolor="#fae7da"] ;
40 -> 42 ;
43 [label="mse = 9.0\nsamples = 2\nvalue = 15.0", fillcolor="#f7d8c1"] ;
39 -> 43 ;
44 [label="mse = 0.0\nsamples = 1\nvalue = 3.0", fillcolor="#fdf7f3"] ;
38 -> 44 ;
45 [label="mse = 20.806\nsamples = 6\nvalue = 16.833", fillcolor="#f6d3ba"] ;
37 -> 45 ;
46 [label="Brand <= 296.5\nmse = 281.688\nsamples = 4\nvalue = 30.25", fillcolor="#efb082"] ;
24 -> 46 ;
47 [label="mse = 0.0\nsamples = 2\nvalue = 47.0", fillcolor="#e6843d"] ;
46 -> 47 ;
48 [label="mse = 2.25\nsamples = 2\nvalue = 13.5", fillcolor="#f8dcc7"] ;
46 -> 48 ;
49 [label="Country <= 16.5\nmse = 118.898\nsamples = 1452\nvalue = 34.956", fillcolor="#eca36f"] ;
1 -> 49 ;
50 [label="Brand <= 36.5\nmse = 118.556\nsamples = 323\nvalue = 32.35", fillcolor="#edaa7a"] ;
49 -> 50 ;
51 [label="Brand <= 19.5\nmse = 153.396\nsamples = 33\nvalue = 23.242", fillcolor="#f2c29f"] ;
50 -> 51 ;
52 [label="Brand <= 17.0\nmse = 195.322\nsamples = 11\nvalue = 16.364", fillcolor="#f6d4bc"] ;
51 -> 52 ;
53 [label="Brand <= 7.5\nmse = 66.688\nsamples = 4\nvalue = 31.25", fillcolor="#eead7e"] ;
52 -> 53 ;
54 [label="mse = 0.0\nsamples = 1\nvalue = 38.0", fillcolor="#ea9b62"] ;
53 -> 54 ;
55 [label="mse = 68.667\nsamples = 3\nvalue = 29.0", fillcolor="#efb387"] ;
53 -> 55 ;
56 [label="Style <= 4.5\nmse = 69.837\nsamples = 7\nvalue = 7.857", fillcolor="#fbeadf"] ;
52 -> 56 ;
57 [label="Style <= 2.5\nmse = 0.25\nsamples = 2\nvalue = 2.5", fillcolor="#fef8f5"] ;
56 -> 57 ;
58 [label="mse = 0.0\nsamples = 1\nvalue = 3.0", fillcolor="#fdf7f3"] ;
57 -> 58 ;
59 [label="mse = 0.0\nsamples = 1\nvalue = 2.0", fillcolor="#fefaf7"] ;
57 -> 59 ;
60 [label="mse = 81.6\nsamples = 5\nvalue = 10.0", fillcolor="#fae5d6"] ;
56 -> 60 ;
61 [label="Brand <= 34.0\nmse = 96.944\nsamples = 22\nvalue = 26.682", fillcolor="#f1b991"] ;
51 -> 61 ;
62 [label="Country <= 15.5\nmse = 46.938\nsamples = 16\nvalue = 30.25", fillcolor="#efb082"] ;
61 -> 62 ;
63 [label="Brand <= 21.5\nmse = 37.582\nsamples = 15\nvalue = 31.133", fillcolor="#eead7f"] ;
62 -> 63 ;
64 [label="Country <= 6.5\nmse = 48.139\nsamples = 6\nvalue = 32.833", fillcolor="#eda978"] ;
63 -> 64 ;
65 [label="mse = 63.688\nsamples = 4\nvalue = 33.25", fillcolor="#eda876"] ;
64 -> 65 ;
66 [label="mse = 16.0\nsamples = 2\nvalue = 32.0", fillcolor="#eeab7b"] ;
64 -> 66 ;
67 [label="Brand <= 24.0\nmse = 27.333\nsamples = 9\nvalue = 30.0", fillcolor="#efb083"] ;
63 -> 67 ;
68 [label="mse = 0.0\nsamples = 1\nvalue = 28.0", fillcolor="#f0b68c"] ;
67 -> 68 ;
69 [label="Country <= 8.0\nmse = 30.188\nsamples = 8\nvalue = 30.25", fillcolor="#efb082"] ;
67 -> 69 ;
70 [label="mse = 25.688\nsamples = 4\nvalue = 29.25", fillcolor="#efb286"] ;
69 -> 70 ;
71 [label="Country <= 13.0\nmse = 32.688\nsamples = 4\nvalue = 31.25", fillcolor="#eead7e"] ;
69 -> 71 ;
72 [label="mse = 0.0\nsamples = 1\nvalue = 36.0", fillcolor="#eca06a"] ;
71 -> 72 ;
73 [label="mse = 33.556\nsamples = 3\nvalue = 29.667", fillcolor="#efb185"] ;
71 -> 73 ;
74 [label="mse = 0.0\nsamples = 1\nvalue = 17.0", fillcolor="#f6d2b9"] ;
62 -> 74 ;
75 [label="Country <= 9.5\nmse = 105.806\nsamples = 6\nvalue = 17.167", fillcolor="#f6d2b8"] ;
61 -> 75 ;
76 [label="Style <= 5.5\nmse = 76.222\nsamples = 3\nvalue = 24.333", fillcolor="#f2bf9b"] ;
75 -> 76 ;
77 [label="mse = 0.0\nsamples = 1\nvalue = 22.0", fillcolor="#f3c5a4"] ;
76 -> 77 ;
78 [label="mse = 110.25\nsamples = 2\nvalue = 25.5", fillcolor="#f1bc96"] ;
76 -> 78 ;
79 [label="mse = 32.667\nsamples = 3\nvalue = 10.0", fillcolor="#fae5d6"] ;
75 -> 79 ;
80 [label="Brand <= 158.5\nmse = 104.078\nsamples = 290\nvalue = 33.386", fillcolor="#eda775"] ;
50 -> 80 ;
81 [label="Brand <= 127.5\nmse = 105.87\nsamples = 120\nvalue = 31.217", fillcolor="#eead7e"] ;
80 -> 81 ;
82 [label="Brand <= 88.5\nmse = 96.583\nsamples = 97\nvalue = 32.258", fillcolor="#eeaa7a"] ;
81 -> 82 ;
83 [label="Brand <= 66.0\nmse = 97.501\nsamples = 57\nvalue = 31.158", fillcolor="#eead7e"] ;
82 -> 83 ;
84 [label="Country <= 11.5\nmse = 88.438\nsamples = 29\nvalue = 34.103", fillcolor="#eda572"] ;
83 -> 84 ;
85 [label="Style <= 3.0\nmse = 10.84\nsamples = 13\nvalue = 38.923", fillcolor="#ea995e"] ;
84 -> 85 ;
86 [label="Brand <= 48.5\nmse = 14.333\nsamples = 6\nvalue = 41.0", fillcolor="#e99356"] ;
85 -> 86 ;
87 [label="mse = 0.0\nsamples = 1\nvalue = 38.0", fillcolor="#ea9b62"] ;
86 -> 87 ;
88 [label="mse = 15.04\nsamples = 5\nvalue = 41.6", fillcolor="#e89253"] ;
86 -> 88 ;
89 [label="Brand <= 58.5\nmse = 0.98\nsamples = 7\nvalue = 37.143", fillcolor="#eb9e66"] ;
85 -> 89 ;
90 [label="mse = 1.0\nsamples = 6\nvalue = 37.0", fillcolor="#eb9e66"] ;
89 -> 90 ;
91 [label="mse = 0.0\nsamples = 1\nvalue = 38.0", fillcolor="#ea9b62"] ;
89 -> 91 ;
92 [label="Brand <= 45.0\nmse = 117.277\nsamples = 16\nvalue = 30.188", fillcolor="#efb082"] ;
84 -> 92 ;
93 [label="mse = 5.556\nsamples = 3\nvalue = 34.333", fillcolor="#eca571"] ;
92 -> 93 ;
94 [label="Style <= 4.5\nmse = 138.178\nsamples = 13\nvalue = 29.231", fillcolor="#efb286"] ;
92 -> 94 ;
95 [label="mse = 16.0\nsamples = 2\nvalue = 27.0", fillcolor="#f0b890"] ;
94 -> 95 ;
96 [label="mse = 159.322\nsamples = 11\nvalue = 29.636", fillcolor="#efb185"] ;
94 -> 96 ;
97 [label="Country <= 6.0\nmse = 88.596\nsamples = 28\nvalue = 28.107", fillcolor="#f0b58b"] ;
83 -> 97 ;
98 [label="Brand <= 77.0\nmse = 67.576\nsamples = 12\nvalue = 24.917", fillcolor="#f2be98"] ;
97 -> 98 ;
99 [label="mse = 0.0\nsamples = 1\nvalue = 18.0", fillcolor="#f5d0b5"] ;
98 -> 99 ;
100 [label="Style <= 4.5\nmse = 68.975\nsamples = 11\nvalue = 25.545", fillcolor="#f1bc96"] ;
98 -> 100 ;
101 [label="Style <= 2.5\nmse = 79.222\nsamples = 6\nvalue = 24.667", fillcolor="#f2be99"] ;
100 -> 101 ;
102 [label="mse = 126.889\nsamples = 3\nvalue = 25.667", fillcolor="#f1bc95"] ;
101 -> 102 ;
103 [label="mse = 29.556\nsamples = 3\nvalue = 23.667", fillcolor="#f2c19d"] ;
101 -> 103 ;
104 [label="mse = 54.64\nsamples = 5\nvalue = 26.6", fillcolor="#f1b991"] ;
100 -> 104 ;
105 [label="Brand <= 72.0\nmse = 91.0\nsamples = 16\nvalue = 30.5", fillcolor="#eeaf81"] ;
97 -> 105 ;
106 [label="Style <= 3.0\nmse = 66.245\nsamples = 7\nvalue = 27.429", fillcolor="#f0b78e"] ;
105 -> 106 ;
107 [label="mse = 30.889\nsamples = 3\nvalue = 25.667", fillcolor="#f1bc95"] ;
106 -> 107 ;
108 [label="mse = 88.688\nsamples = 4\nvalue = 28.75", fillcolor="#efb488"] ;
106 -> 108 ;
109 [label="Style <= 3.0\nmse = 97.21\nsamples = 9\nvalue = 32.889", fillcolor="#eda977"] ;
105 -> 109 ;
110 [label="mse = 0.0\nsamples = 1\nvalue = 47.0", fillcolor="#e6843d"] ;
109 -> 110 ;
111 [label="Brand <= 78.5\nmse = 81.359\nsamples = 8\nvalue = 31.125", fillcolor="#eead7f"] ;
109 -> 111 ;
112 [label="mse = 102.806\nsamples = 6\nvalue = 30.833", fillcolor="#eeae80"] ;
111 -> 112 ;
113 [label="mse = 16.0\nsamples = 2\nvalue = 32.0", fillcolor="#eeab7b"] ;
111 -> 113 ;
114 [label="Country <= 9.5\nmse = 91.094\nsamples = 40\nvalue = 33.825", fillcolor="#eda673"] ;
82 -> 114 ;
115 [label="Brand <= 119.5\nmse = 102.889\nsamples = 27\nvalue = 32.333", fillcolor="#edaa7a"] ;
114 -> 115 ;
116 [label="Style <= 3.0\nmse = 53.895\nsamples = 19\nvalue = 36.0", fillcolor="#eca06a"] ;
115 -> 116 ;
117 [label="mse = 23.429\nsamples = 7\nvalue = 31.0", fillcolor="#eeae7f"] ;
116 -> 117 ;
118 [label="Style <= 5.5\nmse = 48.576\nsamples = 12\nvalue = 38.917", fillcolor="#ea995e"] ;
116 -> 118 ;
119 [label="Brand <= 98.5\nmse = 41.174\nsamples = 11\nvalue = 39.909", fillcolor="#e9965a"] ;
118 -> 119 ;
120 [label="mse = 0.0\nsamples = 1\nvalue = 38.0", fillcolor="#ea9b62"] ;
119 -> 120 ;
121 [label="Brand <= 110.0\nmse = 44.89\nsamples = 10\nvalue = 40.1", fillcolor="#e9965a"] ;
119 -> 121 ;
122 [label="mse = 0.0\nsamples = 1\nvalue = 42.0", fillcolor="#e89152"] ;
121 -> 122 ;
123 [label="mse = 49.432\nsamples = 9\nvalue = 39.889", fillcolor="#e9965a"] ;
121 -> 123 ;
124 [label="mse = 0.0\nsamples = 1\nvalue = 28.0", fillcolor="#f0b68c"] ;
118 -> 124 ;
125 [label="Style <= 5.5\nmse = 111.484\nsamples = 8\nvalue = 23.625", fillcolor="#f2c19e"] ;
115 -> 125 ;
126 [label="Brand <= 123.5\nmse = 70.24\nsamples = 5\nvalue = 20.6", fillcolor="#f4c9aa"] ;
125 -> 126 ;
127 [label="mse = 54.0\nsamples = 4\nvalue = 18.0", fillcolor="#f5d0b5"] ;
126 -> 127 ;
128 [label="mse = 0.0\nsamples = 1\nvalue = 31.0", fillcolor="#eeae7f"] ;
126 -> 128 ;
129 [label="mse = 139.556\nsamples = 3\nvalue = 28.667", fillcolor="#efb489"] ;
125 -> 129 ;
130 [label="Brand <= 122.5\nmse = 52.379\nsamples = 13\nvalue = 36.923", fillcolor="#eb9e67"] ;
114 -> 130 ;
131 [label="Style <= 3.0\nmse = 37.556\nsamples = 3\nvalue = 26.667", fillcolor="#f1b991"] ;
130 -> 131 ;
132 [label="mse = 42.25\nsamples = 2\nvalue = 24.5", fillcolor="#f2bf9a"] ;
131 -> 132 ;
133 [label="mse = 0.0\nsamples = 1\nvalue = 31.0", fillcolor="#eeae7f"] ;
131 -> 133 ;
134 [label="Style <= 5.5\nmse = 15.8\nsamples = 10\nvalue = 40.0", fillcolor="#e9965a"] ;
130 -> 134 ;
135 [label="Brand <= 123.5\nmse = 17.062\nsamples = 9\nvalue = 39.778", fillcolor="#e9975b"] ;
134 -> 135 ;
136 [label="Style <= 3.0\nmse = 17.889\nsamples = 6\nvalue = 39.333", fillcolor="#ea985d"] ;
135 -> 136 ;
137 [label="mse = 18.8\nsamples = 5\nvalue = 40.0", fillcolor="#e9965a"] ;
136 -> 137 ;
138 [label="mse = 0.0\nsamples = 1\nvalue = 36.0", fillcolor="#eca06a"] ;
136 -> 138 ;
139 [label="mse = 14.222\nsamples = 3\nvalue = 40.667", fillcolor="#e99457"] ;
135 -> 139 ;
140 [label="mse = 0.0\nsamples = 1\nvalue = 42.0", fillcolor="#e89152"] ;
134 -> 140 ;
141 [label="Style <= 5.5\nmse = 121.187\nsamples = 23\nvalue = 26.826", fillcolor="#f0b990"] ;
81 -> 141 ;
142 [label="Style <= 2.5\nmse = 106.085\nsamples = 22\nvalue = 27.773", fillcolor="#f0b68c"] ;
141 -> 142 ;
143 [label="Brand <= 149.0\nmse = 12.25\nsamples = 2\nvalue = 34.5", fillcolor="#eca471"] ;
142 -> 143 ;
144 [label="mse = 0.0\nsamples = 1\nvalue = 38.0", fillcolor="#ea9b62"] ;
143 -> 144 ;
145 [label="mse = 0.0\nsamples = 1\nvalue = 31.0", fillcolor="#eeae7f"] ;
143 -> 145 ;
146 [label="Style <= 4.5\nmse = 110.49\nsamples = 20\nvalue = 27.1", fillcolor="#f0b88f"] ;
142 -> 146 ;
147 [label="mse = 0.0\nsamples = 1\nvalue = 9.0", fillcolor="#fae7da"] ;
146 -> 147 ;
148 [label="Country <= 11.5\nmse = 98.155\nsamples = 19\nvalue = 28.053", fillcolor="#f0b58b"] ;
146 -> 148 ;
149 [label="mse = 25.0\nsamples = 2\nvalue = 33.0", fillcolor="#eda877"] ;
148 -> 149 ;
150 [label="Country <= 15.0\nmse = 103.543\nsamples = 17\nvalue = 27.471", fillcolor="#f0b78e"] ;
148 -> 150 ;
151 [label="mse = 9.0\nsamples = 4\nvalue = 25.0", fillcolor="#f1bd98"] ;
150 -> 151 ;
152 [label="mse = 130.178\nsamples = 13\nvalue = 28.231", fillcolor="#f0b58b"] ;
150 -> 152 ;
153 [label="mse = 0.0\nsamples = 1\nvalue = 6.0", fillcolor="#fcefe6"] ;
141 -> 153 ;
154 [label="Country <= 13.5\nmse = 97.146\nsamples = 170\nvalue = 34.918", fillcolor="#eca36f"] ;
80 -> 154 ;
155 [label="Brand <= 333.5\nmse = 98.51\nsamples = 95\nvalue = 33.737", fillcolor="#eda674"] ;
154 -> 155 ;
156 [label="Brand <= 263.5\nmse = 103.934\nsamples = 84\nvalue = 33.083", fillcolor="#eda877"] ;
155 -> 156 ;
157 [label="Style <= 5.5\nmse = 89.162\nsamples = 68\nvalue = 33.985", fillcolor="#eda673"] ;
156 -> 157 ;
158 [label="Style <= 4.5\nmse = 86.622\nsamples = 67\nvalue = 34.224", fillcolor="#eca572"] ;
157 -> 158 ;
159 [label="Brand <= 229.0\nmse = 79.671\nsamples = 23\nvalue = 31.739", fillcolor="#eeac7c"] ;
158 -> 159 ;
160 [label="Brand <= 193.5\nmse = 76.91\nsamples = 20\nvalue = 30.7", fillcolor="#eeae80"] ;
159 -> 160 ;
161 [label="Country <= 8.5\nmse = 66.595\nsamples = 17\nvalue = 32.412", fillcolor="#edaa79"] ;
160 -> 161 ;
162 [label="Country <= 5.5\nmse = 61.917\nsamples = 6\nvalue = 30.5", fillcolor="#eeaf81"] ;
161 -> 162 ;
163 [label="Brand <= 177.0\nmse = 44.75\nsamples = 4\nvalue = 33.5", fillcolor="#eda775"] ;
162 -> 163 ;
164 [label="mse = 64.0\nsamples = 2\nvalue = 30.0", fillcolor="#efb083"] ;
163 -> 164 ;
165 [label="mse = 1.0\nsamples = 2\nvalue = 37.0", fillcolor="#eb9e66"] ;
163 -> 165 ;
166 [label="mse = 42.25\nsamples = 2\nvalue = 24.5", fillcolor="#f2bf9a"] ;
162 -> 166 ;
167 [label="mse = 66.066\nsamples = 11\nvalue = 33.455", fillcolor="#eda775"] ;
161 -> 167 ;
168 [label="Style <= 2.5\nmse = 24.667\nsamples = 3\nvalue = 21.0", fillcolor="#f4c8a8"] ;
160 -> 168 ;
169 [label="mse = 30.25\nsamples = 2\nvalue = 22.5", fillcolor="#f3c4a2"] ;
168 -> 169 ;
170 [label="mse = 0.0\nsamples = 1\nvalue = 18.0", fillcolor="#f5d0b5"] ;
168 -> 170 ;
171 [label="mse = 42.889\nsamples = 3\nvalue = 38.667", fillcolor="#ea9a60"] ;
159 -> 171 ;
172 [label="Country <= 5.5\nmse = 85.34\nsamples = 44\nvalue = 35.523", fillcolor="#eca26c"] ;
158 -> 172 ;
173 [label="Brand <= 212.0\nmse = 113.147\nsamples = 28\nvalue = 36.821", fillcolor="#eb9e67"] ;
172 -> 173 ;
174 [label="Brand <= 178.5\nmse = 96.19\nsamples = 20\nvalue = 38.1", fillcolor="#ea9b62"] ;
173 -> 174 ;
175 [label="mse = 99.867\nsamples = 18\nvalue = 37.278", fillcolor="#eb9d65"] ;
174 -> 175 ;
176 [label="mse = 2.25\nsamples = 2\nvalue = 45.5", fillcolor="#e68843"] ;
174 -> 176 ;
177 [label="Brand <= 241.0\nmse = 141.234\nsamples = 8\nvalue = 33.625", fillcolor="#eda774"] ;
173 -> 177 ;
178 [label="mse = 0.0\nsamples = 1\nvalue = 22.0", fillcolor="#f3c5a4"] ;
177 -> 178 ;
179 [label="Brand <= 254.5\nmse = 139.347\nsamples = 7\nvalue = 35.286", fillcolor="#eca26d"] ;
177 -> 179 ;
180 [label="mse = 0.0\nsamples = 1\nvalue = 42.0", fillcolor="#e89152"] ;
179 -> 180 ;
181 [label="Brand <= 259.5\nmse = 153.806\nsamples = 6\nvalue = 34.167", fillcolor="#eca572"] ;
179 -> 181 ;
182 [label="mse = 0.0\nsamples = 1\nvalue = 36.0", fillcolor="#eca06a"] ;
181 -> 182 ;
183 [label="mse = 183.76\nsamples = 5\nvalue = 33.8", fillcolor="#eda674"] ;
181 -> 183 ;
184 [label="Country <= 10.5\nmse = 28.562\nsamples = 16\nvalue = 33.25", fillcolor="#eda876"] ;
172 -> 184 ;
185 [label="Country <= 8.0\nmse = 9.84\nsamples = 5\nvalue = 32.4", fillcolor="#edaa79"] ;
184 -> 185 ;
186 [label="mse = 16.0\nsamples = 2\nvalue = 32.0", fillcolor="#eeab7b"] ;
185 -> 186 ;
187 [label="mse = 5.556\nsamples = 3\nvalue = 32.667", fillcolor="#eda978"] ;
185 -> 187 ;
188 [label="mse = 36.595\nsamples = 11\nvalue = 33.636", fillcolor="#eda774"] ;
184 -> 188 ;
189 [label="mse = 0.0\nsamples = 1\nvalue = 18.0", fillcolor="#f5d0b5"] ;
157 -> 189 ;
190 [label="Brand <= 284.0\nmse = 148.562\nsamples = 16\nvalue = 29.25", fillcolor="#efb286"] ;
156 -> 190 ;
191 [label="Style <= 3.0\nmse = 306.56\nsamples = 5\nvalue = 20.8", fillcolor="#f4c8a9"] ;
190 -> 191 ;
192 [label="mse = 361.0\nsamples = 2\nvalue = 19.0", fillcolor="#f5cdb1"] ;
191 -> 192 ;
193 [label="Brand <= 268.0\nmse = 266.667\nsamples = 3\nvalue = 22.0", fillcolor="#f3c5a4"] ;
191 -> 193 ;
194 [label="mse = 400.0\nsamples = 2\nvalue = 22.0", fillcolor="#f3c5a4"] ;
193 -> 194 ;
195 [label="mse = 0.0\nsamples = 1\nvalue = 22.0", fillcolor="#f3c5a4"] ;
193 -> 195 ;
196 [label="Country <= 8.0\nmse = 29.537\nsamples = 11\nvalue = 33.091", fillcolor="#eda876"] ;
190 -> 196 ;
197 [label="Brand <= 318.5\nmse = 56.64\nsamples = 5\nvalue = 34.6", fillcolor="#eca470"] ;
196 -> 197 ;
198 [label="mse = 0.0\nsamples = 1\nvalue = 42.0", fillcolor="#e89152"] ;
197 -> 198 ;
199 [label="Brand <= 320.5\nmse = 53.688\nsamples = 4\nvalue = 32.75", fillcolor="#eda978"] ;
197 -> 199 ;
200 [label="mse = 49.0\nsamples = 2\nvalue = 29.0", fillcolor="#efb387"] ;
199 -> 200 ;
201 [label="mse = 30.25\nsamples = 2\nvalue = 36.5", fillcolor="#eb9f68"] ;
199 -> 201 ;
202 [label="Country <= 12.0\nmse = 3.472\nsamples = 6\nvalue = 31.833", fillcolor="#eeab7c"] ;
196 -> 202 ;
203 [label="mse = 0.0\nsamples = 2\nvalue = 31.0", fillcolor="#eeae7f"] ;
202 -> 203 ;
204 [label="mse = 4.688\nsamples = 4\nvalue = 32.25", fillcolor="#eeaa7a"] ;
202 -> 204 ;
205 [label="Country <= 8.5\nmse = 28.926\nsamples = 11\nvalue = 38.727", fillcolor="#ea995f"] ;
155 -> 205 ;
206 [label="Brand <= 344.0\nmse = 25.25\nsamples = 10\nvalue = 39.5", fillcolor="#ea975c"] ;
205 -> 206 ;
207 [label="Style <= 3.0\nmse = 27.284\nsamples = 9\nvalue = 39.222", fillcolor="#ea985d"] ;
206 -> 207 ;
208 [label="mse = 10.75\nsamples = 4\nvalue = 38.5", fillcolor="#ea9a60"] ;
207 -> 208 ;
209 [label="mse = 39.76\nsamples = 5\nvalue = 39.8", fillcolor="#e9975b"] ;
207 -> 209 ;
210 [label="mse = 0.0\nsamples = 1\nvalue = 42.0", fillcolor="#e89152"] ;
206 -> 210 ;
211 [label="mse = 0.0\nsamples = 1\nvalue = 31.0", fillcolor="#eeae7f"] ;
205 -> 211 ;
212 [label="Style <= 2.5\nmse = 91.416\nsamples = 75\nvalue = 36.413", fillcolor="#eb9f69"] ;
154 -> 212 ;
213 [label="Brand <= 222.5\nmse = 115.855\nsamples = 17\nvalue = 32.294", fillcolor="#eeaa7a"] ;
212 -> 213 ;
214 [label="mse = 75.44\nsamples = 10\nvalue = 35.6", fillcolor="#eca26c"] ;
213 -> 214 ;
215 [label="Brand <= 254.5\nmse = 135.673\nsamples = 7\nvalue = 27.571", fillcolor="#f0b78d"] ;
213 -> 215 ;
216 [label="mse = 8.667\nsamples = 3\nvalue = 18.0", fillcolor="#f5d0b5"] ;
215 -> 216 ;
217 [label="mse = 110.688\nsamples = 4\nvalue = 34.75", fillcolor="#eca470"] ;
215 -> 217 ;
218 [label="Country <= 15.5\nmse = 77.822\nsamples = 58\nvalue = 37.621", fillcolor="#eb9c64"] ;
212 -> 218 ;
219 [label="Brand <= 224.0\nmse = 65.281\nsamples = 48\nvalue = 38.604", fillcolor="#ea9a60"] ;
218 -> 219 ;
220 [label="Style <= 4.5\nmse = 63.066\nsamples = 42\nvalue = 39.071", fillcolor="#ea985e"] ;
219 -> 220 ;
221 [label="mse = 44.148\nsamples = 26\nvalue = 38.077", fillcolor="#ea9b62"] ;
220 -> 221 ;
222 [label="mse = 89.59\nsamples = 16\nvalue = 40.688", fillcolor="#e99457"] ;
220 -> 222 ;
223 [label="Country <= 14.5\nmse = 68.556\nsamples = 6\nvalue = 35.333", fillcolor="#eca26d"] ;
219 -> 223 ;
224 [label="mse = 54.96\nsamples = 5\nvalue = 33.2", fillcolor="#eda876"] ;
223 -> 224 ;
225 [label="mse = 0.0\nsamples = 1\nvalue = 46.0", fillcolor="#e68641"] ;
223 -> 225 ;
226 [label="Style <= 4.5\nmse = 111.09\nsamples = 10\nvalue = 32.9", fillcolor="#eda977"] ;
218 -> 226 ;
227 [label="mse = 62.889\nsamples = 3\nvalue = 19.667", fillcolor="#f4cbae"] ;
226 -> 227 ;
228 [label="Brand <= 202.5\nmse = 24.531\nsamples = 7\nvalue = 38.571", fillcolor="#ea9a60"] ;
226 -> 228 ;
229 [label="mse = 28.667\nsamples = 3\nvalue = 37.0", fillcolor="#eb9e66"] ;
228 -> 229 ;
230 [label="Brand <= 249.0\nmse = 18.188\nsamples = 4\nvalue = 39.75", fillcolor="#e9975b"] ;
228 -> 230 ;
231 [label="mse = 0.0\nsamples = 1\nvalue = 47.0", fillcolor="#e6843d"] ;
230 -> 231 ;
232 [label="Brand <= 308.5\nmse = 0.889\nsamples = 3\nvalue = 37.333", fillcolor="#eb9d65"] ;
230 -> 232 ;
233 [label="mse = 0.0\nsamples = 1\nvalue = 36.0", fillcolor="#eca06a"] ;
232 -> 233 ;
234 [label="mse = 0.0\nsamples = 2\nvalue = 38.0", fillcolor="#ea9b62"] ;
232 -> 234 ;
235 [label="Country <= 19.5\nmse = 116.496\nsamples = 1129\nvalue = 35.702", fillcolor="#eca16c"] ;
49 -> 235 ;
236 [label="Brand <= 12.0\nmse = 95.168\nsamples = 506\nvalue = 37.779", fillcolor="#eb9c63"] ;
235 -> 236 ;
237 [label="Country <= 17.5\nmse = 135.397\nsamples = 32\nvalue = 34.094", fillcolor="#eda672"] ;
236 -> 237 ;
238 [label="Style <= 4.5\nmse = 11.84\nsamples = 10\nvalue = 40.4", fillcolor="#e99558"] ;
237 -> 238 ;
239 [label="mse = 4.8\nsamples = 5\nvalue = 38.0", fillcolor="#ea9b62"] ;
238 -> 239 ;
240 [label="mse = 7.36\nsamples = 5\nvalue = 42.8", fillcolor="#e88f4e"] ;
238 -> 240 ;
241 [label="Style <= 5.5\nmse = 165.267\nsamples = 22\nvalue = 31.227", fillcolor="#eead7e"] ;
237 -> 241 ;
242 [label="Style <= 2.5\nmse = 154.95\nsamples = 20\nvalue = 32.5", fillcolor="#edaa79"] ;
241 -> 242 ;
243 [label="mse = 254.917\nsamples = 6\nvalue = 28.5", fillcolor="#f0b489"] ;
242 -> 243 ;
244 [label="Brand <= 6.0\nmse = 102.311\nsamples = 14\nvalue = 34.214", fillcolor="#eca572"] ;
242 -> 244 ;
245 [label="mse = 188.222\nsamples = 3\nvalue = 27.333", fillcolor="#f0b78e"] ;
244 -> 245 ;
246 [label="Brand <= 9.5\nmse = 62.446\nsamples = 11\nvalue = 36.091", fillcolor="#eba06a"] ;
244 -> 246 ;
247 [label="Brand <= 8.5\nmse = 31.778\nsamples = 9\nvalue = 38.0", fillcolor="#ea9b62"] ;
246 -> 247 ;
248 [label="Country <= 18.5\nmse = 24.359\nsamples = 8\nvalue = 36.875", fillcolor="#eb9e67"] ;
247 -> 248 ;
249 [label="mse = 6.0\nsamples = 4\nvalue = 38.0", fillcolor="#ea9b62"] ;
248 -> 249 ;
250 [label="mse = 40.188\nsamples = 4\nvalue = 35.75", fillcolor="#eca16c"] ;
248 -> 250 ;
251 [label="mse = 0.0\nsamples = 1\nvalue = 47.0", fillcolor="#e6843d"] ;
247 -> 251 ;
252 [label="mse = 110.25\nsamples = 2\nvalue = 27.5", fillcolor="#f0b78e"] ;
246 -> 252 ;
253 [label="mse = 90.25\nsamples = 2\nvalue = 18.5", fillcolor="#f5ceb3"] ;
241 -> 253 ;
254 [label="Brand <= 203.5\nmse = 91.474\nsamples = 474\nvalue = 38.027", fillcolor="#ea9b62"] ;
236 -> 254 ;
255 [label="Style <= 3.0\nmse = 91.621\nsamples = 348\nvalue = 38.641", fillcolor="#ea9a60"] ;
254 -> 255 ;
256 [label="Brand <= 191.0\nmse = 69.794\nsamples = 83\nvalue = 40.651", fillcolor="#e99457"] ;
255 -> 256 ;
257 [label="Brand <= 182.0\nmse = 84.101\nsamples = 51\nvalue = 39.235", fillcolor="#ea985d"] ;
256 -> 257 ;
258 [label="Brand <= 173.0\nmse = 61.056\nsamples = 37\nvalue = 40.568", fillcolor="#e99558"] ;
257 -> 258 ;
259 [label="Country <= 18.5\nmse = 63.121\nsamples = 32\nvalue = 39.562", fillcolor="#ea975c"] ;
258 -> 259 ;
260 [label="Brand <= 160.5\nmse = 39.575\nsamples = 28\nvalue = 40.679", fillcolor="#e99457"] ;
259 -> 260 ;
261 [label="Brand <= 112.5\nmse = 20.089\nsamples = 19\nvalue = 41.737", fillcolor="#e89153"] ;
260 -> 261 ;
262 [label="Brand <= 110.5\nmse = 33.633\nsamples = 7\nvalue = 40.286", fillcolor="#e99559"] ;
261 -> 262 ;
263 [label="Brand <= 95.0\nmse = 11.2\nsamples = 5\nvalue = 42.0", fillcolor="#e89152"] ;
262 -> 263 ;
264 [label="Brand <= 65.0\nmse = 12.75\nsamples = 4\nvalue = 41.5", fillcolor="#e99254"] ;
263 -> 264 ;
265 [label="mse = 16.889\nsamples = 3\nvalue = 41.333", fillcolor="#e99254"] ;
264 -> 265 ;
266 [label="mse = 0.0\nsamples = 1\nvalue = 42.0", fillcolor="#e89152"] ;
264 -> 266 ;
267 [label="mse = 0.0\nsamples = 1\nvalue = 44.0", fillcolor="#e78c4a"] ;
263 -> 267 ;
268 [label="mse = 64.0\nsamples = 2\nvalue = 36.0", fillcolor="#eca06a"] ;
262 -> 268 ;
269 [label="Brand <= 127.0\nmse = 10.243\nsamples = 12\nvalue = 42.583", fillcolor="#e88f4f"] ;
261 -> 269 ;
270 [label="mse = 0.0\nsamples = 2\nvalue = 44.0", fillcolor="#e78c4a"] ;
269 -> 270 ;
271 [label="Style <= 1.5\nmse = 11.81\nsamples = 10\nvalue = 42.3", fillcolor="#e89051"] ;
269 -> 271 ;
272 [label="mse = 13.111\nsamples = 9\nvalue = 42.333", fillcolor="#e89050"] ;
271 -> 272 ;
273 [label="mse = 0.0\nsamples = 1\nvalue = 42.0", fillcolor="#e89152"] ;
271 -> 273 ;
274 [label="Brand <= 163.0\nmse = 73.358\nsamples = 9\nvalue = 38.444", fillcolor="#ea9a60"] ;
260 -> 274 ;
275 [label="mse = 20.667\nsamples = 3\nvalue = 37.0", fillcolor="#eb9e66"] ;
274 -> 275 ;
276 [label="mse = 98.139\nsamples = 6\nvalue = 39.167", fillcolor="#ea985d"] ;
274 -> 276 ;
277 [label="mse = 158.188\nsamples = 4\nvalue = 31.75", fillcolor="#eeac7c"] ;
259 -> 277 ;
278 [label="mse = 0.0\nsamples = 5\nvalue = 47.0", fillcolor="#e6843d"] ;
258 -> 278 ;
279 [label="Brand <= 186.5\nmse = 127.918\nsamples = 14\nvalue = 35.714", fillcolor="#eca16c"] ;
257 -> 279 ;
280 [label="mse = 154.96\nsamples = 10\nvalue = 34.2", fillcolor="#eca572"] ;
279 -> 280 ;
281 [label="mse = 40.25\nsamples = 4\nvalue = 39.5", fillcolor="#ea975c"] ;
279 -> 281 ;
282 [label="Country <= 18.5\nmse = 38.71\nsamples = 32\nvalue = 42.906", fillcolor="#e88e4e"] ;
256 -> 282 ;
283 [label="mse = 39.095\nsamples = 31\nvalue = 42.742", fillcolor="#e88f4f"] ;
282 -> 283 ;
284 [label="mse = 0.0\nsamples = 1\nvalue = 48.0", fillcolor="#e58139"] ;
282 -> 284 ;
285 [label="Style <= 5.5\nmse = 96.796\nsamples = 265\nvalue = 38.011", fillcolor="#ea9b62"] ;
255 -> 285 ;
286 [label="Country <= 18.5\nmse = 99.185\nsamples = 252\nvalue = 37.722", fillcolor="#eb9c63"] ;
285 -> 286 ;
287 [label="Brand <= 54.5\nmse = 103.574\nsamples = 168\nvalue = 36.738", fillcolor="#eb9f67"] ;
286 -> 287 ;
288 [label="Style <= 4.5\nmse = 18.0\nsamples = 3\nvalue = 25.0", fillcolor="#f1bd98"] ;
287 -> 288 ;
289 [label="mse = 0.0\nsamples = 1\nvalue = 31.0", fillcolor="#eeae7f"] ;
288 -> 289 ;
290 [label="mse = 0.0\nsamples = 2\nvalue = 22.0", fillcolor="#f3c5a4"] ;
288 -> 290 ;
291 [label="Brand <= 133.0\nmse = 102.579\nsamples = 165\nvalue = 36.952", fillcolor="#eb9e67"] ;
287 -> 291 ;
292 [label="Brand <= 112.5\nmse = 77.521\nsamples = 71\nvalue = 39.0", fillcolor="#ea995e"] ;
291 -> 292 ;
293 [label="Brand <= 87.0\nmse = 78.848\nsamples = 68\nvalue = 38.721", fillcolor="#ea995f"] ;
292 -> 293 ;
294 [label="Style <= 4.5\nmse = 37.361\nsamples = 18\nvalue = 37.167", fillcolor="#eb9d66"] ;
293 -> 294 ;
295 [label="Brand <= 68.0\nmse = 18.583\nsamples = 6\nvalue = 41.5", fillcolor="#e99254"] ;
294 -> 295 ;
296 [label="mse = 17.44\nsamples = 5\nvalue = 40.6", fillcolor="#e99458"] ;
295 -> 296 ;
297 [label="mse = 0.0\nsamples = 1\nvalue = 46.0", fillcolor="#e68641"] ;
295 -> 297 ;
298 [label="Brand <= 75.0\nmse = 32.667\nsamples = 12\nvalue = 35.0", fillcolor="#eca36f"] ;
294 -> 298 ;
299 [label="mse = 39.806\nsamples = 6\nvalue = 36.833", fillcolor="#eb9e67"] ;
298 -> 299 ;
300 [label="mse = 18.806\nsamples = 6\nvalue = 33.167", fillcolor="#eda876"] ;
298 -> 300 ;
301 [label="Brand <= 105.0\nmse = 92.602\nsamples = 50\nvalue = 39.28", fillcolor="#ea985d"] ;
293 -> 301 ;
302 [label="Country <= 17.5\nmse = 4.222\nsamples = 3\nvalue = 44.333", fillcolor="#e78b48"] ;
301 -> 302 ;
303 [label="mse = 0.0\nsamples = 1\nvalue = 42.0", fillcolor="#e89152"] ;
302 -> 303 ;
304 [label="Brand <= 99.5\nmse = 2.25\nsamples = 2\nvalue = 45.5", fillcolor="#e68843"] ;
302 -> 304 ;
305 [label="mse = 0.0\nsamples = 1\nvalue = 47.0", fillcolor="#e6843d"] ;
304 -> 305 ;
306 [label="mse = 0.0\nsamples = 1\nvalue = 44.0", fillcolor="#e78c4a"] ;
304 -> 306 ;
307 [label="Brand <= 111.5\nmse = 96.509\nsamples = 47\nvalue = 38.957", fillcolor="#ea995e"] ;
301 -> 307 ;
308 [label="Country <= 17.5\nmse = 101.401\nsamples = 44\nvalue = 39.091", fillcolor="#ea985e"] ;
307 -> 308 ;
309 [label="Style <= 4.5\nmse = 103.186\nsamples = 43\nvalue = 38.977", fillcolor="#ea995e"] ;
308 -> 309 ;
310 [label="mse = 52.64\nsamples = 5\nvalue = 39.6", fillcolor="#ea975c"] ;
309 -> 310 ;
311 [label="mse = 109.778\nsamples = 38\nvalue = 38.895", fillcolor="#ea995f"] ;
309 -> 311 ;
312 [label="mse = 0.0\nsamples = 1\nvalue = 44.0", fillcolor="#e78c4a"] ;
308 -> 312 ;
313 [label="mse = 20.667\nsamples = 3\nvalue = 37.0", fillcolor="#eb9e66"] ;
307 -> 313 ;
314 [label="Brand <= 121.0\nmse = 5.556\nsamples = 3\nvalue = 45.333", fillcolor="#e68844"] ;
292 -> 314 ;
315 [label="mse = 6.25\nsamples = 2\nvalue = 44.5", fillcolor="#e78a47"] ;
314 -> 315 ;
316 [label="mse = 0.0\nsamples = 1\nvalue = 47.0", fillcolor="#e6843d"] ;
314 -> 316 ;
317 [label="Brand <= 185.5\nmse = 115.943\nsamples = 94\nvalue = 35.404", fillcolor="#eca26d"] ;
291 -> 317 ;
318 [label="Style <= 4.5\nmse = 129.564\nsamples = 46\nvalue = 33.152", fillcolor="#eda876"] ;
317 -> 318 ;
319 [label="Country <= 17.5\nmse = 414.889\nsamples = 3\nvalue = 18.667", fillcolor="#f5ceb2"] ;
318 -> 319 ;
320 [label="Brand <= 168.5\nmse = 361.0\nsamples = 2\nvalue = 28.0", fillcolor="#f0b68c"] ;
319 -> 320 ;
321 [label="mse = 0.0\nsamples = 1\nvalue = 47.0", fillcolor="#e6843d"] ;
320 -> 321 ;
322 [label="mse = 0.0\nsamples = 1\nvalue = 9.0", fillcolor="#fae7da"] ;
320 -> 322 ;
323 [label="mse = 0.0\nsamples = 1\nvalue = 0.0", fillcolor="#ffffff"] ;
319 -> 323 ;
324 [label="Brand <= 170.5\nmse = 93.997\nsamples = 43\nvalue = 34.163", fillcolor="#eca572"] ;
318 -> 324 ;
325 [label="Brand <= 137.5\nmse = 43.974\nsamples = 25\nvalue = 36.84", fillcolor="#eb9e67"] ;
324 -> 325 ;
326 [label="mse = 0.0\nsamples = 1\nvalue = 17.0", fillcolor="#f6d2b9"] ;
325 -> 326 ;
327 [label="Brand <= 147.0\nmse = 28.722\nsamples = 24\nvalue = 37.667", fillcolor="#eb9c64"] ;
325 -> 327 ;
328 [label="mse = 9.0\nsamples = 2\nvalue = 41.0", fillcolor="#e99356"] ;
327 -> 328 ;
329 [label="Brand <= 160.5\nmse = 29.413\nsamples = 22\nvalue = 37.364", fillcolor="#eb9d65"] ;
327 -> 329 ;
330 [label="Brand <= 158.0\nmse = 7.5\nsamples = 8\nvalue = 35.5", fillcolor="#eca26d"] ;
329 -> 330 ;
331 [label="mse = 0.0\nsamples = 1\nvalue = 38.0", fillcolor="#ea9b62"] ;
330 -> 331 ;
332 [label="mse = 7.551\nsamples = 7\nvalue = 35.143", fillcolor="#eca36e"] ;
330 -> 332 ;
333 [label="Brand <= 162.5\nmse = 38.816\nsamples = 14\nvalue = 38.429", fillcolor="#ea9a60"] ;
329 -> 333 ;
334 [label="mse = 18.0\nsamples = 3\nvalue = 41.0", fillcolor="#e99356"] ;
333 -> 334 ;
335 [label="Country <= 17.5\nmse = 42.198\nsamples = 11\nvalue = 37.727", fillcolor="#eb9c63"] ;
333 -> 335 ;
336 [label="mse = 50.765\nsamples = 9\nvalue = 38.111", fillcolor="#ea9b62"] ;
335 -> 336 ;
337 [label="mse = 0.0\nsamples = 2\nvalue = 36.0", fillcolor="#eca06a"] ;
335 -> 337 ;
338 [label="Brand <= 178.0\nmse = 139.691\nsamples = 18\nvalue = 30.444", fillcolor="#efaf81"] ;
324 -> 338 ;
339 [label="mse = 0.0\nsamples = 1\nvalue = 2.0", fillcolor="#fefaf7"] ;
338 -> 339 ;
340 [label="Brand <= 184.5\nmse = 97.516\nsamples = 17\nvalue = 32.118", fillcolor="#eeab7b"] ;
338 -> 340 ;
341 [label="Brand <= 183.5\nmse = 96.812\nsamples = 16\nvalue = 32.75", fillcolor="#eda978"] ;
340 -> 341 ;
342 [label="mse = 97.182\nsamples = 15\nvalue = 32.133", fillcolor="#eeab7a"] ;
341 -> 342 ;
343 [label="mse = 0.0\nsamples = 1\nvalue = 42.0", fillcolor="#e89152"] ;
341 -> 343 ;
344 [label="mse = 0.0\nsamples = 1\nvalue = 22.0", fillcolor="#f3c5a4"] ;
340 -> 344 ;
345 [label="Style <= 4.5\nmse = 93.371\nsamples = 48\nvalue = 37.562", fillcolor="#eb9c64"] ;
317 -> 345 ;
346 [label="Brand <= 191.0\nmse = 77.868\nsamples = 23\nvalue = 40.043", fillcolor="#e9965a"] ;
345 -> 346 ;
347 [label="mse = 0.0\nsamples = 1\nvalue = 36.0", fillcolor="#eca06a"] ;
346 -> 347 ;
348 [label="mse = 80.63\nsamples = 22\nvalue = 40.227", fillcolor="#e99559"] ;
346 -> 348 ;
349 [label="Brand <= 196.0\nmse = 96.762\nsamples = 25\nvalue = 35.28", fillcolor="#eca26d"] ;
345 -> 349 ;
350 [label="Brand <= 189.0\nmse = 95.108\nsamples = 23\nvalue = 34.391", fillcolor="#eca571"] ;
349 -> 350 ;
351 [label="mse = 0.0\nsamples = 1\nvalue = 38.0", fillcolor="#ea9b62"] ;
350 -> 351 ;
352 [label="Country <= 17.5\nmse = 98.812\nsamples = 22\nvalue = 34.227", fillcolor="#eca572"] ;
350 -> 352 ;
353 [label="mse = 64.0\nsamples = 2\nvalue = 36.0", fillcolor="#eca06a"] ;
352 -> 353 ;
354 [label="mse = 101.947\nsamples = 20\nvalue = 34.05", fillcolor="#eda673"] ;
352 -> 354 ;
355 [label="mse = 2.25\nsamples = 2\nvalue = 45.5", fillcolor="#e68843"] ;
349 -> 355 ;
356 [label="Brand <= 163.0\nmse = 84.595\nsamples = 84\nvalue = 39.69", fillcolor="#ea975b"] ;
286 -> 356 ;
357 [label="Brand <= 37.0\nmse = 89.372\nsamples = 61\nvalue = 37.148", fillcolor="#eb9d66"] ;
356 -> 357 ;
358 [label="Brand <= 22.5\nmse = 2.5\nsamples = 8\nvalue = 46.0", fillcolor="#e68641"] ;
357 -> 358 ;
359 [label="mse = 0.0\nsamples = 2\nvalue = 44.0", fillcolor="#e78c4a"] ;
358 -> 359 ;
360 [label="mse = 1.556\nsamples = 6\nvalue = 46.667", fillcolor="#e6843e"] ;
358 -> 360 ;
361 [label="Brand <= 44.5\nmse = 88.87\nsamples = 53\nvalue = 35.811", fillcolor="#eca16b"] ;
357 -> 361 ;
362 [label="mse = 19.44\nsamples = 5\nvalue = 27.4", fillcolor="#f0b78e"] ;
361 -> 362 ;
363 [label="Brand <= 57.5\nmse = 87.965\nsamples = 48\nvalue = 36.688", fillcolor="#eb9f68"] ;
361 -> 363 ;
364 [label="Brand <= 46.5\nmse = 20.25\nsamples = 4\nvalue = 42.5", fillcolor="#e88f50"] ;
363 -> 364 ;
365 [label="mse = 0.0\nsamples = 1\nvalue = 38.0", fillcolor="#ea9b62"] ;
364 -> 365 ;
366 [label="Brand <= 52.0\nmse = 18.0\nsamples = 3\nvalue = 44.0", fillcolor="#e78c4a"] ;
364 -> 366 ;
367 [label="mse = 0.0\nsamples = 1\nvalue = 47.0", fillcolor="#e6843d"] ;
366 -> 367 ;
368 [label="mse = 20.25\nsamples = 2\nvalue = 42.5", fillcolor="#e88f50"] ;
366 -> 368 ;
369 [label="Brand <= 111.0\nmse = 90.77\nsamples = 44\nvalue = 36.159", fillcolor="#eba06a"] ;
363 -> 369 ;
370 [label="Brand <= 101.0\nmse = 78.312\nsamples = 16\nvalue = 35.25", fillcolor="#eca26e"] ;
369 -> 370 ;
371 [label="Brand <= 77.0\nmse = 24.694\nsamples = 7\nvalue = 37.143", fillcolor="#eb9e66"] ;
370 -> 371 ;
372 [label="Brand <= 59.0\nmse = 5.556\nsamples = 3\nvalue = 34.333", fillcolor="#eca571"] ;
371 -> 372 ;
373 [label="mse = 0.0\nsamples = 2\nvalue = 36.0", fillcolor="#eca06a"] ;
372 -> 373 ;
374 [label="mse = 0.0\nsamples = 1\nvalue = 31.0", fillcolor="#eeae7f"] ;
372 -> 374 ;
375 [label="mse = 28.688\nsamples = 4\nvalue = 39.25", fillcolor="#ea985d"] ;
371 -> 375 ;
376 [label="mse = 115.062\nsamples = 9\nvalue = 33.778", fillcolor="#eda674"] ;
370 -> 376 ;
377 [label="Brand <= 157.0\nmse = 97.147\nsamples = 28\nvalue = 36.679", fillcolor="#eb9f68"] ;
369 -> 377 ;
378 [label="Brand <= 134.5\nmse = 20.286\nsamples = 7\nvalue = 39.0", fillcolor="#ea995e"] ;
377 -> 378 ;
379 [label="mse = 0.0\nsamples = 1\nvalue = 38.0", fillcolor="#ea9b62"] ;
378 -> 379 ;
380 [label="Style <= 4.5\nmse = 23.472\nsamples = 6\nvalue = 39.167", fillcolor="#ea985d"] ;
378 -> 380 ;
381 [label="mse = 56.25\nsamples = 2\nvalue = 38.5", fillcolor="#ea9a60"] ;
380 -> 381 ;
382 [label="mse = 6.75\nsamples = 4\nvalue = 39.5", fillcolor="#ea975c"] ;
380 -> 382 ;
383 [label="Style <= 4.5\nmse = 120.372\nsamples = 21\nvalue = 35.905", fillcolor="#eca16b"] ;
377 -> 383 ;
384 [label="mse = 202.472\nsamples = 6\nvalue = 33.833", fillcolor="#eda673"] ;
383 -> 384 ;
385 [label="mse = 85.129\nsamples = 15\nvalue = 36.733", fillcolor="#eb9f67"] ;
383 -> 385 ;
386 [label="Brand <= 174.0\nmse = 9.289\nsamples = 23\nvalue = 46.435", fillcolor="#e6853f"] ;
356 -> 386 ;
387 [label="mse = 49.0\nsamples = 2\nvalue = 43.0", fillcolor="#e88e4e"] ;
386 -> 387 ;
388 [label="Brand <= 181.5\nmse = 4.277\nsamples = 21\nvalue = 46.762", fillcolor="#e6843e"] ;
386 -> 388 ;
389 [label="Style <= 4.5\nmse = 5.582\nsamples = 15\nvalue = 46.533", fillcolor="#e6853f"] ;
388 -> 389 ;
390 [label="mse = 1.556\nsamples = 3\nvalue = 47.333", fillcolor="#e5833c"] ;
389 -> 390 ;
391 [label="mse = 6.389\nsamples = 12\nvalue = 46.333", fillcolor="#e68540"] ;
389 -> 391 ;
392 [label="Brand <= 185.5\nmse = 0.556\nsamples = 6\nvalue = 47.333", fillcolor="#e5833c"] ;
388 -> 392 ;
393 [label="mse = 0.75\nsamples = 4\nvalue = 47.5", fillcolor="#e5823b"] ;
392 -> 393 ;
394 [label="mse = 0.0\nsamples = 2\nvalue = 47.0", fillcolor="#e6843d"] ;
392 -> 394 ;
395 [label="Brand <= 191.0\nmse = 17.467\nsamples = 13\nvalue = 43.615", fillcolor="#e78d4b"] ;
285 -> 395 ;
396 [label="Brand <= 171.5\nmse = 19.01\nsamples = 10\nvalue = 42.7", fillcolor="#e88f4f"] ;
395 -> 396 ;
397 [label="mse = 0.0\nsamples = 2\nvalue = 47.0", fillcolor="#e6843d"] ;
396 -> 397 ;
398 [label="Brand <= 186.5\nmse = 17.984\nsamples = 8\nvalue = 41.625", fillcolor="#e89253"] ;
396 -> 398 ;
399 [label="mse = 18.408\nsamples = 7\nvalue = 42.143", fillcolor="#e89051"] ;
398 -> 399 ;
400 [label="mse = 0.0\nsamples = 1\nvalue = 38.0", fillcolor="#ea9b62"] ;
398 -> 400 ;
401 [label="mse = 0.222\nsamples = 3\nvalue = 46.667", fillcolor="#e6843e"] ;
395 -> 401 ;
402 [label="Brand <= 280.5\nmse = 87.159\nsamples = 126\nvalue = 36.333", fillcolor="#eba069"] ;
254 -> 402 ;
403 [label="Brand <= 256.0\nmse = 84.009\nsamples = 65\nvalue = 34.077", fillcolor="#eda672"] ;
402 -> 403 ;
404 [label="Brand <= 209.0\nmse = 83.79\nsamples = 50\nvalue = 35.36", fillcolor="#eca26d"] ;
403 -> 404 ;
405 [label="Style <= 4.5\nmse = 30.25\nsamples = 2\nvalue = 22.5", fillcolor="#f3c4a2"] ;
404 -> 405 ;
406 [label="mse = 0.0\nsamples = 1\nvalue = 28.0", fillcolor="#f0b68c"] ;
405 -> 406 ;
407 [label="mse = 0.0\nsamples = 1\nvalue = 17.0", fillcolor="#f6d2b9"] ;
405 -> 407 ;
408 [label="Brand <= 248.0\nmse = 78.843\nsamples = 48\nvalue = 35.896", fillcolor="#eca16b"] ;
404 -> 408 ;
409 [label="Brand <= 244.5\nmse = 77.891\nsamples = 29\nvalue = 37.379", fillcolor="#eb9d65"] ;
408 -> 409 ;
410 [label="Brand <= 227.5\nmse = 98.234\nsamples = 16\nvalue = 34.875", fillcolor="#eca36f"] ;
409 -> 410 ;
411 [label="Style <= 5.5\nmse = 32.331\nsamples = 11\nvalue = 37.182", fillcolor="#eb9d66"] ;
410 -> 411 ;
412 [label="Brand <= 221.5\nmse = 24.96\nsamples = 10\nvalue = 36.2", fillcolor="#eba06a"] ;
411 -> 412 ;
413 [label="Brand <= 219.5\nmse = 20.222\nsamples = 9\nvalue = 35.333", fillcolor="#eca26d"] ;
412 -> 413 ;
414 [label="Style <= 4.5\nmse = 7.551\nsamples = 7\nvalue = 35.143", fillcolor="#eca36e"] ;
413 -> 414 ;
415 [label="mse = 0.0\nsamples = 2\nvalue = 36.0", fillcolor="#eca06a"] ;
414 -> 415 ;
416 [label="Country <= 18.0\nmse = 10.16\nsamples = 5\nvalue = 34.8", fillcolor="#eca46f"] ;
414 -> 416 ;
417 [label="mse = 8.667\nsamples = 3\nvalue = 35.0", fillcolor="#eca36f"] ;
416 -> 417 ;
418 [label="mse = 12.25\nsamples = 2\nvalue = 34.5", fillcolor="#eca471"] ;
416 -> 418 ;
419 [label="mse = 64.0\nsamples = 2\nvalue = 36.0", fillcolor="#eca06a"] ;
413 -> 419 ;
420 [label="mse = 0.0\nsamples = 1\nvalue = 44.0", fillcolor="#e78c4a"] ;
412 -> 420 ;
421 [label="mse = 0.0\nsamples = 1\nvalue = 47.0", fillcolor="#e6843d"] ;
411 -> 421 ;
422 [label="Brand <= 235.0\nmse = 205.76\nsamples = 5\nvalue = 29.8", fillcolor="#efb184"] ;
410 -> 422 ;
423 [label="mse = 0.0\nsamples = 1\nvalue = 2.0", fillcolor="#fefaf7"] ;
422 -> 423 ;
424 [label="Country <= 18.5\nmse = 15.688\nsamples = 4\nvalue = 36.75", fillcolor="#eb9f67"] ;
422 -> 424 ;
425 [label="mse = 0.0\nsamples = 1\nvalue = 31.0", fillcolor="#eeae7f"] ;
424 -> 425 ;
426 [label="Brand <= 239.5\nmse = 6.222\nsamples = 3\nvalue = 38.667", fillcolor="#ea9a60"] ;
424 -> 426 ;
427 [label="mse = 0.0\nsamples = 1\nvalue = 36.0", fillcolor="#eca06a"] ;
426 -> 427 ;
428 [label="mse = 4.0\nsamples = 2\nvalue = 40.0", fillcolor="#e9965a"] ;
426 -> 428 ;
429 [label="Country <= 17.5\nmse = 35.633\nsamples = 13\nvalue = 40.462", fillcolor="#e99558"] ;
409 -> 429 ;
430 [label="mse = 6.25\nsamples = 2\nvalue = 44.5", fillcolor="#e78a47"] ;
429 -> 430 ;
431 [label="Brand <= 246.0\nmse = 37.471\nsamples = 11\nvalue = 39.727", fillcolor="#e9975b"] ;
429 -> 431 ;
432 [label="Style <= 3.0\nmse = 40.89\nsamples = 10\nvalue = 39.9", fillcolor="#e9965a"] ;
431 -> 432 ;
433 [label="mse = 4.0\nsamples = 2\nvalue = 40.0", fillcolor="#e9965a"] ;
432 -> 433 ;
434 [label="mse = 50.109\nsamples = 8\nvalue = 39.875", fillcolor="#e9965b"] ;
432 -> 434 ;
435 [label="mse = 0.0\nsamples = 1\nvalue = 38.0", fillcolor="#ea9b62"] ;
431 -> 435 ;
436 [label="Brand <= 249.5\nmse = 71.812\nsamples = 19\nvalue = 33.632", fillcolor="#eda774"] ;
408 -> 436 ;
437 [label="mse = 81.0\nsamples = 2\nvalue = 27.0", fillcolor="#f0b890"] ;
436 -> 437 ;
438 [label="Brand <= 252.0\nmse = 64.948\nsamples = 17\nvalue = 34.412", fillcolor="#eca571"] ;
436 -> 438 ;
439 [label="mse = 0.0\nsamples = 1\nvalue = 38.0", fillcolor="#ea9b62"] ;
438 -> 439 ;
440 [label="Style <= 2.5\nmse = 68.152\nsamples = 16\nvalue = 34.188", fillcolor="#eca572"] ;
438 -> 440 ;
441 [label="mse = 64.0\nsamples = 2\nvalue = 30.0", fillcolor="#efb083"] ;
440 -> 441 ;
442 [label="Country <= 17.5\nmse = 65.883\nsamples = 14\nvalue = 34.786", fillcolor="#eca470"] ;
440 -> 442 ;
443 [label="mse = 35.333\nsamples = 6\nvalue = 35.0", fillcolor="#eca36f"] ;
442 -> 443 ;
444 [label="Style <= 4.5\nmse = 88.734\nsamples = 8\nvalue = 34.625", fillcolor="#eca470"] ;
442 -> 444 ;
445 [label="mse = 12.25\nsamples = 2\nvalue = 34.5", fillcolor="#eca471"] ;
444 -> 445 ;
446 [label="mse = 114.222\nsamples = 6\nvalue = 34.667", fillcolor="#eca470"] ;
444 -> 446 ;
447 [label="Style <= 2.5\nmse = 60.96\nsamples = 15\nvalue = 29.8", fillcolor="#efb184"] ;
403 -> 447 ;
448 [label="Brand <= 268.0\nmse = 74.0\nsamples = 4\nvalue = 36.0", fillcolor="#eca06a"] ;
447 -> 448 ;
449 [label="mse = 70.222\nsamples = 3\nvalue = 33.333", fillcolor="#eda875"] ;
448 -> 449 ;
450 [label="mse = 0.0\nsamples = 1\nvalue = 44.0", fillcolor="#e78c4a"] ;
448 -> 450 ;
451 [label="Brand <= 259.5\nmse = 37.157\nsamples = 11\nvalue = 27.545", fillcolor="#f0b78d"] ;
447 -> 451 ;
452 [label="mse = 0.0\nsamples = 1\nvalue = 17.0", fillcolor="#f6d2b9"] ;
451 -> 452 ;
453 [label="Brand <= 265.5\nmse = 28.64\nsamples = 10\nvalue = 28.6", fillcolor="#f0b489"] ;
451 -> 453 ;
454 [label="mse = 42.75\nsamples = 4\nvalue = 27.5", fillcolor="#f0b78e"] ;
453 -> 454 ;
455 [label="Brand <= 271.5\nmse = 17.889\nsamples = 6\nvalue = 29.333", fillcolor="#efb286"] ;
453 -> 455 ;
456 [label="mse = 0.0\nsamples = 1\nvalue = 31.0", fillcolor="#eeae7f"] ;
455 -> 456 ;
457 [label="Brand <= 277.0\nmse = 20.8\nsamples = 5\nvalue = 29.0", fillcolor="#efb387"] ;
455 -> 457 ;
458 [label="mse = 0.0\nsamples = 1\nvalue = 28.0", fillcolor="#f0b68c"] ;
457 -> 458 ;
459 [label="mse = 25.688\nsamples = 4\nvalue = 29.25", fillcolor="#efb286"] ;
457 -> 459 ;
460 [label="Brand <= 335.5\nmse = 79.308\nsamples = 61\nvalue = 38.738", fillcolor="#ea995f"] ;
402 -> 460 ;
461 [label="Style <= 1.5\nmse = 85.058\nsamples = 53\nvalue = 38.132", fillcolor="#ea9b62"] ;
460 -> 461 ;
462 [label="Brand <= 297.0\nmse = 234.16\nsamples = 5\nvalue = 30.8", fillcolor="#eeae80"] ;
461 -> 462 ;
463 [label="mse = 9.0\nsamples = 2\nvalue = 41.0", fillcolor="#e99356"] ;
462 -> 463 ;
464 [label="Brand <= 307.5\nmse = 268.667\nsamples = 3\nvalue = 24.0", fillcolor="#f2c09c"] ;
462 -> 464 ;
465 [label="mse = 0.0\nsamples = 1\nvalue = 15.0", fillcolor="#f7d8c1"] ;
464 -> 465 ;
466 [label="mse = 342.25\nsamples = 2\nvalue = 28.5", fillcolor="#f0b489"] ;
464 -> 466 ;
467 [label="Brand <= 308.5\nmse = 63.343\nsamples = 48\nvalue = 38.896", fillcolor="#ea995f"] ;
461 -> 467 ;
468 [label="Brand <= 295.0\nmse = 30.933\nsamples = 27\nvalue = 40.259", fillcolor="#e99559"] ;
467 -> 468 ;
469 [label="Brand <= 288.5\nmse = 29.915\nsamples = 24\nvalue = 39.542", fillcolor="#ea975c"] ;
468 -> 469 ;
470 [label="Brand <= 284.5\nmse = 17.472\nsamples = 12\nvalue = 40.833", fillcolor="#e99457"] ;
469 -> 470 ;
471 [label="Brand <= 281.5\nmse = 13.21\nsamples = 10\nvalue = 39.7", fillcolor="#e9975b"] ;
470 -> 471 ;
472 [label="mse = 14.222\nsamples = 3\nvalue = 41.333", fillcolor="#e99254"] ;
471 -> 472 ;
473 [label="mse = 11.143\nsamples = 7\nvalue = 39.0", fillcolor="#ea995e"] ;
471 -> 473 ;
474 [label="Brand <= 287.5\nmse = 0.25\nsamples = 2\nvalue = 46.5", fillcolor="#e6853f"] ;
470 -> 474 ;
475 [label="mse = 0.0\nsamples = 1\nvalue = 46.0", fillcolor="#e68641"] ;
474 -> 475 ;
476 [label="mse = 0.0\nsamples = 1\nvalue = 47.0", fillcolor="#e6843d"] ;
474 -> 476 ;
477 [label="mse = 39.021\nsamples = 12\nvalue = 38.25", fillcolor="#ea9b61"] ;
469 -> 477 ;
478 [label="Brand <= 305.5\nmse = 2.0\nsamples = 3\nvalue = 46.0", fillcolor="#e68641"] ;
468 -> 478 ;
479 [label="mse = 0.0\nsamples = 2\nvalue = 47.0", fillcolor="#e6843d"] ;
478 -> 479 ;
480 [label="mse = 0.0\nsamples = 1\nvalue = 44.0", fillcolor="#e78c4a"] ;
478 -> 480 ;
481 [label="Brand <= 309.5\nmse = 99.551\nsamples = 21\nvalue = 37.143", fillcolor="#eb9e66"] ;
467 -> 481 ;
482 [label="mse = 154.25\nsamples = 4\nvalue = 29.5", fillcolor="#efb285"] ;
481 -> 482 ;
483 [label="Brand <= 311.5\nmse = 69.702\nsamples = 17\nvalue = 38.941", fillcolor="#ea995e"] ;
481 -> 483 ;
484 [label="mse = 0.0\nsamples = 1\nvalue = 47.0", fillcolor="#e6843d"] ;
483 -> 484 ;
485 [label="Brand <= 324.0\nmse = 69.746\nsamples = 16\nvalue = 38.438", fillcolor="#ea9a60"] ;
483 -> 485 ;
486 [label="Country <= 18.0\nmse = 62.75\nsamples = 4\nvalue = 34.5", fillcolor="#eca471"] ;
485 -> 486 ;
487 [label="mse = 0.0\nsamples = 2\nvalue = 36.0", fillcolor="#eca06a"] ;
486 -> 487 ;
488 [label="mse = 121.0\nsamples = 2\nvalue = 33.0", fillcolor="#eda877"] ;
486 -> 488 ;
489 [label="mse = 65.188\nsamples = 12\nvalue = 39.75", fillcolor="#e9975b"] ;
485 -> 489 ;
490 [label="Brand <= 348.5\nmse = 22.688\nsamples = 8\nvalue = 42.75", fillcolor="#e88f4f"] ;
460 -> 490 ;
491 [label="Country <= 17.5\nmse = 1.688\nsamples = 4\nvalue = 45.25", fillcolor="#e68844"] ;
490 -> 491 ;
492 [label="mse = 2.25\nsamples = 2\nvalue = 45.5", fillcolor="#e68843"] ;
491 -> 492 ;
493 [label="mse = 1.0\nsamples = 2\nvalue = 45.0", fillcolor="#e78945"] ;
491 -> 493 ;
494 [label="mse = 31.188\nsamples = 4\nvalue = 40.25", fillcolor="#e99559"] ;
490 -> 494 ;
495 [label="Brand <= 318.5\nmse = 127.468\nsamples = 623\nvalue = 34.014", fillcolor="#eda673"] ;
235 -> 495 ;
496 [label="Country <= 27.5\nmse = 123.254\nsamples = 539\nvalue = 34.807", fillcolor="#eca46f"] ;
495 -> 496 ;
497 [label="Country <= 22.5\nmse = 127.562\nsamples = 104\nvalue = 30.231", fillcolor="#efb082"] ;
496 -> 497 ;
498 [label="Brand <= 147.0\nmse = 70.878\nsamples = 46\nvalue = 34.761", fillcolor="#eca470"] ;
497 -> 498 ;
499 [label="Brand <= 78.0\nmse = 97.076\nsamples = 12\nvalue = 31.417", fillcolor="#eead7d"] ;
498 -> 499 ;
500 [label="mse = 97.107\nsamples = 11\nvalue = 32.273", fillcolor="#eeaa7a"] ;
499 -> 500 ;
501 [label="mse = 0.0\nsamples = 1\nvalue = 22.0", fillcolor="#f3c5a4"] ;
499 -> 501 ;
502 [label="Brand <= 199.0\nmse = 56.291\nsamples = 34\nvalue = 35.941", fillcolor="#eca16b"] ;
498 -> 502 ;
503 [label="Brand <= 155.5\nmse = 62.889\nsamples = 30\nvalue = 35.667", fillcolor="#eca16c"] ;
502 -> 503 ;
504 [label="Style <= 4.5\nmse = 113.506\nsamples = 9\nvalue = 35.222", fillcolor="#eca36e"] ;
503 -> 504 ;
505 [label="mse = 0.0\nsamples = 1\nvalue = 36.0", fillcolor="#eca06a"] ;
504 -> 505 ;
506 [label="mse = 127.609\nsamples = 8\nvalue = 35.125", fillcolor="#eca36e"] ;
504 -> 506 ;
507 [label="Country <= 20.5\nmse = 41.075\nsamples = 21\nvalue = 35.857", fillcolor="#eca16b"] ;
503 -> 507 ;
508 [label="Brand <= 176.0\nmse = 37.496\nsamples = 16\nvalue = 35.562", fillcolor="#eca26c"] ;
507 -> 508 ;
509 [label="mse = 0.0\nsamples = 1\nvalue = 31.0", fillcolor="#eeae7f"] ;
508 -> 509 ;
510 [label="Style <= 4.5\nmse = 38.516\nsamples = 15\nvalue = 35.867", fillcolor="#eca16b"] ;
508 -> 510 ;
511 [label="mse = 46.722\nsamples = 12\nvalue = 35.333", fillcolor="#eca26d"] ;
510 -> 511 ;
512 [label="mse = 0.0\nsamples = 3\nvalue = 38.0", fillcolor="#ea9b62"] ;
510 -> 512 ;
513 [label="Style <= 4.5\nmse = 51.36\nsamples = 5\nvalue = 36.8", fillcolor="#eb9e67"] ;
507 -> 513 ;
514 [label="mse = 64.0\nsamples = 2\nvalue = 39.0", fillcolor="#ea995e"] ;
513 -> 514 ;
515 [label="mse = 37.556\nsamples = 3\nvalue = 35.333", fillcolor="#eca26d"] ;
513 -> 515 ;
516 [label="mse = 2.0\nsamples = 4\nvalue = 38.0", fillcolor="#ea9b62"] ;
502 -> 516 ;
517 [label="Country <= 24.5\nmse = 143.334\nsamples = 58\nvalue = 26.638", fillcolor="#f1b991"] ;
497 -> 517 ;
518 [label="Brand <= 77.0\nmse = 88.444\nsamples = 9\nvalue = 14.667", fillcolor="#f7d8c2"] ;
517 -> 518 ;
519 [label="Style <= 4.5\nmse = 104.25\nsamples = 4\nvalue = 19.5", fillcolor="#f4ccaf"] ;
518 -> 519 ;
520 [label="mse = 90.25\nsamples = 2\nvalue = 12.5", fillcolor="#f8decb"] ;
519 -> 520 ;
521 [label="mse = 20.25\nsamples = 2\nvalue = 26.5", fillcolor="#f1b992"] ;
519 -> 521 ;
522 [label="Brand <= 121.5\nmse = 42.16\nsamples = 5\nvalue = 10.8", fillcolor="#f9e3d2"] ;
518 -> 522 ;
523 [label="mse = 0.0\nsamples = 1\nvalue = 9.0", fillcolor="#fae7da"] ;
522 -> 523 ;
524 [label="mse = 51.688\nsamples = 4\nvalue = 11.25", fillcolor="#f9e1d1"] ;
522 -> 524 ;
525 [label="Style <= 2.5\nmse = 122.259\nsamples = 49\nvalue = 28.837", fillcolor="#efb388"] ;
517 -> 525 ;
526 [label="mse = 16.139\nsamples = 6\nvalue = 32.833", fillcolor="#eda978"] ;
525 -> 526 ;
527 [label="Style <= 4.5\nmse = 134.527\nsamples = 43\nvalue = 28.279", fillcolor="#f0b58a"] ;
525 -> 527 ;
528 [label="Brand <= 201.5\nmse = 60.222\nsamples = 3\nvalue = 21.667", fillcolor="#f3c6a6"] ;
527 -> 528 ;
529 [label="mse = 0.0\nsamples = 1\nvalue = 12.0", fillcolor="#f8e0ce"] ;
528 -> 529 ;
530 [label="Brand <= 220.5\nmse = 20.25\nsamples = 2\nvalue = 26.5", fillcolor="#f1b992"] ;
528 -> 530 ;
531 [label="mse = 0.0\nsamples = 1\nvalue = 31.0", fillcolor="#eeae7f"] ;
530 -> 531 ;
532 [label="mse = 0.0\nsamples = 1\nvalue = 22.0", fillcolor="#f3c5a4"] ;
530 -> 532 ;
533 [label="Brand <= 164.0\nmse = 136.574\nsamples = 40\nvalue = 28.775", fillcolor="#efb388"] ;
527 -> 533 ;
534 [label="Country <= 25.5\nmse = 147.834\nsamples = 25\nvalue = 27.92", fillcolor="#f0b68c"] ;
533 -> 534 ;
535 [label="mse = 0.0\nsamples = 2\nvalue = 22.0", fillcolor="#f3c5a4"] ;
534 -> 535 ;
536 [label="Brand <= 82.5\nmse = 157.376\nsamples = 23\nvalue = 28.435", fillcolor="#f0b48a"] ;
534 -> 536 ;
537 [label="mse = 22.222\nsamples = 3\nvalue = 31.333", fillcolor="#eead7e"] ;
536 -> 537 ;
538 [label="mse = 176.2\nsamples = 20\nvalue = 28.0", fillcolor="#f0b68c"] ;
536 -> 538 ;
539 [label="Brand <= 222.0\nmse = 114.56\nsamples = 15\nvalue = 30.2", fillcolor="#efb082"] ;
533 -> 539 ;
540 [label="Country <= 25.5\nmse = 86.333\nsamples = 6\nvalue = 35.0", fillcolor="#eca36f"] ;
539 -> 540 ;
541 [label="mse = 0.0\nsamples = 1\nvalue = 38.0", fillcolor="#ea9b62"] ;
540 -> 541 ;
542 [label="mse = 101.44\nsamples = 5\nvalue = 34.4", fillcolor="#eca571"] ;
540 -> 542 ;
543 [label="Country <= 25.5\nmse = 107.778\nsamples = 9\nvalue = 27.0", fillcolor="#f0b890"] ;
539 -> 543 ;
544 [label="mse = 19.84\nsamples = 5\nvalue = 26.6", fillcolor="#f1b991"] ;
543 -> 544 ;
545 [label="mse = 217.25\nsamples = 4\nvalue = 27.5", fillcolor="#f0b78e"] ;
543 -> 545 ;
546 [label="Country <= 29.5\nmse = 116.02\nsamples = 435\nvalue = 35.901", fillcolor="#eca16b"] ;
496 -> 546 ;
547 [label="Brand <= 208.0\nmse = 80.164\nsamples = 88\nvalue = 38.83", fillcolor="#ea995f"] ;
546 -> 547 ;
548 [label="Brand <= 127.0\nmse = 75.01\nsamples = 76\nvalue = 38.263", fillcolor="#ea9b61"] ;
547 -> 548 ;
549 [label="Style <= 4.5\nmse = 83.428\nsamples = 20\nvalue = 39.85", fillcolor="#e9965b"] ;
548 -> 549 ;
550 [label="Style <= 2.5\nmse = 53.432\nsamples = 9\nvalue = 43.111", fillcolor="#e88e4d"] ;
549 -> 550 ;
551 [label="mse = 80.222\nsamples = 3\nvalue = 40.667", fillcolor="#e99457"] ;
550 -> 551 ;
552 [label="mse = 35.556\nsamples = 6\nvalue = 44.333", fillcolor="#e78b48"] ;
550 -> 552 ;
553 [label="Brand <= 108.0\nmse = 92.149\nsamples = 11\nvalue = 37.182", fillcolor="#eb9d66"] ;
549 -> 553 ;
554 [label="mse = 0.0\nsamples = 1\nvalue = 38.0", fillcolor="#ea9b62"] ;
553 -> 554 ;
555 [label="mse = 101.29\nsamples = 10\nvalue = 37.1", fillcolor="#eb9e66"] ;
553 -> 555 ;
556 [label="Brand <= 144.5\nmse = 70.783\nsamples = 56\nvalue = 37.696", fillcolor="#eb9c64"] ;
548 -> 556 ;
557 [label="Style <= 4.5\nmse = 119.049\nsamples = 15\nvalue = 33.867", fillcolor="#eda673"] ;
556 -> 557 ;
558 [label="Style <= 2.5\nmse = 72.4\nsamples = 5\nvalue = 28.0", fillcolor="#f0b68c"] ;
557 -> 558 ;
559 [label="mse = 66.889\nsamples = 3\nvalue = 31.667", fillcolor="#eeac7c"] ;
558 -> 559 ;
560 [label="mse = 30.25\nsamples = 2\nvalue = 22.5", fillcolor="#f3c4a2"] ;
558 -> 560 ;
561 [label="mse = 116.56\nsamples = 10\nvalue = 36.8", fillcolor="#eb9e67"] ;
557 -> 561 ;
562 [label="Brand <= 182.0\nmse = 45.795\nsamples = 41\nvalue = 39.098", fillcolor="#ea985e"] ;
556 -> 562 ;
563 [label="Brand <= 168.0\nmse = 42.4\nsamples = 5\nvalue = 42.0", fillcolor="#e89152"] ;
562 -> 563 ;
564 [label="mse = 45.188\nsamples = 4\nvalue = 40.75", fillcolor="#e99457"] ;
563 -> 564 ;
565 [label="mse = 0.0\nsamples = 1\nvalue = 47.0", fillcolor="#e6843d"] ;
563 -> 565 ;
566 [label="Style <= 4.5\nmse = 44.934\nsamples = 36\nvalue = 38.694", fillcolor="#ea995f"] ;
562 -> 566 ;
567 [label="Brand <= 187.5\nmse = 30.347\nsamples = 14\nvalue = 39.714", fillcolor="#e9975b"] ;
566 -> 567 ;
568 [label="mse = 21.556\nsamples = 3\nvalue = 42.333", fillcolor="#e89050"] ;
567 -> 568 ;
569 [label="Style <= 2.5\nmse = 30.364\nsamples = 11\nvalue = 39.0", fillcolor="#ea995e"] ;
567 -> 569 ;
570 [label="mse = 0.0\nsamples = 1\nvalue = 36.0", fillcolor="#eca06a"] ;
569 -> 570 ;
571 [label="mse = 32.41\nsamples = 10\nvalue = 39.3", fillcolor="#ea985d"] ;
569 -> 571 ;
572 [label="Brand <= 187.5\nmse = 53.134\nsamples = 22\nvalue = 38.045", fillcolor="#ea9b62"] ;
566 -> 572 ;
573 [label="mse = 45.653\nsamples = 11\nvalue = 37.273", fillcolor="#eb9d65"] ;
572 -> 573 ;
574 [label="mse = 59.421\nsamples = 11\nvalue = 38.818", fillcolor="#ea995f"] ;
572 -> 574 ;
575 [label="Style <= 4.5\nmse = 97.91\nsamples = 12\nvalue = 42.417", fillcolor="#e89050"] ;
547 -> 575 ;
576 [label="mse = 144.0\nsamples = 2\nvalue = 24.0", fillcolor="#f2c09c"] ;
575 -> 576 ;
577 [label="Country <= 28.5\nmse = 7.29\nsamples = 10\nvalue = 46.1", fillcolor="#e68641"] ;
575 -> 577 ;
578 [label="mse = 20.25\nsamples = 2\nvalue = 42.5", fillcolor="#e88f50"] ;
577 -> 578 ;
579 [label="mse = 0.0\nsamples = 8\nvalue = 47.0", fillcolor="#e6843d"] ;
577 -> 579 ;
580 [label="Style <= 5.5\nmse = 122.387\nsamples = 347\nvalue = 35.159", fillcolor="#eca36e"] ;
546 -> 580 ;
581 [label="Brand <= 99.5\nmse = 119.648\nsamples = 331\nvalue = 35.435", fillcolor="#eca26d"] ;
580 -> 581 ;
582 [label="Style <= 4.5\nmse = 63.216\nsamples = 66\nvalue = 38.106", fillcolor="#ea9b62"] ;
581 -> 582 ;
583 [label="Style <= 2.5\nmse = 79.136\nsamples = 9\nvalue = 32.556", fillcolor="#edaa79"] ;
582 -> 583 ;
584 [label="Brand <= 89.0\nmse = 20.96\nsamples = 5\nvalue = 38.2", fillcolor="#ea9b61"] ;
583 -> 584 ;
585 [label="Brand <= 33.5\nmse = 10.0\nsamples = 4\nvalue = 40.0", fillcolor="#e9965a"] ;
584 -> 585 ;
586 [label="mse = 0.0\nsamples = 1\nvalue = 36.0", fillcolor="#eca06a"] ;
585 -> 586 ;
587 [label="Brand <= 70.0\nmse = 6.222\nsamples = 3\nvalue = 41.333", fillcolor="#e99254"] ;
585 -> 587 ;
588 [label="Brand <= 46.0\nmse = 1.0\nsamples = 2\nvalue = 43.0", fillcolor="#e88e4e"] ;
587 -> 588 ;
589 [label="mse = 0.0\nsamples = 1\nvalue = 42.0", fillcolor="#e89152"] ;
588 -> 589 ;
590 [label="mse = 0.0\nsamples = 1\nvalue = 44.0", fillcolor="#e78c4a"] ;
588 -> 590 ;
591 [label="mse = 0.0\nsamples = 1\nvalue = 38.0", fillcolor="#ea9b62"] ;
587 -> 591 ;
592 [label="mse = 0.0\nsamples = 1\nvalue = 31.0", fillcolor="#eeae7f"] ;
584 -> 592 ;
593 [label="Brand <= 44.5\nmse = 62.25\nsamples = 4\nvalue = 25.5", fillcolor="#f1bc96"] ;
583 -> 593 ;
594 [label="mse = 0.0\nsamples = 1\nvalue = 12.0", fillcolor="#f8e0ce"] ;
593 -> 594 ;
595 [label="mse = 2.0\nsamples = 3\nvalue = 30.0", fillcolor="#efb083"] ;
593 -> 595 ;
596 [label="Brand <= 7.5\nmse = 55.07\nsamples = 57\nvalue = 38.982", fillcolor="#ea995e"] ;
582 -> 596 ;
597 [label="mse = 28.277\nsamples = 21\nvalue = 40.238", fillcolor="#e99559"] ;
596 -> 597 ;
598 [label="Brand <= 44.0\nmse = 69.243\nsamples = 36\nvalue = 38.25", fillcolor="#ea9b61"] ;
596 -> 598 ;
599 [label="Brand <= 35.5\nmse = 115.633\nsamples = 14\nvalue = 35.714", fillcolor="#eca16c"] ;
598 -> 599 ;
600 [label="Brand <= 22.5\nmse = 51.385\nsamples = 13\nvalue = 38.0", fillcolor="#ea9b62"] ;
599 -> 600 ;
601 [label="mse = 39.654\nsamples = 9\nvalue = 37.889", fillcolor="#ea9c63"] ;
600 -> 601 ;
602 [label="mse = 77.688\nsamples = 4\nvalue = 38.25", fillcolor="#ea9b61"] ;
600 -> 602 ;
603 [label="mse = 0.0\nsamples = 1\nvalue = 6.0", fillcolor="#fcefe6"] ;
599 -> 603 ;
604 [label="Country <= 31.0\nmse = 33.027\nsamples = 22\nvalue = 39.864", fillcolor="#e9965b"] ;
598 -> 604 ;
605 [label="Brand <= 68.5\nmse = 6.222\nsamples = 6\nvalue = 38.667", fillcolor="#ea9a60"] ;
604 -> 605 ;
606 [label="mse = 1.0\nsamples = 2\nvalue = 37.0", fillcolor="#eb9e66"] ;
605 -> 606 ;
607 [label="Brand <= 87.0\nmse = 6.75\nsamples = 4\nvalue = 39.5", fillcolor="#ea975c"] ;
605 -> 607 ;
608 [label="mse = 9.0\nsamples = 2\nvalue = 41.0", fillcolor="#e99356"] ;
607 -> 608 ;
609 [label="mse = 0.0\nsamples = 2\nvalue = 38.0", fillcolor="#ea9b62"] ;
607 -> 609 ;
610 [label="Brand <= 85.0\nmse = 42.34\nsamples = 16\nvalue = 40.312", fillcolor="#e99559"] ;
604 -> 610 ;
611 [label="Brand <= 71.5\nmse = 43.638\nsamples = 14\nvalue = 39.929", fillcolor="#e9965a"] ;
610 -> 611 ;
612 [label="Brand <= 59.5\nmse = 40.391\nsamples = 13\nvalue = 40.615", fillcolor="#e99457"] ;
611 -> 612 ;
613 [label="mse = 46.09\nsamples = 10\nvalue = 39.9", fillcolor="#e9965a"] ;
612 -> 613 ;
614 [label="mse = 14.0\nsamples = 3\nvalue = 43.0", fillcolor="#e88e4e"] ;
612 -> 614 ;
615 [label="mse = 0.0\nsamples = 1\nvalue = 31.0", fillcolor="#eeae7f"] ;
611 -> 615 ;
616 [label="mse = 25.0\nsamples = 2\nvalue = 43.0", fillcolor="#e88e4e"] ;
610 -> 616 ;
617 [label="Brand <= 309.5\nmse = 131.483\nsamples = 265\nvalue = 34.77", fillcolor="#eca470"] ;
581 -> 617 ;
618 [label="Brand <= 299.0\nmse = 129.516\nsamples = 251\nvalue = 34.474", fillcolor="#eca571"] ;
617 -> 618 ;
619 [label="Brand <= 252.5\nmse = 125.261\nsamples = 250\nvalue = 34.612", fillcolor="#eca470"] ;
618 -> 619 ;
620 [label="Brand <= 248.5\nmse = 117.538\nsamples = 232\nvalue = 34.97", fillcolor="#eca36f"] ;
619 -> 620 ;
621 [label="Brand <= 233.0\nmse = 124.003\nsamples = 193\nvalue = 34.15", fillcolor="#eda572"] ;
620 -> 621 ;
622 [label="Brand <= 207.0\nmse = 121.862\nsamples = 177\nvalue = 34.746", fillcolor="#eca470"] ;
621 -> 622 ;
623 [label="Brand <= 205.0\nmse = 136.525\nsamples = 123\nvalue = 33.537", fillcolor="#eda775"] ;
622 -> 623 ;
624 [label="Brand <= 112.0\nmse = 126.325\nsamples = 89\nvalue = 35.213", fillcolor="#eca36e"] ;
623 -> 624 ;
625 [label="Country <= 31.5\nmse = 161.265\nsamples = 7\nvalue = 27.857", fillcolor="#f0b68c"] ;
624 -> 625 ;
626 [label="Brand <= 103.5\nmse = 37.25\nsamples = 6\nvalue = 32.5", fillcolor="#edaa79"] ;
625 -> 626 ;
627 [label="mse = 9.188\nsamples = 4\nvalue = 36.25", fillcolor="#eba069"] ;
626 -> 627 ;
628 [label="mse = 9.0\nsamples = 2\nvalue = 25.0", fillcolor="#f1bd98"] ;
626 -> 628 ;
629 [label="mse = 0.0\nsamples = 1\nvalue = 0.0", fillcolor="#ffffff"] ;
625 -> 629 ;
630 [label="Brand <= 118.5\nmse = 118.329\nsamples = 82\nvalue = 35.841", fillcolor="#eca16b"] ;
624 -> 630 ;
631 [label="mse = 19.837\nsamples = 7\nvalue = 43.143", fillcolor="#e88e4d"] ;
630 -> 631 ;
632 [label="Brand <= 151.0\nmse = 122.081\nsamples = 75\nvalue = 35.16", fillcolor="#eca36e"] ;
630 -> 632 ;
633 [label="Brand <= 148.0\nmse = 256.198\nsamples = 11\nvalue = 28.273", fillcolor="#f0b58a"] ;
632 -> 633 ;
634 [label="Style <= 3.0\nmse = 252.688\nsamples = 8\nvalue = 32.75", fillcolor="#eda978"] ;
633 -> 634 ;
635 [label="mse = 0.0\nsamples = 1\nvalue = 47.0", fillcolor="#e6843d"] ;
634 -> 635 ;
636 [label="Brand <= 135.5\nmse = 255.633\nsamples = 7\nvalue = 30.714", fillcolor="#eeae80"] ;
634 -> 636 ;
637 [label="Brand <= 125.5\nmse = 245.2\nsamples = 5\nvalue = 35.0", fillcolor="#eca36f"] ;
636 -> 637 ;
638 [label="Brand <= 122.0\nmse = 248.667\nsamples = 3\nvalue = 27.0", fillcolor="#f0b890"] ;
637 -> 638 ;
639 [label="mse = 361.0\nsamples = 2\nvalue = 25.0", fillcolor="#f1bd98"] ;
638 -> 639 ;
640 [label="mse = 0.0\nsamples = 1\nvalue = 31.0", fillcolor="#eeae7f"] ;
638 -> 640 ;
641 [label="mse = 0.0\nsamples = 2\nvalue = 47.0", fillcolor="#e6843d"] ;
637 -> 641 ;
642 [label="Brand <= 145.5\nmse = 121.0\nsamples = 2\nvalue = 20.0", fillcolor="#f4caac"] ;
636 -> 642 ;
643 [label="mse = 0.0\nsamples = 1\nvalue = 9.0", fillcolor="#fae7da"] ;
642 -> 643 ;
644 [label="mse = 0.0\nsamples = 1\nvalue = 31.0", fillcolor="#eeae7f"] ;
642 -> 644 ;
645 [label="Brand <= 149.5\nmse = 69.556\nsamples = 3\nvalue = 16.333", fillcolor="#f6d4bc"] ;
633 -> 645 ;
646 [label="mse = 64.0\nsamples = 2\nvalue = 20.0", fillcolor="#f4caac"] ;
645 -> 646 ;
647 [label="mse = 0.0\nsamples = 1\nvalue = 9.0", fillcolor="#fae7da"] ;
645 -> 647 ;
648 [label="Style <= 2.5\nmse = 89.476\nsamples = 64\nvalue = 36.344", fillcolor="#eba069"] ;
632 -> 648 ;
649 [label="Country <= 31.0\nmse = 159.438\nsamples = 8\nvalue = 28.25", fillcolor="#f0b58a"] ;
648 -> 649 ;
650 [label="mse = 69.714\nsamples = 7\nvalue = 32.0", fillcolor="#eeab7b"] ;
649 -> 650 ;
651 [label="mse = 0.0\nsamples = 1\nvalue = 2.0", fillcolor="#fefaf7"] ;
649 -> 651 ;
652 [label="Country <= 31.0\nmse = 68.786\nsamples = 56\nvalue = 37.5", fillcolor="#eb9d64"] ;
648 -> 652 ;
653 [label="Brand <= 195.5\nmse = 69.663\nsamples = 44\nvalue = 35.795", fillcolor="#eca16b"] ;
652 -> 653 ;
654 [label="Brand <= 186.5\nmse = 59.049\nsamples = 41\nvalue = 36.78", fillcolor="#eb9e67"] ;
653 -> 654 ;
655 [label="Brand <= 174.0\nmse = 26.8\nsamples = 5\nvalue = 26.0", fillcolor="#f1bb94"] ;
654 -> 655 ;
656 [label="mse = 0.0\nsamples = 1\nvalue = 31.0", fillcolor="#eeae7f"] ;
655 -> 656 ;
657 [label="mse = 25.688\nsamples = 4\nvalue = 24.75", fillcolor="#f2be99"] ;
655 -> 657 ;
658 [label="Style <= 4.5\nmse = 45.145\nsamples = 36\nvalue = 38.278", fillcolor="#ea9b61"] ;
654 -> 658 ;
659 [label="mse = 17.673\nsamples = 7\nvalue = 38.429", fillcolor="#ea9a60"] ;
658 -> 659 ;
660 [label="mse = 51.769\nsamples = 29\nvalue = 38.241", fillcolor="#ea9b61"] ;
658 -> 660 ;
661 [label="Style <= 4.5\nmse = 20.222\nsamples = 3\nvalue = 22.333", fillcolor="#f3c4a3"] ;
653 -> 661 ;
662 [label="Brand <= 197.0\nmse = 6.25\nsamples = 2\nvalue = 19.5", fillcolor="#f4ccaf"] ;
661 -> 662 ;
663 [label="mse = 0.0\nsamples = 1\nvalue = 22.0", fillcolor="#f3c5a4"] ;
662 -> 663 ;
664 [label="mse = 0.0\nsamples = 1\nvalue = 17.0", fillcolor="#f6d2b9"] ;
662 -> 664 ;
665 [label="mse = 0.0\nsamples = 1\nvalue = 28.0", fillcolor="#f0b68c"] ;
661 -> 665 ;
666 [label="Brand <= 163.0\nmse = 15.854\nsamples = 12\nvalue = 43.75", fillcolor="#e78c4b"] ;
652 -> 666 ;
667 [label="mse = 19.688\nsamples = 4\nvalue = 41.25", fillcolor="#e99355"] ;
666 -> 667 ;
668 [label="Brand <= 189.0\nmse = 9.25\nsamples = 8\nvalue = 45.0", fillcolor="#e78945"] ;
666 -> 668 ;
669 [label="mse = 12.96\nsamples = 5\nvalue = 45.2", fillcolor="#e78845"] ;
668 -> 669 ;
670 [label="mse = 2.889\nsamples = 3\nvalue = 44.667", fillcolor="#e78a47"] ;
668 -> 670 ;
671 [label="Style <= 2.5\nmse = 136.596\nsamples = 34\nvalue = 29.147", fillcolor="#efb287"] ;
623 -> 671 ;
672 [label="mse = 69.04\nsamples = 5\nvalue = 30.4", fillcolor="#efaf82"] ;
671 -> 672 ;
673 [label="Style <= 4.5\nmse = 147.926\nsamples = 29\nvalue = 28.931", fillcolor="#efb388"] ;
671 -> 673 ;
674 [label="mse = 20.25\nsamples = 4\nvalue = 26.5", fillcolor="#f1b992"] ;
673 -> 674 ;
675 [label="mse = 167.258\nsamples = 25\nvalue = 29.32", fillcolor="#efb286"] ;
673 -> 675 ;
676 [label="Brand <= 217.5\nmse = 77.546\nsamples = 54\nvalue = 37.5", fillcolor="#eb9d64"] ;
622 -> 676 ;
677 [label="Style <= 2.5\nmse = 74.261\nsamples = 46\nvalue = 38.0", fillcolor="#ea9b62"] ;
676 -> 677 ;
678 [label="mse = 54.597\nsamples = 14\nvalue = 39.214", fillcolor="#ea985d"] ;
677 -> 678 ;
679 [label="Style <= 4.5\nmse = 81.937\nsamples = 32\nvalue = 37.469", fillcolor="#eb9d64"] ;
677 -> 679 ;
680 [label="mse = 8.24\nsamples = 5\nvalue = 34.4", fillcolor="#eca571"] ;
679 -> 680 ;
681 [label="mse = 93.517\nsamples = 27\nvalue = 38.037", fillcolor="#ea9b62"] ;
679 -> 681 ;
682 [label="mse = 86.734\nsamples = 8\nvalue = 34.625", fillcolor="#eca470"] ;
676 -> 682 ;
683 [label="Style <= 2.5\nmse = 100.371\nsamples = 16\nvalue = 27.562", fillcolor="#f0b78d"] ;
621 -> 683 ;
684 [label="mse = 0.0\nsamples = 2\nvalue = 36.0", fillcolor="#eca06a"] ;
683 -> 684 ;
685 [label="Brand <= 244.0\nmse = 103.087\nsamples = 14\nvalue = 26.357", fillcolor="#f1ba92"] ;
683 -> 685 ;
686 [label="mse = 0.0\nsamples = 2\nvalue = 28.0", fillcolor="#f0b68c"] ;
685 -> 686 ;
687 [label="Style <= 4.5\nmse = 119.743\nsamples = 12\nvalue = 26.083", fillcolor="#f1bb93"] ;
685 -> 687 ;
688 [label="mse = 81.0\nsamples = 2\nvalue = 27.0", fillcolor="#f0b890"] ;
687 -> 688 ;
689 [label="mse = 127.29\nsamples = 10\nvalue = 25.9", fillcolor="#f1bb94"] ;
687 -> 689 ;
690 [label="Style <= 4.5\nmse = 65.769\nsamples = 39\nvalue = 39.026", fillcolor="#ea995e"] ;
620 -> 690 ;
691 [label="Style <= 2.5\nmse = 126.213\nsamples = 13\nvalue = 35.308", fillcolor="#eca26d"] ;
690 -> 691 ;
692 [label="mse = 177.432\nsamples = 9\nvalue = 36.111", fillcolor="#eba06a"] ;
691 -> 692 ;
693 [label="mse = 6.25\nsamples = 4\nvalue = 33.5", fillcolor="#eda775"] ;
691 -> 693 ;
694 [label="mse = 25.179\nsamples = 26\nvalue = 40.885", fillcolor="#e99456"] ;
690 -> 694 ;
695 [label="Style <= 2.5\nmse = 201.889\nsamples = 18\nvalue = 30.0", fillcolor="#efb083"] ;
619 -> 695 ;
696 [label="Brand <= 289.5\nmse = 36.98\nsamples = 7\nvalue = 40.857", fillcolor="#e99456"] ;
695 -> 696 ;
697 [label="Brand <= 284.5\nmse = 24.25\nsamples = 6\nvalue = 42.5", fillcolor="#e88f50"] ;
696 -> 697 ;
698 [label="Brand <= 270.5\nmse = 21.188\nsamples = 4\nvalue = 40.25", fillcolor="#e99559"] ;
697 -> 698 ;
699 [label="Brand <= 264.0\nmse = 6.25\nsamples = 2\nvalue = 44.5", fillcolor="#e78a47"] ;
698 -> 699 ;
700 [label="mse = 0.0\nsamples = 1\nvalue = 42.0", fillcolor="#e89152"] ;
699 -> 700 ;
701 [label="mse = 0.0\nsamples = 1\nvalue = 47.0", fillcolor="#e6843d"] ;
699 -> 701 ;
702 [label="mse = 0.0\nsamples = 2\nvalue = 36.0", fillcolor="#eca06a"] ;
698 -> 702 ;
703 [label="mse = 0.0\nsamples = 2\nvalue = 47.0", fillcolor="#e6843d"] ;
697 -> 703 ;
704 [label="mse = 0.0\nsamples = 1\nvalue = 31.0", fillcolor="#eeae7f"] ;
696 -> 704 ;
705 [label="Brand <= 285.0\nmse = 184.083\nsamples = 11\nvalue = 23.091", fillcolor="#f2c2a0"] ;
695 -> 705 ;
706 [label="Brand <= 274.5\nmse = 144.76\nsamples = 10\nvalue = 20.8", fillcolor="#f4c8a9"] ;
705 -> 706 ;
707 [label="Brand <= 268.5\nmse = 155.061\nsamples = 7\nvalue = 24.714", fillcolor="#f2be99"] ;
706 -> 707 ;
708 [label="Country <= 31.0\nmse = 122.806\nsamples = 6\nvalue = 21.833", fillcolor="#f3c6a5"] ;
707 -> 708 ;
709 [label="mse = 113.76\nsamples = 5\nvalue = 24.2", fillcolor="#f2bf9b"] ;
708 -> 709 ;
710 [label="mse = 0.0\nsamples = 1\nvalue = 10.0", fillcolor="#fae5d6"] ;
708 -> 710 ;
711 [label="mse = 0.0\nsamples = 1\nvalue = 42.0", fillcolor="#e89152"] ;
707 -> 711 ;
712 [label="Brand <= 278.5\nmse = 1.556\nsamples = 3\nvalue = 11.667", fillcolor="#f9e0cf"] ;
706 -> 712 ;
713 [label="mse = 0.0\nsamples = 1\nvalue = 13.0", fillcolor="#f8ddc9"] ;
712 -> 713 ;
714 [label="Brand <= 281.5\nmse = 1.0\nsamples = 2\nvalue = 11.0", fillcolor="#f9e2d2"] ;
712 -> 714 ;
715 [label="mse = 0.0\nsamples = 1\nvalue = 10.0", fillcolor="#fae5d6"] ;
714 -> 715 ;
716 [label="mse = 0.0\nsamples = 1\nvalue = 12.0", fillcolor="#f8e0ce"] ;
714 -> 716 ;
717 [label="mse = 0.0\nsamples = 1\nvalue = 46.0", fillcolor="#e68641"] ;
705 -> 717 ;
718 [label="mse = 0.0\nsamples = 1\nvalue = 0.0", fillcolor="#ffffff"] ;
618 -> 718 ;
719 [label="Brand <= 314.5\nmse = 137.066\nsamples = 14\nvalue = 40.071", fillcolor="#e9965a"] ;
617 -> 719 ;
720 [label="mse = 10.889\nsamples = 6\nvalue = 45.333", fillcolor="#e68844"] ;
719 -> 720 ;
721 [label="Style <= 2.5\nmse = 195.359\nsamples = 8\nvalue = 36.125", fillcolor="#eba06a"] ;
719 -> 721 ;
722 [label="mse = 16.222\nsamples = 3\nvalue = 43.667", fillcolor="#e78c4b"] ;
721 -> 722 ;
723 [label="Brand <= 316.5\nmse = 248.24\nsamples = 5\nvalue = 31.6", fillcolor="#eeac7d"] ;
721 -> 723 ;
724 [label="mse = 0.0\nsamples = 1\nvalue = 22.0", fillcolor="#f3c5a4"] ;
723 -> 724 ;
725 [label="Style <= 4.5\nmse = 281.5\nsamples = 4\nvalue = 34.0", fillcolor="#eda673"] ;
723 -> 725 ;
726 [label="mse = 0.0\nsamples = 1\nvalue = 36.0", fillcolor="#eca06a"] ;
725 -> 726 ;
727 [label="mse = 373.556\nsamples = 3\nvalue = 33.333", fillcolor="#eda875"] ;
725 -> 727 ;
728 [label="Brand <= 143.5\nmse = 144.746\nsamples = 16\nvalue = 29.438", fillcolor="#efb286"] ;
580 -> 728 ;
729 [label="Brand <= 91.0\nmse = 105.25\nsamples = 6\nvalue = 21.5", fillcolor="#f3c7a6"] ;
728 -> 729 ;
730 [label="Brand <= 57.5\nmse = 129.0\nsamples = 4\nvalue = 19.0", fillcolor="#f5cdb1"] ;
729 -> 730 ;
731 [label="Country <= 31.0\nmse = 96.889\nsamples = 3\nvalue = 23.333", fillcolor="#f2c29f"] ;
730 -> 731 ;
732 [label="mse = 0.0\nsamples = 1\nvalue = 36.0", fillcolor="#eca06a"] ;
731 -> 732 ;
733 [label="mse = 25.0\nsamples = 2\nvalue = 17.0", fillcolor="#f6d2b9"] ;
731 -> 733 ;
734 [label="mse = 0.0\nsamples = 1\nvalue = 6.0", fillcolor="#fcefe6"] ;
730 -> 734 ;
735 [label="mse = 20.25\nsamples = 2\nvalue = 26.5", fillcolor="#f1b992"] ;
729 -> 735 ;
736 [label="Brand <= 201.5\nmse = 107.96\nsamples = 10\nvalue = 34.2", fillcolor="#eca572"] ;
728 -> 736 ;
737 [label="mse = 2.25\nsamples = 2\nvalue = 45.5", fillcolor="#e68843"] ;
736 -> 737 ;
738 [label="Brand <= 219.5\nmse = 94.484\nsamples = 8\nvalue = 31.375", fillcolor="#eead7e"] ;
736 -> 738 ;
739 [label="mse = 86.96\nsamples = 5\nvalue = 32.8", fillcolor="#eda978"] ;
738 -> 739 ;
740 [label="mse = 98.0\nsamples = 3\nvalue = 29.0", fillcolor="#efb387"] ;
738 -> 740 ;
741 [label="Brand <= 334.5\nmse = 124.614\nsamples = 84\nvalue = 28.929", fillcolor="#efb388"] ;
495 -> 741 ;
742 [label="Brand <= 333.5\nmse = 132.088\nsamples = 44\nvalue = 25.841", fillcolor="#f1bb94"] ;
741 -> 742 ;
743 [label="Brand <= 319.5\nmse = 125.792\nsamples = 43\nvalue = 26.302", fillcolor="#f1ba93"] ;
742 -> 743 ;
744 [label="Style <= 3.0\nmse = 75.139\nsamples = 6\nvalue = 29.833", fillcolor="#efb184"] ;
743 -> 744 ;
745 [label="mse = 108.5\nsamples = 4\nvalue = 31.0", fillcolor="#eeae7f"] ;
744 -> 745 ;
746 [label="mse = 0.25\nsamples = 2\nvalue = 27.5", fillcolor="#f0b78e"] ;
744 -> 746 ;
747 [label="Brand <= 328.5\nmse = 131.657\nsamples = 37\nvalue = 25.73", fillcolor="#f1bb95"] ;
743 -> 747 ;
748 [label="Brand <= 327.5\nmse = 134.512\nsamples = 31\nvalue = 24.935", fillcolor="#f1be98"] ;
747 -> 748 ;
749 [label="Brand <= 325.5\nmse = 114.618\nsamples = 25\nvalue = 26.32", fillcolor="#f1ba92"] ;
748 -> 749 ;
750 [label="Brand <= 320.5\nmse = 109.062\nsamples = 9\nvalue = 23.222", fillcolor="#f2c29f"] ;
749 -> 750 ;
751 [label="mse = 90.806\nsamples = 6\nvalue = 25.833", fillcolor="#f1bb94"] ;
750 -> 751 ;
752 [label="Brand <= 322.5\nmse = 104.667\nsamples = 3\nvalue = 18.0", fillcolor="#f5d0b5"] ;
750 -> 752 ;
753 [label="mse = 0.0\nsamples = 1\nvalue = 6.0", fillcolor="#fcefe6"] ;
752 -> 753 ;
754 [label="mse = 49.0\nsamples = 2\nvalue = 24.0", fillcolor="#f2c09c"] ;
752 -> 754 ;
755 [label="Style <= 3.0\nmse = 109.309\nsamples = 16\nvalue = 28.062", fillcolor="#f0b58b"] ;
749 -> 755 ;
756 [label="mse = 162.49\nsamples = 7\nvalue = 25.714", fillcolor="#f1bc95"] ;
755 -> 756 ;
757 [label="mse = 60.321\nsamples = 9\nvalue = 29.889", fillcolor="#efb184"] ;
755 -> 757 ;
758 [label="Style <= 2.5\nmse = 176.139\nsamples = 6\nvalue = 19.167", fillcolor="#f5cdb0"] ;
748 -> 758 ;
759 [label="mse = 297.556\nsamples = 3\nvalue = 19.667", fillcolor="#f4cbae"] ;
758 -> 759 ;
760 [label="Style <= 4.5\nmse = 54.222\nsamples = 3\nvalue = 18.667", fillcolor="#f5ceb2"] ;
758 -> 760 ;
761 [label="mse = 0.0\nsamples = 1\nvalue = 18.0", fillcolor="#f5d0b5"] ;
760 -> 761 ;
762 [label="mse = 81.0\nsamples = 2\nvalue = 19.0", fillcolor="#f5cdb1"] ;
760 -> 762 ;
763 [label="Brand <= 331.0\nmse = 96.806\nsamples = 6\nvalue = 29.833", fillcolor="#efb184"] ;
747 -> 763 ;
764 [label="mse = 0.0\nsamples = 1\nvalue = 38.0", fillcolor="#ea9b62"] ;
763 -> 764 ;
765 [label="mse = 100.16\nsamples = 5\nvalue = 28.2", fillcolor="#f0b58b"] ;
763 -> 765 ;
766 [label="mse = 0.0\nsamples = 1\nvalue = 6.0", fillcolor="#fcefe6"] ;
742 -> 766 ;
767 [label="Brand <= 348.5\nmse = 94.369\nsamples = 40\nvalue = 32.325", fillcolor="#edaa7a"] ;
741 -> 767 ;
768 [label="Style <= 3.0\nmse = 89.117\nsamples = 36\nvalue = 33.222", fillcolor="#eda876"] ;
767 -> 768 ;
769 [label="mse = 64.0\nsamples = 2\nvalue = 39.0", fillcolor="#ea995e"] ;
768 -> 769 ;
770 [label="Brand <= 341.5\nmse = 88.516\nsamples = 34\nvalue = 32.882", fillcolor="#eda977"] ;
768 -> 770 ;
771 [label="Brand <= 335.5\nmse = 122.753\nsamples = 21\nvalue = 32.095", fillcolor="#eeab7b"] ;
770 -> 771 ;
772 [label="mse = 0.0\nsamples = 1\nvalue = 38.0", fillcolor="#ea9b62"] ;
771 -> 772 ;
773 [label="Brand <= 336.5\nmse = 127.06\nsamples = 20\nvalue = 31.8", fillcolor="#eeac7c"] ;
771 -> 773 ;
774 [label="mse = 128.05\nsamples = 11\nvalue = 31.364", fillcolor="#eead7e"] ;
773 -> 774 ;
775 [label="Brand <= 339.0\nmse = 125.333\nsamples = 9\nvalue = 32.333", fillcolor="#edaa7a"] ;
773 -> 775 ;
776 [label="mse = 16.0\nsamples = 2\nvalue = 32.0", fillcolor="#eeab7b"] ;
775 -> 776 ;
777 [label="mse = 156.531\nsamples = 7\nvalue = 32.429", fillcolor="#edaa79"] ;
775 -> 777 ;
778 [label="Brand <= 343.0\nmse = 30.592\nsamples = 13\nvalue = 34.154", fillcolor="#eca572"] ;
770 -> 778 ;
779 [label="mse = 34.992\nsamples = 11\nvalue = 34.091", fillcolor="#eda672"] ;
778 -> 779 ;
780 [label="mse = 6.25\nsamples = 2\nvalue = 34.5", fillcolor="#eca471"] ;
778 -> 780 ;
781 [label="Brand <= 353.5\nmse = 69.188\nsamples = 4\nvalue = 24.25", fillcolor="#f2bf9b"] ;
767 -> 781 ;
782 [label="mse = 25.0\nsamples = 2\nvalue = 23.0", fillcolor="#f3c3a0"] ;
781 -> 782 ;
783 [label="mse = 110.25\nsamples = 2\nvalue = 25.5", fillcolor="#f1bc96"] ;
781 -> 783 ;
784 [label="Brand <= 342.0\nmse = 140.972\nsamples = 549\nvalue = 29.321", fillcolor="#efb286"] ;
0 -> 784 [labeldistance=2.5, labelangle=-45, headlabel="False"] ;
785 [label="Brand <= 291.5\nmse = 140.39\nsamples = 528\nvalue = 28.913", fillcolor="#efb388"] ;
784 -> 785 ;
786 [label="Brand <= 152.5\nmse = 134.812\nsamples = 416\nvalue = 30.113", fillcolor="#efb083"] ;
785 -> 786 ;
787 [label="Style <= 1.5\nmse = 167.97\nsamples = 100\nvalue = 26.48", fillcolor="#f1b992"] ;
786 -> 787 ;
788 [label="Style <= 0.5\nmse = 195.254\nsamples = 26\nvalue = 30.231", fillcolor="#efb082"] ;
787 -> 788 ;
789 [label="mse = 0.0\nsamples = 1\nvalue = 47.0", fillcolor="#e6843d"] ;
788 -> 789 ;
790 [label="Brand <= 64.5\nmse = 191.366\nsamples = 25\nvalue = 29.56", fillcolor="#efb185"] ;
788 -> 790 ;
791 [label="Brand <= 32.5\nmse = 172.76\nsamples = 10\nvalue = 32.8", fillcolor="#eda978"] ;
790 -> 791 ;
792 [label="Brand <= 15.0\nmse = 206.408\nsamples = 7\nvalue = 29.857", fillcolor="#efb184"] ;
791 -> 792 ;
793 [label="Brand <= 7.0\nmse = 130.139\nsamples = 6\nvalue = 33.833", fillcolor="#eda673"] ;
792 -> 793 ;
794 [label="mse = 12.25\nsamples = 2\nvalue = 34.5", fillcolor="#eca471"] ;
793 -> 794 ;
795 [label="mse = 188.75\nsamples = 4\nvalue = 33.5", fillcolor="#eda775"] ;
793 -> 795 ;
796 [label="mse = 0.0\nsamples = 1\nvalue = 6.0", fillcolor="#fcefe6"] ;
792 -> 796 ;
797 [label="Brand <= 52.0\nmse = 26.889\nsamples = 3\nvalue = 39.667", fillcolor="#ea975b"] ;
791 -> 797 ;
798 [label="mse = 0.0\nsamples = 1\nvalue = 47.0", fillcolor="#e6843d"] ;
797 -> 798 ;
799 [label="mse = 0.0\nsamples = 2\nvalue = 36.0", fillcolor="#eca06a"] ;
797 -> 799 ;
800 [label="Brand <= 74.0\nmse = 192.107\nsamples = 15\nvalue = 27.4", fillcolor="#f0b78e"] ;
790 -> 800 ;
801 [label="Brand <= 65.5\nmse = 159.04\nsamples = 5\nvalue = 21.6", fillcolor="#f3c6a6"] ;
800 -> 801 ;
802 [label="mse = 169.0\nsamples = 2\nvalue = 25.0", fillcolor="#f1bd98"] ;
801 -> 802 ;
803 [label="mse = 139.556\nsamples = 3\nvalue = 19.333", fillcolor="#f5ccaf"] ;
801 -> 803 ;
804 [label="Country <= 34.0\nmse = 183.41\nsamples = 10\nvalue = 30.3", fillcolor="#efaf82"] ;
800 -> 804 ;
805 [label="Brand <= 137.5\nmse = 207.102\nsamples = 7\nvalue = 30.429", fillcolor="#efaf81"] ;
804 -> 805 ;
806 [label="mse = 0.0\nsamples = 1\nvalue = 31.0", fillcolor="#eeae7f"] ;
805 -> 806 ;
807 [label="mse = 241.556\nsamples = 6\nvalue = 30.333", fillcolor="#efaf82"] ;
805 -> 807 ;
808 [label="mse = 128.0\nsamples = 3\nvalue = 30.0", fillcolor="#efb083"] ;
804 -> 808 ;
809 [label="Brand <= 134.0\nmse = 151.703\nsamples = 74\nvalue = 25.162", fillcolor="#f1bd97"] ;
787 -> 809 ;
810 [label="Brand <= 112.0\nmse = 147.42\nsamples = 59\nvalue = 26.627", fillcolor="#f1b991"] ;
809 -> 810 ;
811 [label="Brand <= 87.5\nmse = 149.106\nsamples = 47\nvalue = 25.0", fillcolor="#f1bd98"] ;
810 -> 811 ;
812 [label="Brand <= 70.0\nmse = 138.372\nsamples = 42\nvalue = 26.357", fillcolor="#f1ba92"] ;
811 -> 812 ;
813 [label="Brand <= 5.0\nmse = 145.879\nsamples = 34\nvalue = 24.941", fillcolor="#f1be98"] ;
812 -> 813 ;
814 [label="mse = 89.556\nsamples = 3\nvalue = 20.333", fillcolor="#f4caab"] ;
813 -> 814 ;
815 [label="Brand <= 10.0\nmse = 149.076\nsamples = 31\nvalue = 25.387", fillcolor="#f1bc96"] ;
813 -> 815 ;
816 [label="mse = 0.0\nsamples = 1\nvalue = 38.0", fillcolor="#ea9b62"] ;
815 -> 816 ;
817 [label="Brand <= 22.5\nmse = 148.566\nsamples = 30\nvalue = 24.967", fillcolor="#f1bd98"] ;
815 -> 817 ;
818 [label="Style <= 5.5\nmse = 135.284\nsamples = 9\nvalue = 27.222", fillcolor="#f0b88f"] ;
817 -> 818 ;
819 [label="Country <= 34.0\nmse = 143.139\nsamples = 6\nvalue = 29.167", fillcolor="#efb287"] ;
818 -> 819 ;
820 [label="Style <= 4.5\nmse = 14.0\nsamples = 3\nvalue = 27.0", fillcolor="#f0b890"] ;
819 -> 820 ;
821 [label="mse = 0.0\nsamples = 1\nvalue = 28.0", fillcolor="#f0b68c"] ;
820 -> 821 ;
822 [label="mse = 20.25\nsamples = 2\nvalue = 26.5", fillcolor="#f1b992"] ;
820 -> 822 ;
823 [label="mse = 262.889\nsamples = 3\nvalue = 31.333", fillcolor="#eead7e"] ;
819 -> 823 ;
824 [label="mse = 96.889\nsamples = 3\nvalue = 23.333", fillcolor="#f2c29f"] ;
818 -> 824 ;
825 [label="Country <= 36.0\nmse = 151.143\nsamples = 21\nvalue = 24.0", fillcolor="#f2c09c"] ;
817 -> 825 ;
826 [label="Brand <= 50.5\nmse = 160.028\nsamples = 18\nvalue = 23.167", fillcolor="#f2c29f"] ;
825 -> 826 ;
827 [label="Country <= 34.5\nmse = 136.168\nsamples = 14\nvalue = 21.786", fillcolor="#f3c6a5"] ;
826 -> 827 ;
828 [label="mse = 114.213\nsamples = 13\nvalue = 23.308", fillcolor="#f2c29f"] ;
827 -> 828 ;
829 [label="mse = 0.0\nsamples = 1\nvalue = 2.0", fillcolor="#fefaf7"] ;
827 -> 829 ;
830 [label="Brand <= 62.5\nmse = 213.5\nsamples = 4\nvalue = 28.0", fillcolor="#f0b68c"] ;
826 -> 830 ;
831 [label="mse = 0.0\nsamples = 1\nvalue = 47.0", fillcolor="#e6843d"] ;
830 -> 831 ;
832 [label="mse = 124.222\nsamples = 3\nvalue = 21.667", fillcolor="#f3c6a6"] ;
830 -> 832 ;
833 [label="mse = 68.667\nsamples = 3\nvalue = 29.0", fillcolor="#efb387"] ;
825 -> 833 ;
834 [label="Brand <= 85.5\nmse = 61.734\nsamples = 8\nvalue = 32.375", fillcolor="#edaa79"] ;
812 -> 834 ;
835 [label="Style <= 4.5\nmse = 21.917\nsamples = 6\nvalue = 35.5", fillcolor="#eca26d"] ;
834 -> 835 ;
836 [label="Brand <= 82.0\nmse = 4.0\nsamples = 2\nvalue = 40.0", fillcolor="#e9965a"] ;
835 -> 836 ;
837 [label="mse = 0.0\nsamples = 1\nvalue = 38.0", fillcolor="#ea9b62"] ;
836 -> 837 ;
838 [label="mse = 0.0\nsamples = 1\nvalue = 42.0", fillcolor="#e89152"] ;
836 -> 838 ;
839 [label="Brand <= 78.5\nmse = 15.688\nsamples = 4\nvalue = 33.25", fillcolor="#eda876"] ;
835 -> 839 ;
840 [label="Style <= 5.5\nmse = 1.0\nsamples = 2\nvalue = 37.0", fillcolor="#eb9e66"] ;
839 -> 840 ;
841 [label="mse = 0.0\nsamples = 1\nvalue = 36.0", fillcolor="#eca06a"] ;
840 -> 841 ;
842 [label="mse = 0.0\nsamples = 1\nvalue = 38.0", fillcolor="#ea9b62"] ;
840 -> 842 ;
843 [label="mse = 2.25\nsamples = 2\nvalue = 29.5", fillcolor="#efb285"] ;
839 -> 843 ;
844 [label="mse = 64.0\nsamples = 2\nvalue = 23.0", fillcolor="#f3c3a0"] ;
834 -> 844 ;
845 [label="Brand <= 98.0\nmse = 93.84\nsamples = 5\nvalue = 13.6", fillcolor="#f8dbc7"] ;
811 -> 845 ;
846 [label="mse = 52.5\nsamples = 4\nvalue = 10.0", fillcolor="#fae5d6"] ;
845 -> 846 ;
847 [label="mse = 0.0\nsamples = 1\nvalue = 28.0", fillcolor="#f0b68c"] ;
845 -> 847 ;
848 [label="Brand <= 126.0\nmse = 89.833\nsamples = 12\nvalue = 33.0", fillcolor="#eda877"] ;
810 -> 848 ;
849 [label="Brand <= 119.0\nmse = 29.36\nsamples = 5\nvalue = 38.8", fillcolor="#ea995f"] ;
848 -> 849 ;
850 [label="mse = 0.0\nsamples = 1\nvalue = 47.0", fillcolor="#e6843d"] ;
849 -> 850 ;
851 [label="mse = 15.688\nsamples = 4\nvalue = 36.75", fillcolor="#eb9f67"] ;
849 -> 851 ;
852 [label="Style <= 4.5\nmse = 91.837\nsamples = 7\nvalue = 28.857", fillcolor="#efb388"] ;
848 -> 852 ;
853 [label="Brand <= 131.5\nmse = 156.25\nsamples = 2\nvalue = 18.5", fillcolor="#f5ceb3"] ;
852 -> 853 ;
854 [label="mse = 0.0\nsamples = 1\nvalue = 31.0", fillcolor="#eeae7f"] ;
853 -> 854 ;
855 [label="mse = 0.0\nsamples = 1\nvalue = 6.0", fillcolor="#fcefe6"] ;
853 -> 855 ;
856 [label="mse = 6.0\nsamples = 5\nvalue = 33.0", fillcolor="#eda877"] ;
852 -> 856 ;
857 [label="Brand <= 145.5\nmse = 126.907\nsamples = 15\nvalue = 19.4", fillcolor="#f4ccaf"] ;
809 -> 857 ;
858 [label="Brand <= 140.0\nmse = 68.98\nsamples = 7\nvalue = 12.857", fillcolor="#f8ddca"] ;
857 -> 858 ;
859 [label="mse = 77.583\nsamples = 6\nvalue = 13.5", fillcolor="#f8dcc7"] ;
858 -> 859 ;
860 [label="mse = 0.0\nsamples = 1\nvalue = 9.0", fillcolor="#fae7da"] ;
858 -> 860 ;
861 [label="Brand <= 149.0\nmse = 107.359\nsamples = 8\nvalue = 25.125", fillcolor="#f1bd97"] ;
857 -> 861 ;
862 [label="mse = 115.2\nsamples = 5\nvalue = 24.0", fillcolor="#f2c09c"] ;
861 -> 862 ;
863 [label="mse = 88.667\nsamples = 3\nvalue = 27.0", fillcolor="#f0b890"] ;
861 -> 863 ;
864 [label="Brand <= 202.5\nmse = 118.82\nsamples = 316\nvalue = 31.263", fillcolor="#eead7e"] ;
786 -> 864 ;
865 [label="Brand <= 194.5\nmse = 106.803\nsamples = 239\nvalue = 32.172", fillcolor="#eeab7a"] ;
864 -> 865 ;
866 [label="Country <= 33.5\nmse = 105.638\nsamples = 207\nvalue = 31.169", fillcolor="#eead7e"] ;
865 -> 866 ;
867 [label="Style <= 2.5\nmse = 98.372\nsamples = 78\nvalue = 33.321", fillcolor="#eda876"] ;
866 -> 867 ;
868 [label="Brand <= 160.0\nmse = 57.018\nsamples = 13\nvalue = 29.538", fillcolor="#efb185"] ;
867 -> 868 ;
869 [label="Brand <= 155.5\nmse = 92.472\nsamples = 6\nvalue = 31.167", fillcolor="#eead7e"] ;
868 -> 869 ;
870 [label="mse = 64.0\nsamples = 2\nvalue = 30.0", fillcolor="#efb083"] ;
869 -> 870 ;
871 [label="mse = 105.688\nsamples = 4\nvalue = 31.75", fillcolor="#eeac7c"] ;
869 -> 871 ;
872 [label="mse = 22.408\nsamples = 7\nvalue = 28.143", fillcolor="#f0b58b"] ;
868 -> 872 ;
873 [label="Brand <= 155.5\nmse = 103.209\nsamples = 65\nvalue = 34.077", fillcolor="#eda672"] ;
867 -> 873 ;
874 [label="Style <= 4.5\nmse = 83.537\nsamples = 11\nvalue = 38.091", fillcolor="#ea9b62"] ;
873 -> 874 ;
875 [label="mse = 20.25\nsamples = 2\nvalue = 42.5", fillcolor="#e88f50"] ;
874 -> 875 ;
876 [label="mse = 92.321\nsamples = 9\nvalue = 37.111", fillcolor="#eb9e66"] ;
874 -> 876 ;
877 [label="Brand <= 174.5\nmse = 103.266\nsamples = 54\nvalue = 33.259", fillcolor="#eda876"] ;
873 -> 877 ;
878 [label="Style <= 4.5\nmse = 124.865\nsamples = 39\nvalue = 32.821", fillcolor="#eda978"] ;
877 -> 878 ;
879 [label="mse = 117.694\nsamples = 14\nvalue = 34.143", fillcolor="#eda572"] ;
878 -> 879 ;
880 [label="mse = 127.354\nsamples = 25\nvalue = 32.08", fillcolor="#eeab7b"] ;
878 -> 880 ;
881 [label="Style <= 4.5\nmse = 45.307\nsamples = 15\nvalue = 34.4", fillcolor="#eca571"] ;
877 -> 881 ;
882 [label="mse = 56.248\nsamples = 11\nvalue = 33.545", fillcolor="#eda775"] ;
881 -> 882 ;
883 [label="mse = 7.688\nsamples = 4\nvalue = 36.75", fillcolor="#eb9f67"] ;
881 -> 883 ;
884 [label="Brand <= 193.0\nmse = 105.541\nsamples = 129\nvalue = 29.868", fillcolor="#efb184"] ;
866 -> 884 ;
885 [label="Brand <= 169.0\nmse = 103.852\nsamples = 128\nvalue = 30.008", fillcolor="#efb083"] ;
884 -> 885 ;
886 [label="Style <= 2.5\nmse = 110.229\nsamples = 42\nvalue = 28.238", fillcolor="#f0b58b"] ;
885 -> 886 ;
887 [label="mse = 13.688\nsamples = 4\nvalue = 41.25", fillcolor="#e99355"] ;
886 -> 887 ;
888 [label="Brand <= 163.0\nmse = 100.693\nsamples = 38\nvalue = 26.868", fillcolor="#f0b890"] ;
886 -> 888 ;
889 [label="Style <= 5.5\nmse = 100.711\nsamples = 37\nvalue = 27.135", fillcolor="#f0b88f"] ;
888 -> 889 ;
890 [label="Brand <= 159.0\nmse = 92.209\nsamples = 28\nvalue = 28.071", fillcolor="#f0b58b"] ;
889 -> 890 ;
891 [label="mse = 0.0\nsamples = 1\nvalue = 36.0", fillcolor="#eca06a"] ;
890 -> 891 ;
892 [label="Style <= 4.5\nmse = 93.21\nsamples = 27\nvalue = 27.778", fillcolor="#f0b68c"] ;
890 -> 892 ;
893 [label="mse = 82.84\nsamples = 13\nvalue = 27.923", fillcolor="#f0b68c"] ;
892 -> 893 ;
894 [label="mse = 102.801\nsamples = 14\nvalue = 27.643", fillcolor="#f0b68d"] ;
892 -> 894 ;
895 [label="mse = 115.951\nsamples = 9\nvalue = 24.222", fillcolor="#f2bf9b"] ;
889 -> 895 ;
896 [label="mse = 0.0\nsamples = 1\nvalue = 17.0", fillcolor="#f6d2b9"] ;
888 -> 896 ;
897 [label="Style <= 2.5\nmse = 98.46\nsamples = 86\nvalue = 30.872", fillcolor="#eeae80"] ;
885 -> 897 ;
898 [label="Brand <= 187.5\nmse = 65.449\nsamples = 15\nvalue = 25.533", fillcolor="#f1bc96"] ;
897 -> 898 ;
899 [label="mse = 30.25\nsamples = 2\nvalue = 22.5", fillcolor="#f3c4a2"] ;
898 -> 899 ;
900 [label="mse = 69.231\nsamples = 13\nvalue = 26.0", fillcolor="#f1bb94"] ;
898 -> 900 ;
901 [label="Style <= 4.5\nmse = 98.141\nsamples = 71\nvalue = 32.0", fillcolor="#eeab7b"] ;
897 -> 901 ;
902 [label="Brand <= 184.0\nmse = 105.627\nsamples = 30\nvalue = 30.2", fillcolor="#efb082"] ;
901 -> 902 ;
903 [label="mse = 141.36\nsamples = 5\nvalue = 33.8", fillcolor="#eda674"] ;
902 -> 903 ;
904 [label="mse = 95.37\nsamples = 25\nvalue = 29.48", fillcolor="#efb285"] ;
902 -> 904 ;
905 [label="Country <= 34.5\nmse = 88.558\nsamples = 41\nvalue = 33.317", fillcolor="#eda876"] ;
901 -> 905 ;
906 [label="mse = 0.0\nsamples = 2\nvalue = 22.0", fillcolor="#f3c5a4"] ;
905 -> 906 ;
907 [label="Style <= 5.5\nmse = 86.195\nsamples = 39\nvalue = 33.897", fillcolor="#eda673"] ;
905 -> 907 ;
908 [label="Brand <= 187.5\nmse = 62.299\nsamples = 23\nvalue = 35.696", fillcolor="#eca16c"] ;
907 -> 908 ;
909 [label="Brand <= 177.5\nmse = 18.0\nsamples = 3\nvalue = 41.0", fillcolor="#e99356"] ;
908 -> 909 ;
910 [label="mse = 0.0\nsamples = 1\nvalue = 38.0", fillcolor="#ea9b62"] ;
909 -> 910 ;
911 [label="mse = 20.25\nsamples = 2\nvalue = 42.5", fillcolor="#e88f50"] ;
909 -> 911 ;
912 [label="mse = 64.09\nsamples = 20\nvalue = 34.9", fillcolor="#eca36f"] ;
908 -> 912 ;
913 [label="Brand <= 191.5\nmse = 109.215\nsamples = 16\nvalue = 31.312", fillcolor="#eead7e"] ;
907 -> 913 ;
914 [label="mse = 0.0\nsamples = 1\nvalue = 38.0", fillcolor="#ea9b62"] ;
913 -> 914 ;
915 [label="mse = 113.316\nsamples = 15\nvalue = 30.867", fillcolor="#eeae80"] ;
913 -> 915 ;
916 [label="mse = 0.0\nsamples = 1\nvalue = 12.0", fillcolor="#f8e0ce"] ;
884 -> 916 ;
917 [label="Style <= 2.5\nmse = 65.788\nsamples = 32\nvalue = 38.656", fillcolor="#ea9a60"] ;
865 -> 917 ;
918 [label="mse = 66.678\nsamples = 17\nvalue = 34.706", fillcolor="#eca470"] ;
917 -> 918 ;
919 [label="Country <= 35.5\nmse = 27.049\nsamples = 15\nvalue = 43.133", fillcolor="#e88e4d"] ;
917 -> 919 ;
920 [label="Style <= 4.5\nmse = 22.178\nsamples = 13\nvalue = 44.231", fillcolor="#e78b49"] ;
919 -> 920 ;
921 [label="mse = 4.0\nsamples = 5\nvalue = 46.0", fillcolor="#e68641"] ;
920 -> 921 ;
922 [label="mse = 30.359\nsamples = 8\nvalue = 43.125", fillcolor="#e88e4d"] ;
920 -> 922 ;
923 [label="mse = 0.0\nsamples = 2\nvalue = 36.0", fillcolor="#eca06a"] ;
919 -> 923 ;
924 [label="Brand <= 267.5\nmse = 145.597\nsamples = 77\nvalue = 28.442", fillcolor="#f0b48a"] ;
864 -> 924 ;
925 [label="Brand <= 204.0\nmse = 135.404\nsamples = 57\nvalue = 26.228", fillcolor="#f1ba93"] ;
924 -> 925 ;
926 [label="mse = 0.0\nsamples = 1\nvalue = 0.0", fillcolor="#ffffff"] ;
925 -> 926 ;
927 [label="Brand <= 255.5\nmse = 125.319\nsamples = 56\nvalue = 26.696", fillcolor="#f1b991"] ;
925 -> 927 ;
928 [label="Brand <= 235.5\nmse = 119.523\nsamples = 51\nvalue = 27.745", fillcolor="#f0b68d"] ;
927 -> 928 ;
929 [label="Brand <= 230.5\nmse = 129.902\nsamples = 16\nvalue = 22.812", fillcolor="#f3c3a1"] ;
928 -> 929 ;
930 [label="Style <= 3.5\nmse = 101.556\nsamples = 15\nvalue = 24.333", fillcolor="#f2bf9b"] ;
929 -> 930 ;
931 [label="Style <= 2.0\nmse = 6.25\nsamples = 2\nvalue = 33.5", fillcolor="#eda775"] ;
930 -> 931 ;
932 [label="mse = 0.0\nsamples = 1\nvalue = 36.0", fillcolor="#eca06a"] ;
931 -> 932 ;
933 [label="mse = 0.0\nsamples = 1\nvalue = 31.0", fillcolor="#eeae7f"] ;
931 -> 933 ;
934 [label="Country <= 35.5\nmse = 101.302\nsamples = 13\nvalue = 22.923", fillcolor="#f3c3a0"] ;
930 -> 934 ;
935 [label="Brand <= 215.5\nmse = 108.69\nsamples = 10\nvalue = 23.9", fillcolor="#f2c09c"] ;
934 -> 935 ;
936 [label="mse = 0.0\nsamples = 1\nvalue = 28.0", fillcolor="#f0b68c"] ;
935 -> 936 ;
937 [label="mse = 118.691\nsamples = 9\nvalue = 23.444", fillcolor="#f2c19e"] ;
935 -> 937 ;
938 [label="mse = 62.889\nsamples = 3\nvalue = 19.667", fillcolor="#f4cbae"] ;
934 -> 938 ;
939 [label="mse = 0.0\nsamples = 1\nvalue = 0.0", fillcolor="#ffffff"] ;
929 -> 939 ;
940 [label="Style <= 4.5\nmse = 98.571\nsamples = 35\nvalue = 30.0", fillcolor="#efb083"] ;
928 -> 940 ;
941 [label="Country <= 34.0\nmse = 74.512\nsamples = 11\nvalue = 25.182", fillcolor="#f1bd97"] ;
940 -> 941 ;
942 [label="mse = 0.0\nsamples = 1\nvalue = 28.0", fillcolor="#f0b68c"] ;
941 -> 942 ;
943 [label="Style <= 2.5\nmse = 81.09\nsamples = 10\nvalue = 24.9", fillcolor="#f2be98"] ;
941 -> 943 ;
944 [label="mse = 61.102\nsamples = 7\nvalue = 24.571", fillcolor="#f2be9a"] ;
943 -> 944 ;
945 [label="mse = 126.889\nsamples = 3\nvalue = 25.667", fillcolor="#f1bc95"] ;
943 -> 945 ;
946 [label="Country <= 34.5\nmse = 94.082\nsamples = 24\nvalue = 32.208", fillcolor="#eeaa7a"] ;
940 -> 946 ;
947 [label="Brand <= 239.0\nmse = 99.89\nsamples = 10\nvalue = 28.1", fillcolor="#f0b58b"] ;
946 -> 947 ;
948 [label="mse = 23.6\nsamples = 5\nvalue = 36.0", fillcolor="#eca06a"] ;
947 -> 948 ;
949 [label="mse = 51.36\nsamples = 5\nvalue = 20.2", fillcolor="#f4caac"] ;
947 -> 949 ;
950 [label="Brand <= 248.5\nmse = 69.265\nsamples = 14\nvalue = 35.143", fillcolor="#eca36e"] ;
946 -> 950 ;
951 [label="Country <= 36.0\nmse = 18.667\nsamples = 9\nvalue = 36.333", fillcolor="#eba069"] ;
950 -> 951 ;
952 [label="Brand <= 240.5\nmse = 4.8\nsamples = 5\nvalue = 38.0", fillcolor="#ea9b62"] ;
951 -> 952 ;
953 [label="mse = 0.0\nsamples = 1\nvalue = 38.0", fillcolor="#ea9b62"] ;
952 -> 953 ;
954 [label="mse = 6.0\nsamples = 4\nvalue = 38.0", fillcolor="#ea9b62"] ;
952 -> 954 ;
955 [label="mse = 28.188\nsamples = 4\nvalue = 34.25", fillcolor="#eca572"] ;
951 -> 955 ;
956 [label="mse = 153.2\nsamples = 5\nvalue = 33.0", fillcolor="#eda877"] ;
950 -> 956 ;
957 [label="Country <= 34.5\nmse = 58.8\nsamples = 5\nvalue = 16.0", fillcolor="#f6d5bd"] ;
927 -> 957 ;
958 [label="mse = 0.0\nsamples = 1\nvalue = 9.0", fillcolor="#fae7da"] ;
957 -> 958 ;
959 [label="Brand <= 264.5\nmse = 58.188\nsamples = 4\nvalue = 17.75", fillcolor="#f5d0b6"] ;
957 -> 959 ;
960 [label="mse = 43.556\nsamples = 3\nvalue = 20.667", fillcolor="#f4c9aa"] ;
959 -> 960 ;
961 [label="mse = 0.0\nsamples = 1\nvalue = 9.0", fillcolor="#fae7da"] ;
959 -> 961 ;
962 [label="Style <= 3.0\nmse = 120.888\nsamples = 20\nvalue = 34.75", fillcolor="#eca470"] ;
924 -> 962 ;
963 [label="Brand <= 272.5\nmse = 144.222\nsamples = 9\nvalue = 27.333", fillcolor="#f0b78e"] ;
962 -> 963 ;
964 [label="mse = 0.0\nsamples = 1\nvalue = 42.0", fillcolor="#e89152"] ;
963 -> 964 ;
965 [label="mse = 132.0\nsamples = 8\nvalue = 25.5", fillcolor="#f1bc96"] ;
963 -> 965 ;
966 [label="Brand <= 290.5\nmse = 19.967\nsamples = 11\nvalue = 40.818", fillcolor="#e99457"] ;
962 -> 966 ;
967 [label="Brand <= 274.5\nmse = 20.472\nsamples = 6\nvalue = 43.167", fillcolor="#e88e4d"] ;
966 -> 967 ;
968 [label="mse = 0.0\nsamples = 1\nvalue = 36.0", fillcolor="#eca06a"] ;
967 -> 968 ;
969 [label="Country <= 34.0\nmse = 12.24\nsamples = 5\nvalue = 44.6", fillcolor="#e78a47"] ;
967 -> 969 ;
970 [label="mse = 0.0\nsamples = 1\nvalue = 47.0", fillcolor="#e6843d"] ;
969 -> 970 ;
971 [label="Style <= 5.5\nmse = 13.5\nsamples = 4\nvalue = 44.0", fillcolor="#e78c4a"] ;
969 -> 971 ;
972 [label="mse = 0.0\nsamples = 1\nvalue = 44.0", fillcolor="#e78c4a"] ;
971 -> 972 ;
973 [label="mse = 18.0\nsamples = 3\nvalue = 44.0", fillcolor="#e78c4a"] ;
971 -> 973 ;
974 [label="mse = 4.8\nsamples = 5\nvalue = 38.0", fillcolor="#ea9b62"] ;
966 -> 974 ;
975 [label="Brand <= 296.0\nmse = 135.891\nsamples = 112\nvalue = 24.455", fillcolor="#f2bf9a"] ;
785 -> 975 ;
976 [label="Style <= 4.5\nmse = 14.472\nsamples = 6\nvalue = 9.833", fillcolor="#fae5d6"] ;
975 -> 976 ;
977 [label="Brand <= 294.5\nmse = 10.96\nsamples = 5\nvalue = 8.8", fillcolor="#fae8db"] ;
976 -> 977 ;
978 [label="Brand <= 293.0\nmse = 4.0\nsamples = 2\nvalue = 10.0", fillcolor="#fae5d6"] ;
977 -> 978 ;
979 [label="mse = 0.0\nsamples = 1\nvalue = 8.0", fillcolor="#fbeade"] ;
978 -> 979 ;
980 [label="mse = 0.0\nsamples = 1\nvalue = 12.0", fillcolor="#f8e0ce"] ;
978 -> 980 ;
981 [label="mse = 14.0\nsamples = 3\nvalue = 8.0", fillcolor="#fbeade"] ;
977 -> 981 ;
982 [label="mse = 0.0\nsamples = 1\nvalue = 15.0", fillcolor="#f7d8c1"] ;
976 -> 982 ;
983 [label="Country <= 36.0\nmse = 129.977\nsamples = 106\nvalue = 25.283", fillcolor="#f1bd97"] ;
975 -> 983 ;
984 [label="Brand <= 299.5\nmse = 153.118\nsamples = 45\nvalue = 22.356", fillcolor="#f3c4a3"] ;
983 -> 984 ;
985 [label="Style <= 2.5\nmse = 124.533\nsamples = 13\nvalue = 28.077", fillcolor="#f0b58b"] ;
984 -> 985 ;
986 [label="mse = 16.0\nsamples = 2\nvalue = 32.0", fillcolor="#eeab7b"] ;
985 -> 986 ;
987 [label="Country <= 34.0\nmse = 140.959\nsamples = 11\nvalue = 27.364", fillcolor="#f0b78e"] ;
985 -> 987 ;
988 [label="mse = 9.0\nsamples = 2\nvalue = 25.0", fillcolor="#f1bd98"] ;
987 -> 988 ;
989 [label="Brand <= 298.5\nmse = 168.765\nsamples = 9\nvalue = 27.889", fillcolor="#f0b68c"] ;
987 -> 989 ;
990 [label="Style <= 5.5\nmse = 137.102\nsamples = 7\nvalue = 28.571", fillcolor="#f0b489"] ;
989 -> 990 ;
991 [label="mse = 145.36\nsamples = 5\nvalue = 27.2", fillcolor="#f0b88f"] ;
990 -> 991 ;
992 [label="mse = 100.0\nsamples = 2\nvalue = 32.0", fillcolor="#eeab7b"] ;
990 -> 992 ;
993 [label="mse = 272.25\nsamples = 2\nvalue = 25.5", fillcolor="#f1bc96"] ;
989 -> 993 ;
994 [label="Style <= 5.5\nmse = 146.03\nsamples = 32\nvalue = 20.031", fillcolor="#f4caac"] ;
984 -> 994 ;
995 [label="Brand <= 335.0\nmse = 137.38\nsamples = 31\nvalue = 20.677", fillcolor="#f4c9aa"] ;
994 -> 995 ;
996 [label="Brand <= 308.5\nmse = 131.196\nsamples = 30\nvalue = 21.267", fillcolor="#f3c7a7"] ;
995 -> 996 ;
997 [label="Country <= 34.5\nmse = 110.8\nsamples = 5\nvalue = 16.0", fillcolor="#f6d5bd"] ;
996 -> 997 ;
998 [label="mse = 36.0\nsamples = 2\nvalue = 16.0", fillcolor="#f6d5bd"] ;
997 -> 998 ;
999 [label="mse = 160.667\nsamples = 3\nvalue = 16.0", fillcolor="#f6d5bd"] ;
997 -> 999 ;
1000 [label="Brand <= 318.5\nmse = 128.618\nsamples = 25\nvalue = 22.32", fillcolor="#f3c4a3"] ;
996 -> 1000 ;
1001 [label="Style <= 4.5\nmse = 68.8\nsamples = 5\nvalue = 27.0", fillcolor="#f0b890"] ;
1000 -> 1001 ;
1002 [label="mse = 60.667\nsamples = 3\nvalue = 27.0", fillcolor="#f0b890"] ;
1001 -> 1002 ;
1003 [label="mse = 81.0\nsamples = 2\nvalue = 27.0", fillcolor="#f0b890"] ;
1001 -> 1003 ;
1004 [label="Style <= 2.5\nmse = 136.728\nsamples = 20\nvalue = 21.15", fillcolor="#f4c7a8"] ;
1000 -> 1004 ;
1005 [label="mse = 0.0\nsamples = 1\nvalue = 17.0", fillcolor="#f6d2b9"] ;
1004 -> 1005 ;
1006 [label="Style <= 4.5\nmse = 142.97\nsamples = 19\nvalue = 21.368", fillcolor="#f3c7a7"] ;
1004 -> 1006 ;
1007 [label="Country <= 33.5\nmse = 257.84\nsamples = 5\nvalue = 22.4", fillcolor="#f3c4a3"] ;
1006 -> 1007 ;
1008 [label="mse = 0.0\nsamples = 1\nvalue = 31.0", fillcolor="#eeae7f"] ;
1007 -> 1008 ;
1009 [label="mse = 299.188\nsamples = 4\nvalue = 20.25", fillcolor="#f4caab"] ;
1007 -> 1009 ;
1010 [label="mse = 101.429\nsamples = 14\nvalue = 21.0", fillcolor="#f4c8a8"] ;
1006 -> 1010 ;
1011 [label="mse = 0.0\nsamples = 1\nvalue = 3.0", fillcolor="#fdf7f3"] ;
995 -> 1011 ;
1012 [label="mse = 0.0\nsamples = 1\nvalue = 0.0", fillcolor="#ffffff"] ;
994 -> 1012 ;
1013 [label="Brand <= 328.0\nmse = 101.919\nsamples = 61\nvalue = 27.443", fillcolor="#f0b78e"] ;
983 -> 1013 ;
1014 [label="Brand <= 320.5\nmse = 97.6\nsamples = 5\nvalue = 14.0", fillcolor="#f7dac5"] ;
1013 -> 1014 ;
1015 [label="mse = 0.0\nsamples = 1\nvalue = 0.0", fillcolor="#ffffff"] ;
1014 -> 1015 ;
1016 [label="Brand <= 325.0\nmse = 60.75\nsamples = 4\nvalue = 17.5", fillcolor="#f6d1b7"] ;
1014 -> 1016 ;
1017 [label="mse = 25.0\nsamples = 2\nvalue = 23.0", fillcolor="#f3c3a0"] ;
1016 -> 1017 ;
1018 [label="mse = 36.0\nsamples = 2\nvalue = 12.0", fillcolor="#f8e0ce"] ;
1016 -> 1018 ;
