digraph Tree {
node [shape=box, style="filled", color="black"] ;
0 [label="Sex <= 0.5\nentropy = 0.913\nsamples = 183\nvalue = [60, 123]\nclass = 0", fillcolor="#9acdf2"] ;
1 [label="Fare <= 10.481\nentropy = 0.359\nsamples = 88\nvalue = [6, 82]\nclass = 0", fillcolor="#47a4e7"] ;
0 -> 1 [labeldistance=2.5, labelangle=45, headlabel="True"] ;
2 [label="entropy = 0.0\nsamples = 2\nvalue = [2, 0]\nclass = 1", fillcolor="#e58139"] ;
1 -> 2 ;
3 [label="Age <= 3.0\nentropy = 0.271\nsamples = 86\nvalue = [4, 82]\nclass = 0", fillcolor="#43a2e6"] ;
1 -> 3 ;
4 [label="entropy = 0.0\nsamples = 1\nvalue = [1, 0]\nclass = 1", fillcolor="#e58139"] ;
3 -> 4 ;
5 [label="Age <= 49.5\nentropy = 0.22\nsamples = 85\nvalue = [3, 82]\nclass = 0", fillcolor="#40a1e6"] ;
3 -> 5 ;
6 [label="Fare <= 143.592\nentropy = 0.107\nsamples = 71\nvalue = [1, 70]\nclass = 0", fillcolor="#3c9ee5"] ;
5 -> 6 ;
7 [label="entropy = 0.0\nsamples = 59\nvalue = [0, 59]\nclass = 0", fillcolor="#399de5"] ;
6 -> 7 ;
8 [label="Fare <= 152.506\nentropy = 0.414\nsamples = 12\nvalue = [1, 11]\nclass = 0", fillcolor="#4ba6e7"] ;
6 -> 8 ;
9 [label="entropy = 0.0\nsamples = 1\nvalue = [1, 0]\nclass = 1", fillcolor="#e58139"] ;
8 -> 9 ;
10 [label="entropy = 0.0\nsamples = 11\nvalue = [0, 11]\nclass = 0", fillcolor="#399de5"] ;
8 -> 10 ;
11 [label="Fare <= 40.096\nentropy = 0.592\nsamples = 14\nvalue = [2, 12]\nclass = 0", fillcolor="#5aade9"] ;
5 -> 11 ;
12 [label="Age <= 57.5\nentropy = 0.918\nsamples = 3\nvalue = [2, 1]\nclass = 1", fillcolor="#f2c09c"] ;
11 -> 12 ;
13 [label="entropy = 0.0\nsamples = 2\nvalue = [2, 0]\nclass = 1", fillcolor="#e58139"] ;
12 -> 13 ;
14 [label="entropy = 0.0\nsamples = 1\nvalue = [0, 1]\nclass = 0", fillcolor="#399de5"] ;
12 -> 14 ;
15 [label="entropy = 0.0\nsamples = 11\nvalue = [0, 11]\nclass = 0", fillcolor="#399de5"] ;
11 -> 15 ;
16 [label="Age <= 17.5\nentropy = 0.986\nsamples = 95\nvalue = [54, 41]\nclass = 1", fillcolor="#f9e1cf"] ;
0 -> 16 [labeldistance=2.5, labelangle=-45, headlabel="False"] ;
17 [label="entropy = 0.0\nsamples = 8\nvalue = [0, 8]\nclass = 0", fillcolor="#399de5"] ;
16 -> 17 ;
18 [label="Fare <= 7.85\nentropy = 0.958\nsamples = 87\nvalue = [54, 33]\nclass = 1", fillcolor="#f5ceb2"] ;
16 -> 18 ;
19 [label="entropy = 0.0\nsamples = 6\nvalue = [6, 0]\nclass = 1", fillcolor="#e58139"] ;
18 -> 19 ;
20 [label="Age <= 43.0\nentropy = 0.975\nsamples = 81\nvalue = [48, 33]\nclass = 1", fillcolor="#f7d8c1"] ;
18 -> 20 ;
21 [label="Age <= 22.0\nentropy = 0.993\nsamples = 42\nvalue = [19, 23]\nclass = 0", fillcolor="#ddeefa"] ;
20 -> 21 ;
22 [label="entropy = 0.0\nsamples = 4\nvalue = [4, 0]\nclass = 1", fillcolor="#e58139"] ;
21 -> 22 ;
23 [label="Age <= 39.0\nentropy = 0.968\nsamples = 38\nvalue = [15, 23]\nclass = 0", fillcolor="#baddf6"] ;
21 -> 23 ;
24 [label="Fare <= 379.925\nentropy = 0.985\nsamples = 35\nvalue = [15, 20]\nclass = 0", fillcolor="#cee6f8"] ;
23 -> 24 ;
25 [label="Fare <= 136.731\nentropy = 0.994\nsamples = 33\nvalue = [15, 18]\nclass = 0", fillcolor="#deeffb"] ;
24 -> 25 ;
26 [label="Age <= 28.5\nentropy = 0.971\nsamples = 30\nvalue = [12, 18]\nclass = 0", fillcolor="#bddef6"] ;
25 -> 26 ;
27 [label="Age <= 24.5\nentropy = 0.503\nsamples = 9\nvalue = [1, 8]\nclass = 0", fillcolor="#52a9e8"] ;
26 -> 27 ;
28 [label="Fare <= 71.279\nentropy = 1.0\nsamples = 2\nvalue = [1, 1]\nclass = 1", fillcolor="#ffffff"] ;
27 -> 28 ;
29 [label="entropy = 0.0\nsamples = 1\nvalue = [0, 1]\nclass = 0", fillcolor="#399de5"] ;
28 -> 29 ;
30 [label="entropy = 0.0\nsamples = 1\nvalue = [1, 0]\nclass = 1", fillcolor="#e58139"] ;
28 -> 30 ;
31 [label="entropy = 0.0\nsamples = 7\nvalue = [0, 7]\nclass = 0", fillcolor="#399de5"] ;
27 -> 31 ;
32 [label="Age <= 30.5\nentropy = 0.998\nsamples = 21\nvalue = [11, 10]\nclass = 1", fillcolor="#fdf4ed"] ;
26 -> 32 ;
33 [label="entropy = 0.0\nsamples = 3\nvalue = [3, 0]\nclass = 1", fillcolor="#e58139"] ;
32 -> 33 ;
34 [label="Fare <= 84.425\nentropy = 0.991\nsamples = 18\nvalue = [8, 10]\nclass = 0", fillcolor="#d7ebfa"] ;
32 -> 34 ;
35 [label="Fare <= 28.044\nentropy = 1.0\nsamples = 16\nvalue = [8, 8]\nclass = 1", fillcolor="#ffffff"] ;
34 -> 35 ;
36 [label="Age <= 36.25\nentropy = 0.863\nsamples = 7\nvalue = [2, 5]\nclass = 0", fillcolor="#88c4ef"] ;
35 -> 36 ;
37 [label="Fare <= 12.938\nentropy = 0.65\nsamples = 6\nvalue = [1, 5]\nclass = 0", fillcolor="#61b1ea"] ;
36 -> 37 ;
38 [label="Pclass <= 2.5\nentropy = 1.0\nsamples = 2\nvalue = [1, 1]\nclass = 1", fillcolor="#ffffff"] ;
37 -> 38 ;
39 [label="entropy = 0.0\nsamples = 1\nvalue = [1, 0]\nclass = 1", fillcolor="#e58139"] ;
38 -> 39 ;
40 [label="entropy = 0.0\nsamples = 1\nvalue = [0, 1]\nclass = 0", fillcolor="#399de5"] ;
38 -> 40 ;
41 [label="entropy = 0.0\nsamples = 4\nvalue = [0, 4]\nclass = 0", fillcolor="#399de5"] ;
37 -> 41 ;
42 [label="entropy = 0.0\nsamples = 1\nvalue = [1, 0]\nclass = 1", fillcolor="#e58139"] ;
36 -> 42 ;
43 [label="Fare <= 52.277\nentropy = 0.918\nsamples = 9\nvalue = [6, 3]\nclass = 1", fillcolor="#f2c09c"] ;
35 -> 43 ;
44 [label="Fare <= 35.312\nentropy = 0.722\nsamples = 5\nvalue = [4, 1]\nclass = 1", fillcolor="#eca06a"] ;
43 -> 44 ;
45 [label="Parch <= 0.5\nentropy = 1.0\nsamples = 2\nvalue = [1, 1]\nclass = 1", fillcolor="#ffffff"] ;
44 -> 45 ;
46 [label="entropy = 0.0\nsamples = 1\nvalue = [0, 1]\nclass = 0", fillcolor="#399de5"] ;
45 -> 46 ;
47 [label="entropy = 0.0\nsamples = 1\nvalue = [1, 0]\nclass = 1", fillcolor="#e58139"] ;
45 -> 47 ;
48 [label="entropy = 0.0\nsamples = 3\nvalue = [3, 0]\nclass = 1", fillcolor="#e58139"] ;
44 -> 48 ;
49 [label="Fare <= 52.827\nentropy = 1.0\nsamples = 4\nvalue = [2, 2]\nclass = 1", fillcolor="#ffffff"] ;
43 -> 49 ;
50 [label="entropy = 0.0\nsamples = 1\nvalue = [0, 1]\nclass = 0", fillcolor="#399de5"] ;
49 -> 50 ;
51 [label="Age <= 33.5\nentropy = 0.918\nsamples = 3\nvalue = [2, 1]\nclass = 1", fillcolor="#f2c09c"] ;
49 -> 51 ;
52 [label="entropy = 0.0\nsamples = 1\nvalue = [0, 1]\nclass = 0", fillcolor="#399de5"] ;
51 -> 52 ;
53 [label="entropy = 0.0\nsamples = 2\nvalue = [2, 0]\nclass = 1", fillcolor="#e58139"] ;
51 -> 53 ;
54 [label="entropy = 0.0\nsamples = 2\nvalue = [0, 2]\nclass = 0", fillcolor="#399de5"] ;
34 -> 54 ;
55 [label="entropy = 0.0\nsamples = 3\nvalue = [3, 0]\nclass = 1", fillcolor="#e58139"] ;
25 -> 55 ;
56 [label="entropy = 0.0\nsamples = 2\nvalue = [0, 2]\nclass = 0", fillcolor="#399de5"] ;
24 -> 56 ;
57 [label="entropy = 0.0\nsamples = 3\nvalue = [0, 3]\nclass = 0", fillcolor="#399de5"] ;
23 -> 57 ;
58 [label="Age <= 47.5\nentropy = 0.821\nsamples = 39\nvalue = [29, 10]\nclass = 1", fillcolor="#eeac7d"] ;
20 -> 58 ;
59 [label="entropy = 0.0\nsamples = 11\nvalue = [11, 0]\nclass = 1", fillcolor="#e58139"] ;
58 -> 59 ;
60 [label="Age <= 49.5\nentropy = 0.94\nsamples = 28\nvalue = [18, 10]\nclass = 1", fillcolor="#f3c7a7"] ;
58 -> 60 ;
61 [label="Parch <= 0.5\nentropy = 0.65\nsamples = 6\nvalue = [1, 5]\nclass = 0", fillcolor="#61b1ea"] ;
60 -> 61 ;
62 [label="entropy = 0.0\nsamples = 5\nvalue = [0, 5]\nclass = 0", fillcolor="#399de5"] ;
61 -> 62 ;
63 [label="entropy = 0.0\nsamples = 1\nvalue = [1, 0]\nclass = 1", fillcolor="#e58139"] ;
61 -> 63 ;
64 [label="Age <= 75.5\nentropy = 0.773\nsamples = 22\nvalue = [17, 5]\nclass = 1", fillcolor="#eda673"] ;
60 -> 64 ;
65 [label="Age <= 60.5\nentropy = 0.702\nsamples = 21\nvalue = [17, 4]\nclass = 1", fillcolor="#eb9f68"] ;
64 -> 65 ;
66 [label="Fare <= 79.425\nentropy = 0.89\nsamples = 13\nvalue = [9, 4]\nclass = 1", fillcolor="#f1b991"] ;
65 -> 66 ;
67 [label="Age <= 59.0\nentropy = 0.971\nsamples = 10\nvalue = [6, 4]\nclass = 1", fillcolor="#f6d5bd"] ;
66 -> 67 ;
68 [label="Fare <= 43.681\nentropy = 0.918\nsamples = 9\nvalue = [6, 3]\nclass = 1", fillcolor="#f2c09c"] ;
67 -> 68 ;
69 [label="Age <= 53.5\nentropy = 1.0\nsamples = 6\nvalue = [3, 3]\nclass = 1", fillcolor="#ffffff"] ;
68 -> 69 ;
70 [label="entropy = 0.0\nsamples = 2\nvalue = [0, 2]\nclass = 0", fillcolor="#399de5"] ;
69 -> 70 ;
71 [label="Fare <= 33.098\nentropy = 0.811\nsamples = 4\nvalue = [3, 1]\nclass = 1", fillcolor="#eeab7b"] ;
69 -> 71 ;
72 [label="entropy = 0.0\nsamples = 3\nvalue = [3, 0]\nclass = 1", fillcolor="#e58139"] ;
71 -> 72 ;
73 [label="entropy = 0.0\nsamples = 1\nvalue = [0, 1]\nclass = 0", fillcolor="#399de5"] ;
71 -> 73 ;
74 [label="entropy = 0.0\nsamples = 3\nvalue = [3, 0]\nclass = 1", fillcolor="#e58139"] ;
68 -> 74 ;
75 [label="entropy = 0.0\nsamples = 1\nvalue = [0, 1]\nclass = 0", fillcolor="#399de5"] ;
67 -> 75 ;
76 [label="entropy = 0.0\nsamples = 3\nvalue = [3, 0]\nclass = 1", fillcolor="#e58139"] ;
66 -> 76 ;
77 [label="entropy = 0.0\nsamples = 8\nvalue = [8, 0]\nclass = 1", fillcolor="#e58139"] ;
65 -> 77 ;
78 [label="entropy = 0.0\nsamples = 1\nvalue = [0, 1]\nclass = 0", fillcolor="#399de5"] ;
64 -> 78 ;
}