digraph Tree {
node [shape=box, style="filled", color="black"] ;
0 [label="Sex <= 0.5\ngini = 0.441\nsamples = 183\nvalue = [60, 123]\nclass = 0", fillcolor="#9acdf2"] ;
1 [label="Age <= 3.0\ngini = 0.127\nsamples = 88\nvalue = [6, 82]\nclass = 0", fillcolor="#47a4e7"] ;
0 -> 1 [labeldistance=2.5, labelangle=45, headlabel="True"] ;
2 [label="gini = 0.0\nsamples = 2\nvalue = [2, 0]\nclass = 1", fillcolor="#e58139"] ;
1 -> 2 ;
3 [label="Fare <= 10.481\ngini = 0.089\nsamples = 86\nvalue = [4, 82]\nclass = 0", fillcolor="#43a2e6"] ;
1 -> 3 ;
4 [label="gini = 0.0\nsamples = 1\nvalue = [1, 0]\nclass = 1", fillcolor="#e58139"] ;
3 -> 4 ;
5 [label="Age <= 49.5\ngini = 0.068\nsamples = 85\nvalue = [3, 82]\nclass = 0", fillcolor="#40a1e6"] ;
3 -> 5 ;
6 [label="Fare <= 143.592\ngini = 0.028\nsamples = 71\nvalue = [1, 70]\nclass = 0", fillcolor="#3c9ee5"] ;
5 -> 6 ;
7 [label="gini = 0.0\nsamples = 59\nvalue = [0, 59]\nclass = 0", fillcolor="#399de5"] ;
6 -> 7 ;
8 [label="Fare <= 152.506\ngini = 0.153\nsamples = 12\nvalue = [1, 11]\nclass = 0", fillcolor="#4ba6e7"] ;
6 -> 8 ;
9 [label="gini = 0.0\nsamples = 1\nvalue = [1, 0]\nclass = 1", fillcolor="#e58139"] ;
8 -> 9 ;
10 [label="gini = 0.0\nsamples = 11\nvalue = [0, 11]\nclass = 0", fillcolor="#399de5"] ;
8 -> 10 ;
11 [label="Fare <= 40.096\ngini = 0.245\nsamples = 14\nvalue = [2, 12]\nclass = 0", fillcolor="#5aade9"] ;
5 -> 11 ;
12 [label="Age <= 57.5\ngini = 0.444\nsamples = 3\nvalue = [2, 1]\nclass = 1", fillcolor="#f2c09c"] ;
11 -> 12 ;
13 [label="gini = 0.0\nsamples = 2\nvalue = [2, 0]\nclass = 1", fillcolor="#e58139"] ;
12 -> 13 ;
14 [label="gini = 0.0\nsamples = 1\nvalue = [0, 1]\nclass = 0", fillcolor="#399de5"] ;
12 -> 14 ;
15 [label="gini = 0.0\nsamples = 11\nvalue = [0, 11]\nclass = 0", fillcolor="#399de5"] ;
11 -> 15 ;
16 [label="Age <= 17.5\ngini = 0.491\nsamples = 95\nvalue = [54, 41]\nclass = 1", fillcolor="#f9e1cf"] ;
0 -> 16 [labeldistance=2.5, labelangle=-45, headlabel="False"] ;
17 [label="gini = 0.0\nsamples = 8\nvalue = [0, 8]\nclass = 0", fillcolor="#399de5"] ;
16 -> 17 ;
18 [label="Age <= 43.0\ngini = 0.471\nsamples = 87\nvalue = [54, 33]\nclass = 1", fillcolor="#f5ceb2"] ;
16 -> 18 ;
19 [label="Fare <= 7.85\ngini = 0.499\nsamples = 48\nvalue = [25, 23]\nclass = 1", fillcolor="#fdf5ef"] ;
18 -> 19 ;
20 [label="gini = 0.0\nsamples = 6\nvalue = [6, 0]\nclass = 1", fillcolor="#e58139"] ;
19 -> 20 ;
21 [label="Age <= 24.5\ngini = 0.495\nsamples = 42\nvalue = [19, 23]\nclass = 0", fillcolor="#ddeefa"] ;
19 -> 21 ;
22 [label="Fare <= 70.323\ngini = 0.245\nsamples = 7\nvalue = [6, 1]\nclass = 1", fillcolor="#e9965a"] ;
21 -> 22 ;
23 [label="Age <= 21.0\ngini = 0.5\nsamples = 2\nvalue = [1, 1]\nclass = 1", fillcolor="#ffffff"] ;
22 -> 23 ;
24 [label="gini = 0.0\nsamples = 1\nvalue = [1, 0]\nclass = 1", fillcolor="#e58139"] ;
23 -> 24 ;
25 [label="gini = 0.0\nsamples = 1\nvalue = [0, 1]\nclass = 0", fillcolor="#399de5"] ;
23 -> 25 ;
26 [label="gini = 0.0\nsamples = 5\nvalue = [5, 0]\nclass = 1", fillcolor="#e58139"] ;
22 -> 26 ;
27 [label="Age <= 28.5\ngini = 0.467\nsamples = 35\nvalue = [13, 22]\nclass = 0", fillcolor="#aed7f4"] ;
21 -> 27 ;
28 [label="Parch <= 1.0\ngini = 0.219\nsamples = 8\nvalue = [1, 7]\nclass = 0", fillcolor="#55abe9"] ;
27 -> 28 ;
29 [label="gini = 0.0\nsamples = 7\nvalue = [0, 7]\nclass = 0", fillcolor="#399de5"] ;
28 -> 29 ;
30 [label="gini = 0.0\nsamples = 1\nvalue = [1, 0]\nclass = 1", fillcolor="#e58139"] ;
28 -> 30 ;
31 [label="Age <= 31.5\ngini = 0.494\nsamples = 27\nvalue = [12, 15]\nclass = 0", fillcolor="#d7ebfa"] ;
27 -> 31 ;
32 [label="Fare <= 54.5\ngini = 0.278\nsamples = 6\nvalue = [5, 1]\nclass = 1", fillcolor="#ea9a61"] ;
31 -> 32 ;
33 [label="gini = 0.0\nsamples = 4\nvalue = [4, 0]\nclass = 1", fillcolor="#e58139"] ;
32 -> 33 ;
34 [label="Age <= 30.0\ngini = 0.5\nsamples = 2\nvalue = [1, 1]\nclass = 1", fillcolor="#ffffff"] ;
32 -> 34 ;
35 [label="gini = 0.0\nsamples = 1\nvalue = [1, 0]\nclass = 1", fillcolor="#e58139"] ;
34 -> 35 ;
36 [label="gini = 0.0\nsamples = 1\nvalue = [0, 1]\nclass = 0", fillcolor="#399de5"] ;
34 -> 36 ;
37 [label="Age <= 35.5\ngini = 0.444\nsamples = 21\nvalue = [7, 14]\nclass = 0", fillcolor="#9ccef2"] ;
31 -> 37 ;
38 [label="gini = 0.0\nsamples = 5\nvalue = [0, 5]\nclass = 0", fillcolor="#399de5"] ;
37 -> 38 ;
39 [label="Pclass <= 1.5\ngini = 0.492\nsamples = 16\nvalue = [7, 9]\nclass = 0", fillcolor="#d3e9f9"] ;
37 -> 39 ;
40 [label="Fare <= 28.044\ngini = 0.459\nsamples = 14\nvalue = [5, 9]\nclass = 0", fillcolor="#a7d3f3"] ;
39 -> 40 ;
41 [label="gini = 0.0\nsamples = 3\nvalue = [0, 3]\nclass = 0", fillcolor="#399de5"] ;
40 -> 41 ;
42 [label="gini = 0.496\nsamples = 11\nvalue = [5, 6]\nclass = 0", fillcolor="#deeffb"] ;
40 -> 42 ;
43 [label="gini = 0.0\nsamples = 2\nvalue = [2, 0]\nclass = 1", fillcolor="#e58139"] ;
39 -> 43 ;
44 [label="Age <= 47.5\ngini = 0.381\nsamples = 39\nvalue = [29, 10]\nclass = 1", fillcolor="#eeac7d"] ;
18 -> 44 ;
45 [label="gini = 0.0\nsamples = 11\nvalue = [11, 0]\nclass = 1", fillcolor="#e58139"] ;
44 -> 45 ;
46 [label="Age <= 49.5\ngini = 0.459\nsamples = 28\nvalue = [18, 10]\nclass = 1", fillcolor="#f3c7a7"] ;
44 -> 46 ;
47 [label="Parch <= 0.5\ngini = 0.278\nsamples = 6\nvalue = [1, 5]\nclass = 0", fillcolor="#61b1ea"] ;
46 -> 47 ;
48 [label="gini = 0.0\nsamples = 5\nvalue = [0, 5]\nclass = 0", fillcolor="#399de5"] ;
47 -> 48 ;
49 [label="gini = 0.0\nsamples = 1\nvalue = [1, 0]\nclass = 1", fillcolor="#e58139"] ;
47 -> 49 ;
50 [label="Age <= 75.5\ngini = 0.351\nsamples = 22\nvalue = [17, 5]\nclass = 1", fillcolor="#eda673"] ;
46 -> 50 ;
51 [label="Age <= 60.5\ngini = 0.308\nsamples = 21\nvalue = [17, 4]\nclass = 1", fillcolor="#eb9f68"] ;
50 -> 51 ;
52 [label="Age <= 59.0\ngini = 0.426\nsamples = 13\nvalue = [9, 4]\nclass = 1", fillcolor="#f1b991"] ;
51 -> 52 ;
53 [label="Fare <= 43.681\ngini = 0.375\nsamples = 12\nvalue = [9, 3]\nclass = 1", fillcolor="#eeab7b"] ;
52 -> 53 ;
54 [label="Age <= 53.5\ngini = 0.5\nsamples = 6\nvalue = [3, 3]\nclass = 1", fillcolor="#ffffff"] ;
53 -> 54 ;
55 [label="gini = 0.0\nsamples = 2\nvalue = [0, 2]\nclass = 0", fillcolor="#399de5"] ;
54 -> 55 ;
56 [label="gini = 0.375\nsamples = 4\nvalue = [3, 1]\nclass = 1", fillcolor="#eeab7b"] ;
54 -> 56 ;
57 [label="gini = 0.0\nsamples = 6\nvalue = [6, 0]\nclass = 1", fillcolor="#e58139"] ;
53 -> 57 ;
58 [label="gini = 0.0\nsamples = 1\nvalue = [0, 1]\nclass = 0", fillcolor="#399de5"] ;
52 -> 58 ;
59 [label="gini = 0.0\nsamples = 8\nvalue = [8, 0]\nclass = 1", fillcolor="#e58139"] ;
51 -> 59 ;
60 [label="gini = 0.0\nsamples = 1\nvalue = [0, 1]\nclass = 0", fillcolor="#399de5"] ;
50 -> 60 ;
}